{"learner":{"attributes":{"scikit_learn":"{\"_estimator_type\": \"regressor\"}"},"feature_names":[],"feature_types":[],"gradient_booster":{"model":{"gbtree_model_param":{"num_parallel_tree":"1","num_trees":"300"},"iteration_indptr":[0,1,2,3,4,5,6,7,8,9,10,11,12,13,14,15,16,17,18,19,20,21,22,23,24,25,26,27,28,29,30,31,32,33,34,35,36,37,38,39,40,41,42,43,44,45,46,47,48,49,50,51,52,53,54,55,56,57,58,59,60,61,62,63,64,65,66,67,68,69,70,71,72,73,74,75,76,77,78,79,80,81,82,83,84,85,86,87,88,89,90,91,92,93,94,95,96,97,98,99,100,101,102,103,104,105,106,107,108,109,110,111,112,113,114,115,116,117,118,119,120,121,122,123,124,125,126,127,128,129,130,131,132,133,134,135,136,137,138,139,140,141,142,143,144,145,146,147,148,149,150,151,152,153,154,155,156,157,158,159,160,161,162,163,164,165,166,167,168,169,170,171,172,173,174,175,176,177,178,179,180,181,182,183,184,185,186,187,188,189,190,191,192,193,194,195,196,197,198,199,200,201,202,203,204,205,206,207,208,209,210,211,212,213,214,215,216,217,218,219,220,221,222,223,224,225,226,227,228,229,230,231,232,233,234,235,236,237,238,239,240,241,242,243,244,245,246,247,248,249,250,251,252,253,254,255,256,257,258,259,260,261,262,263,264,265,266,267,268,269,270,271,272,273,274,275,276,277,278,279,280,281,282,283,284,285,286,287,288,289,290,291,292,293,294,295,296,297,298,299,300],"tree_info":[0,0,0,0,0,0,0,0,0,0,0,0,0,0,0,0,0,0,0,0,0,0,0,0,0,0,0,0,0,0,0,0,0,0,0,0,0,0,0,0,0,0,0,0,0,0,0,0,0,0,0,0,0,0,0,0,0,0,0,0,0,0,0,0,0,0,0,0,0,0,0,0,0,0,0,0,0,0,0,0,0,0,0,0,0,0,0,0,0,0,0,0,0,0,0,0,0,0,0,0,0,0,0,0,0,0,0,0,0,0,0,0,0,0,0,0,0,0,0,0,0,0,0,0,0,0,0,0,0,0,0,0,0,0,0,0,0,0,0,0,0,0,0,0,0,0,0,0,0,0,0,0,0,0,0,0,0,0,0,0,0,0,0,0,0,0,0,0,0,0,0,0,0,0,0,0,0,0,0,0,0,0,0,0,0,0,0,0,0,0,0,0,0,0,0,0,0,0,0,0,0,0,0,0,0,0,0,0,0,0,0,0,0,0,0,0,0,0,0,0,0,0,0,0,0,0,0,0,0,0,0,0,0,0,0,0,0,0,0,0,0,0,0,0,0,0,0,0,0,0,0,0,0,0,0,0,0,0,0,0,0,0,0,0,0,0,0,0,0,0,0,0,0,0,0,0,0,0,0,0,0,0,0,0,0,0,0,0,0,0,0,0,0,0,0,0,0,0,0,0],"trees":[{"base_weights":[-6.681125E-11,6.610562E-4,-7.3537915E-3,3.8789492E-4,1.5983012E-2,-5.126654E-3,-1.4538468E-2,-9.180198E-5,7.2570215E-6,6.7208294E-4,1.3288858E-4,-1.02251346E-4,-1.2972966E-5,-2.3053942E-4,-2.599883E-5],"categories":[],"categories_nodes":[],"categories_segments":[],"categories_sizes":[],"default_left":[0,0,0,0,0,0,0,0,0,0,0,0,0,0,0],"id":0,"left_children":[1,3,5,7,9,11,13,-1,-1,-1,-1,-1,-1,-1,-1],"loss_changes":[3.1768396E-2,2.508925E-2,8.550147E-3,1.9050617E-2,1.3597798E-2,8.05011E-3,1.2851225E-2,0E0,0E0,0E0,0E0,0E0,0E0,0E0,0E0],"parents":[2147483647,0,0,1,1,2,2,3,3,4,4,5,5,6,6],"right_children":[2,4,6,8,10,12,14,-1,-1,-1,-1,-1,-1,-1,-1],"split_conditions":[5.7599E-1,1.179662E-2,5.933915E-1,-6.1E-3,4.1349E-1,5.727841E-1,6.25482E-1,-9.180198E-5,7.2570215E-6,6.7208294E-4,1.3288858E-4,-1.02251346E-4,-1.2972966E-5,-2.3053942E-4,-2.599883E-5],"split_indices":[1,14,16,6,3,19,16,0,0,0,0,0,0,0,0],"split_type":[0,0,0,0,0,0,0,0,0,0,0,0,0,0,0],"sum_hessian":[6.533E3,5.995E3,5.38E2,5.891E3,1.04E2,4.12E2,1.26E2,2E2,5.691E3,4E0,1E2,1.76E2,2.36E2,7.3E1,5.3E1],"tree_param":{"num_deleted":"0","num_feature":"20","num_nodes":"15","size_leaf_vector":"1"}},{"base_weights":[5.3321664E-8,6.545658E-4,-7.280943E-3,3.8400164E-4,1.5830848E-2,-5.0756666E-3,-1.4395103E-2,-9.0888534E-5,7.1844643E-6,3.6691636E-4,9.532193E-5,-1.0123461E-4,-1.2843783E-5,-2.2826517E-4,-2.5743657E-5],"categories":[],"categories_nodes":[],"categories_segments":[],"categories_sizes":[],"default_left":[0,0,0,0,0,0,0,0,0,0,0,0,0,0,0],"id":1,"left_children":[1,3,5,7,9,11,13,-1,-1,-1,-1,-1,-1,-1,-1],"loss_changes":[3.1142564E-2,2.4614446E-2,8.383136E-3,1.8673252E-2,1.3446715E-2,7.890845E-3,1.259876E-2,0E0,0E0,0E0,0E0,0E0,0E0,0E0,0E0],"parents":[2147483647,0,0,1,1,2,2,3,3,4,4,5,5,6,6],"right_children":[2,4,6,8,10,12,14,-1,-1,-1,-1,-1,-1,-1,-1],"split_conditions":[5.7599E-1,1.179662E-2,5.933915E-1,-6.1E-3,4.5556E-1,5.727841E-1,6.25482E-1,-9.0888534E-5,7.1844643E-6,3.6691636E-4,9.532193E-5,-1.0123461E-4,-1.2843783E-5,-2.2826517E-4,-2.5743657E-5],"split_indices":[1,14,16,6,3,19,16,0,0,0,0,0,0,0,0],"split_type":[0,0,0,0,0,0,0,0,0,0,0,0,0,0,0],"sum_hessian":[6.533E3,5.995E3,5.38E2,5.891E3,1.04E2,4.12E2,1.26E2,2E2,5.691E3,2.3E1,8.1E1,1.76E2,2.36E2,7.3E1,5.3E1],"tree_param":{"num_deleted":"0","num_feature":"20","num_nodes":"15","size_leaf_vector":"1"}},{"base_weights":[5.4390885E-8,6.480833E-4,-7.2088162E-3,3.801474E-4,1.5676942E-2,-5.025186E-3,-1.4253152E-2,-8.998416E-5,7.112632E-6,6.6377094E-4,1.3011816E-4,-1.0022798E-4,-1.27158855E-5,-2.2601336E-4,-2.5490988E-5],"categories":[],"categories_nodes":[],"categories_segments":[],"categories_sizes":[],"default_left":[0,0,0,0,0,0,0,0,0,0,0,0,0,0,0],"id":2,"left_children":[1,3,5,7,9,11,13,-1,-1,-1,-1,-1,-1,-1,-1],"loss_changes":[3.0528624E-2,2.4138559E-2,8.219393E-3,1.8303363E-2,1.3324156E-2,7.7347327E-3,1.235125E-2,0E0,0E0,0E0,0E0,0E0,0E0,0E0,0E0],"parents":[2147483647,0,0,1,1,2,2,3,3,4,4,5,5,6,6],"right_children":[2,4,6,8,10,12,14,-1,-1,-1,-1,-1,-1,-1,-1],"split_conditions":[5.7599E-1,1.179662E-2,5.933915E-1,-6.1E-3,4.1349E-1,5.727841E-1,6.25482E-1,-8.998416E-5,7.112632E-6,6.6377094E-4,1.3011816E-4,-1.0022798E-4,-1.27158855E-5,-2.2601336E-4,-2.5490988E-5],"split_indices":[1,14,16,6,3,19,16,0,0,0,0,0,0,0,0],"split_type":[0,0,0,0,0,0,0,0,0,0,0,0,0,0,0],"sum_hessian":[6.533E3,5.995E3,5.38E2,5.891E3,1.04E2,4.12E2,1.26E2,2E2,5.691E3,4E0,1E2,1.76E2,2.36E2,7.3E1,5.3E1],"tree_param":{"num_deleted":"0","num_feature":"20","num_nodes":"15","size_leaf_vector":"1"}},{"base_weights":[1.06961686E-7,6.417211E-4,-7.1374043E-3,3.7633194E-4,1.5527734E-2,-4.9752076E-3,-1.41126E-2,-8.90888E-5,7.041519E-6,6.584608E-4,1.2882985E-4,-9.9231365E-5,-1.2589265E-5,-2.2378378E-4,-2.5240797E-5],"categories":[],"categories_nodes":[],"categories_segments":[],"categories_sizes":[],"default_left":[0,0,0,0,0,0,0,0,0,0,0,0,0,0,0],"id":3,"left_children":[1,3,5,7,9,11,13,-1,-1,-1,-1,-1,-1,-1,-1],"loss_changes":[2.992722E-2,2.3681873E-2,8.058846E-3,1.79408E-2,1.3125036E-2,7.58171E-3,1.2108609E-2,0E0,0E0,0E0,0E0,0E0,0E0,0E0,0E0],"parents":[2147483647,0,0,1,1,2,2,3,3,4,4,5,5,6,6],"right_children":[2,4,6,8,10,12,14,-1,-1,-1,-1,-1,-1,-1,-1],"split_conditions":[5.7599E-1,1.179662E-2,5.933915E-1,-6.1E-3,4.1349E-1,5.727841E-1,6.25482E-1,-8.90888E-5,7.041519E-6,6.584608E-4,1.2882985E-4,-9.9231365E-5,-1.2589265E-5,-2.2378378E-4,-2.5240797E-5],"split_indices":[1,14,16,6,3,19,16,0,0,0,0,0,0,0,0],"split_type":[0,0,0,0,0,0,0,0,0,0,0,0,0,0,0],"sum_hessian":[6.533E3,5.995E3,5.38E2,5.891E3,1.04E2,4.12E2,1.26E2,2E2,5.691E3,4E0,1E2,1.76E2,2.36E2,7.3E1,5.3E1],"tree_param":{"num_deleted":"0","num_feature":"20","num_nodes":"15","size_leaf_vector":"1"}},{"base_weights":[1.5840516E-7,6.354213E-4,-7.0666997E-3,3.725545E-4,1.5379954E-2,-4.9257264E-3,-1.3973435E-2,-8.8202345E-5,6.971114E-6,3.5914636E-4,9.182243E-5,-9.824466E-5,-1.2463903E-5,-2.2157618E-4,-2.4993064E-5],"categories":[],"categories_nodes":[],"categories_segments":[],"categories_sizes":[],"default_left":[0,0,0,0,0,0,0,0,0,0,0,0,0,0,0],"id":4,"left_children":[1,3,5,7,9,11,13,-1,-1,-1,-1,-1,-1,-1,-1],"loss_changes":[2.9337661E-2,2.3233859E-2,7.901439E-3,1.7585423E-2,1.3033362E-2,7.431711E-3,1.1870731E-2,0E0,0E0,0E0,0E0,0E0,0E0,0E0,0E0],"parents":[2147483647,0,0,1,1,2,2,3,3,4,4,5,5,6,6],"right_children":[2,4,6,8,10,12,14,-1,-1,-1,-1,-1,-1,-1,-1],"split_conditions":[5.7599E-1,1.179662E-2,5.933915E-1,-6.1E-3,4.5556E-1,5.727841E-1,6.25482E-1,-8.8202345E-5,6.971114E-6,3.5914636E-4,9.182243E-5,-9.824466E-5,-1.2463903E-5,-2.2157618E-4,-2.4993064E-5],"split_indices":[1,14,16,6,3,19,16,0,0,0,0,0,0,0,0],"split_type":[0,0,0,0,0,0,0,0,0,0,0,0,0,0,0],"sum_hessian":[6.533E3,5.995E3,5.38E2,5.891E3,1.04E2,4.12E2,1.26E2,2E2,5.691E3,2.3E1,8.1E1,1.76E2,2.36E2,7.3E1,5.3E1],"tree_param":{"num_deleted":"0","num_feature":"20","num_nodes":"15","size_leaf_vector":"1"}},{"base_weights":[1.5894452E-7,6.29129E-4,-6.9966954E-3,3.6881538E-4,1.5230449E-2,-4.876737E-3,-1.38356425E-2,-8.732471E-5,6.901418E-6,6.5031997E-4,1.2614229E-4,-4.169626E-5,-3.0339372E-4,-2.1939035E-4,-2.474776E-5],"categories":[],"categories_nodes":[],"categories_segments":[],"categories_sizes":[],"default_left":[0,0,0,0,0,0,0,0,0,0,0,0,0,0,0],"id":5,"left_children":[1,3,5,7,9,11,13,-1,-1,-1,-1,-1,-1,-1,-1],"loss_changes":[2.8759308E-2,2.2784714E-2,7.7471025E-3,1.7237082E-2,1.2860309E-2,7.3095243E-3,1.1637526E-2,0E0,0E0,0E0,0E0,0E0,0E0,0E0,0E0],"parents":[2147483647,0,0,1,1,2,2,3,3,4,4,5,5,6,6],"right_children":[2,4,6,8,10,12,14,-1,-1,-1,-1,-1,-1,-1,-1],"split_conditions":[5.7599E-1,1.179662E-2,5.933915E-1,-6.1E-3,4.1349E-1,9.5E-3,6.25482E-1,-8.732471E-5,6.901418E-6,6.5031997E-4,1.2614229E-4,-4.169626E-5,-3.0339372E-4,-2.1939035E-4,-2.474776E-5],"split_indices":[1,14,16,6,3,7,16,0,0,0,0,0,0,0,0],"split_type":[0,0,0,0,0,0,0,0,0,0,0,0,0,0,0],"sum_hessian":[6.533E3,5.995E3,5.38E2,5.891E3,1.04E2,4.12E2,1.26E2,2E2,5.691E3,4E0,1E2,4.02E2,1E1,7.3E1,5.3E1],"tree_param":{"num_deleted":"0","num_feature":"20","num_nodes":"15","size_leaf_vector":"1"}},{"base_weights":[1.7352207E-7,6.2295364E-4,-6.9278223E-3,3.651134E-4,1.508554E-2,-4.8288056E-3,-1.3699208E-2,-8.645581E-5,6.8324134E-6,3.5362202E-4,8.966937E-5,-9.674966E-5,-1.189146E-5,-2.172261E-4,-2.4504869E-5],"categories":[],"categories_nodes":[],"categories_segments":[],"categories_sizes":[],"default_left":[0,0,0,0,0,0,0,0,0,0,0,0,0,0,0],"id":6,"left_children":[1,3,5,7,9,11,13,-1,-1,-1,-1,-1,-1,-1,-1],"loss_changes":[2.819603E-2,2.2353794E-2,7.594794E-3,1.6895643E-2,1.2709722E-2,7.273144E-3,1.1408901E-2,0E0,0E0,0E0,0E0,0E0,0E0,0E0,0E0],"parents":[2147483647,0,0,1,1,2,2,3,3,4,4,5,5,6,6],"right_children":[2,4,6,8,10,12,14,-1,-1,-1,-1,-1,-1,-1,-1],"split_conditions":[5.7599E-1,1.179662E-2,5.933915E-1,-6.1E-3,4.5556E-1,5.727841E-1,6.25482E-1,-8.645581E-5,6.8324134E-6,3.5362202E-4,8.966937E-5,-9.674966E-5,-1.189146E-5,-2.172261E-4,-2.4504869E-5],"split_indices":[1,14,16,6,3,19,16,0,0,0,0,0,0,0,0],"split_type":[0,0,0,0,0,0,0,0,0,0,0,0,0,0,0],"sum_hessian":[6.533E3,5.995E3,5.38E2,5.891E3,1.04E2,4.12E2,1.26E2,2E2,5.691E3,2.3E1,8.1E1,1.76E2,2.36E2,7.3E1,5.3E1],"tree_param":{"num_deleted":"0","num_feature":"20","num_nodes":"15","size_leaf_vector":"1"}},{"base_weights":[1.7385959E-7,6.167848E-4,-6.859194E-3,3.614488E-4,1.4938907E-2,-4.7807805E-3,-1.356412E-2,-8.5595544E-5,6.764102E-6,6.4228836E-4,1.23509E-4,-4.0805855E-5,-2.999875E-4,-2.1508319E-4,-2.4264358E-5],"categories":[],"categories_nodes":[],"categories_segments":[],"categories_sizes":[],"default_left":[0,0,0,0,0,0,0,0,0,0,0,0,0,0,0],"id":7,"left_children":[1,3,5,7,9,11,13,-1,-1,-1,-1,-1,-1,-1,-1],"loss_changes":[2.7640183E-2,2.192169E-2,7.4464474E-3,1.6560964E-2,1.2600791E-2,7.1701314E-3,1.11847725E-2,0E0,0E0,0E0,0E0,0E0,0E0,0E0,0E0],"parents":[2147483647,0,0,1,1,2,2,3,3,4,4,5,5,6,6],"right_children":[2,4,6,8,10,12,14,-1,-1,-1,-1,-1,-1,-1,-1],"split_conditions":[5.7599E-1,1.179662E-2,5.933915E-1,-6.1E-3,4.1349E-1,9.5E-3,6.25482E-1,-8.5595544E-5,6.764102E-6,6.4228836E-4,1.23509E-4,-4.0805855E-5,-2.999875E-4,-2.1508319E-4,-2.4264358E-5],"split_indices":[1,14,16,6,3,7,16,0,0,0,0,0,0,0,0],"split_type":[0,0,0,0,0,0,0,0,0,0,0,0,0,0,0],"sum_hessian":[6.533E3,5.995E3,5.38E2,5.891E3,1.04E2,4.12E2,1.26E2,2E2,5.691E3,4E0,1E2,4.02E2,1E1,7.3E1,5.3E1],"tree_param":{"num_deleted":"0","num_feature":"20","num_nodes":"15","size_leaf_vector":"1"}},{"base_weights":[1.8856441E-7,6.107316E-4,-6.7916783E-3,3.5782103E-4,1.4796811E-2,-4.7337976E-3,-1.34303635E-2,-8.569964E-5,6.6653165E-6,6.371501E-4,1.2228615E-4,-9.527937E-5,-1.1333902E-5,-2.1296143E-4,-2.4026205E-5],"categories":[],"categories_nodes":[],"categories_segments":[],"categories_sizes":[],"default_left":[0,0,0,0,0,0,0,0,0,0,0,0,0,0,0],"id":8,"left_children":[1,3,5,7,9,11,13,-1,-1,-1,-1,-1,-1,-1,-1],"loss_changes":[2.7098862E-2,2.1507211E-2,7.300036E-3,1.6244667E-2,1.2412166E-2,7.1179336E-3,1.0965046E-2,0E0,0E0,0E0,0E0,0E0,0E0,0E0,0E0],"parents":[2147483647,0,0,1,1,2,2,3,3,4,4,5,5,6,6],"right_children":[2,4,6,8,10,12,14,-1,-1,-1,-1,-1,-1,-1,-1],"split_conditions":[5.7599E-1,1.179662E-2,5.933915E-1,-5.8E-3,4.1349E-1,5.727841E-1,6.25482E-1,-8.569964E-5,6.6653165E-6,6.371501E-4,1.2228615E-4,-9.527937E-5,-1.1333902E-5,-2.1296143E-4,-2.4026205E-5],"split_indices":[1,14,16,7,3,19,16,0,0,0,0,0,0,0,0],"split_type":[0,0,0,0,0,0,0,0,0,0,0,0,0,0,0],"sum_hessian":[6.533E3,5.995E3,5.38E2,5.891E3,1.04E2,4.12E2,1.26E2,1.96E2,5.695E3,4E0,1E2,1.76E2,2.36E2,7.3E1,5.3E1],"tree_param":{"num_deleted":"0","num_feature":"20","num_nodes":"15","size_leaf_vector":"1"}},{"base_weights":[2.3811216E-7,6.047376E-4,-6.7243986E-3,3.5422927E-4,1.4656075E-2,-4.686718E-3,-1.3297926E-2,2.4696832E-4,2.4212484E-6,3.461549E-4,8.635563E-5,-3.9933722E-5,-2.966231E-4,-2.1086058E-4,-2.3790393E-5],"categories":[],"categories_nodes":[],"categories_segments":[],"categories_sizes":[],"default_left":[0,0,0,0,0,0,0,0,0,0,0,0,0,0,0],"id":9,"left_children":[1,3,5,7,9,11,13,-1,-1,-1,-1,-1,-1,-1,-1],"loss_changes":[2.6565036E-2,2.1100594E-2,7.1574487E-3,1.6072776E-2,1.23184975E-2,7.033351E-3,1.0749629E-2,0E0,0E0,0E0,0E0,0E0,0E0,0E0,0E0],"parents":[2147483647,0,0,1,1,2,2,3,3,4,4,5,5,6,6],"right_children":[2,4,6,8,10,12,14,-1,-1,-1,-1,-1,-1,-1,-1],"split_conditions":[5.7599E-1,1.179662E-2,5.933915E-1,3.9194E-1,4.5556E-1,9.5E-3,6.25482E-1,2.4696832E-4,2.4212484E-6,3.461549E-4,8.635563E-5,-3.9933722E-5,-2.966231E-4,-2.1086058E-4,-2.3790393E-5],"split_indices":[1,14,16,3,3,7,16,0,0,0,0,0,0,0,0],"split_type":[0,0,0,0,0,0,0,0,0,0,0,0,0,0,0],"sum_hessian":[6.533E3,5.995E3,5.38E2,5.891E3,1.04E2,4.12E2,1.26E2,2.6E1,5.865E3,2.3E1,8.1E1,4.02E2,1E1,7.3E1,5.3E1],"tree_param":{"num_deleted":"0","num_feature":"20","num_nodes":"15","size_leaf_vector":"1"}},{"base_weights":[2.5275583E-7,5.988041E-4,-6.6582146E-3,3.5072942E-4,1.4513634E-2,-4.6406654E-3,-1.3166795E-2,-8.4243395E-5,6.6053935E-6,2.1500989E-4,-2.0981799E-5,-9.383336E-5,-1.0790897E-5,-2.0878048E-4,-2.3556897E-5],"categories":[],"categories_nodes":[],"categories_segments":[],"categories_sizes":[],"default_left":[0,0,0,0,0,0,0,0,0,0,0,0,0,0,0],"id":10,"left_children":[1,3,5,7,9,11,13,-1,-1,-1,-1,-1,-1,-1,-1],"loss_changes":[2.6044818E-2,2.0692602E-2,7.016709E-3,1.6023578E-2,1.2232741E-2,6.9660153E-3,1.05384495E-2,0E0,0E0,0E0,0E0,0E0,0E0,0E0,0E0],"parents":[2147483647,0,0,1,1,2,2,3,3,4,4,5,5,6,6],"right_children":[2,4,6,8,10,12,14,-1,-1,-1,-1,-1,-1,-1,-1],"split_conditions":[5.7599E-1,1.179662E-2,5.933915E-1,-6.1E-3,5.5448E-1,5.727841E-1,6.25482E-1,-8.4243395E-5,6.6053935E-6,2.1500989E-4,-2.0981799E-5,-9.383336E-5,-1.0790897E-5,-2.0878048E-4,-2.3556897E-5],"split_indices":[1,14,16,6,3,19,16,0,0,0,0,0,0,0,0],"split_type":[0,0,0,0,0,0,0,0,0,0,0,0,0,0,0],"sum_hessian":[6.533E3,5.995E3,5.38E2,5.891E3,1.04E2,4.12E2,1.26E2,2E2,5.691E3,7.3E1,3.1E1,1.76E2,2.36E2,7.3E1,5.3E1],"tree_param":{"num_deleted":"0","num_feature":"20","num_nodes":"15","size_leaf_vector":"1"}},{"base_weights":[2.1641007E-7,5.9283536E-4,-6.592258E-3,3.4720887E-4,1.43703455E-2,-4.5945123E-3,-1.3036955E-2,2.449639E-4,2.3599594E-6,6.2756357E-4,1.18327174E-4,-3.9079492E-5,-2.9329996E-4,-2.067209E-4,-2.3325689E-5],"categories":[],"categories_nodes":[],"categories_segments":[],"categories_sizes":[],"default_left":[0,0,0,0,0,0,0,0,0,0,0,0,0,0,0],"id":11,"left_children":[1,3,5,7,9,11,13,-1,-1,-1,-1,-1,-1,-1,-1],"loss_changes":[2.5531104E-2,2.0286204E-2,6.8796556E-3,1.5818374E-2,1.2149923E-2,6.899141E-3,1.03314165E-2,0E0,0E0,0E0,0E0,0E0,0E0,0E0,0E0],"parents":[2147483647,0,0,1,1,2,2,3,3,4,4,5,5,6,6],"right_children":[2,4,6,8,10,12,14,-1,-1,-1,-1,-1,-1,-1,-1],"split_conditions":[5.7599E-1,1.179662E-2,5.933915E-1,3.9194E-1,4.1349E-1,9.5E-3,6.25482E-1,2.449639E-4,2.3599594E-6,6.2756357E-4,1.18327174E-4,-3.9079492E-5,-2.9329996E-4,-2.067209E-4,-2.3325689E-5],"split_indices":[1,14,16,3,3,7,16,0,0,0,0,0,0,0,0],"split_type":[0,0,0,0,0,0,0,0,0,0,0,0,0,0,0],"sum_hessian":[6.533E3,5.995E3,5.38E2,5.891E3,1.04E2,4.12E2,1.26E2,2.6E1,5.865E3,4E0,1E2,4.02E2,1E1,7.3E1,5.3E1],"tree_param":{"num_deleted":"0","num_feature":"20","num_nodes":"15","size_leaf_vector":"1"}},{"base_weights":[2.8023408E-7,5.8707275E-4,-6.5273787E-3,3.437788E-4,1.4233746E-2,-4.549372E-3,-1.2908397E-2,-8.455479E-5,6.480467E-6,6.225431E-4,1.1715562E-4,-9.241121E-5,-1.0262119E-5,-2.0468162E-4,-2.309675E-5],"categories":[],"categories_nodes":[],"categories_segments":[],"categories_sizes":[],"default_left":[0,0,0,0,0,0,0,0,0,0,0,0,0,0,0],"id":12,"left_children":[1,3,5,7,9,11,13,-1,-1,-1,-1,-1,-1,-1,-1],"loss_changes":[2.5031542E-2,1.9902742E-2,6.74437E-3,1.578032E-2,1.1967741E-2,6.8173157E-3,1.0128453E-2,0E0,0E0,0E0,0E0,0E0,0E0,0E0,0E0],"parents":[2147483647,0,0,1,1,2,2,3,3,4,4,5,5,6,6],"right_children":[2,4,6,8,10,12,14,-1,-1,-1,-1,-1,-1,-1,-1],"split_conditions":[5.7599E-1,1.179662E-2,5.933915E-1,-5.8E-3,4.1349E-1,5.727841E-1,6.25482E-1,-8.455479E-5,6.480467E-6,6.225431E-4,1.1715562E-4,-9.241121E-5,-1.0262119E-5,-2.0468162E-4,-2.309675E-5],"split_indices":[1,14,16,7,3,19,16,0,0,0,0,0,0,0,0],"split_type":[0,0,0,0,0,0,0,0,0,0,0,0,0,0,0],"sum_hessian":[6.533E3,5.995E3,5.38E2,5.891E3,1.04E2,4.12E2,1.26E2,1.96E2,5.695E3,4E0,1E2,1.76E2,2.36E2,7.3E1,5.3E1],"tree_param":{"num_deleted":"0","num_feature":"20","num_nodes":"15","size_leaf_vector":"1"}},{"base_weights":[3.2802143E-7,5.813122E-4,-6.462718E-3,3.4032768E-4,1.4098452E-2,-4.504127E-3,-1.2781107E-2,2.4301463E-4,2.2998145E-6,2.100174E-4,-2.3059776E-5,-3.5798876E-5,-2.2486427E-4,-2.0266247E-4,-2.2870061E-5],"categories":[],"categories_nodes":[],"categories_segments":[],"categories_sizes":[],"default_left":[0,0,0,0,0,0,0,0,0,0,0,0,0,0,0],"id":13,"left_children":[1,3,5,7,9,11,13,-1,-1,-1,-1,-1,-1,-1,-1],"loss_changes":[2.4538457E-2,1.9526705E-2,6.6126324E-3,1.5572984E-2,1.1939101E-2,6.7835385E-3,9.929478E-3,0E0,0E0,0E0,0E0,0E0,0E0,0E0,0E0],"parents":[2147483647,0,0,1,1,2,2,3,3,4,4,5,5,6,6],"right_children":[2,4,6,8,10,12,14,-1,-1,-1,-1,-1,-1,-1,-1],"split_conditions":[5.7599E-1,1.179662E-2,5.933915E-1,3.9194E-1,5.5448E-1,9.8E-3,6.25482E-1,2.4301463E-4,2.2998145E-6,2.100174E-4,-2.3059776E-5,-3.5798876E-5,-2.2486427E-4,-2.0266247E-4,-2.2870061E-5],"split_indices":[1,14,16,3,3,6,16,0,0,0,0,0,0,0,0],"split_type":[0,0,0,0,0,0,0,0,0,0,0,0,0,0,0],"sum_hessian":[6.533E3,5.995E3,5.38E2,5.891E3,1.04E2,4.12E2,1.26E2,2.6E1,5.865E3,7.3E1,3.1E1,3.93E2,1.9E1,7.3E1,5.3E1],"tree_param":{"num_deleted":"0","num_feature":"20","num_nodes":"15","size_leaf_vector":"1"}},{"base_weights":[3.1654395E-7,5.7557126E-4,-6.3989926E-3,3.369661E-4,1.3959249E-2,-4.4597164E-3,-1.2655072E-2,-8.309035E-5,6.422207E-6,3.3481664E-4,8.0751364E-5,-3.7843478E-5,-2.8797332E-4,-2.0066323E-4,-2.2645594E-5],"categories":[],"categories_nodes":[],"categories_segments":[],"categories_sizes":[],"default_left":[0,0,0,0,0,0,0,0,0,0,0,0,0,0,0],"id":14,"left_children":[1,3,5,7,9,11,13,-1,-1,-1,-1,-1,-1,-1,-1],"loss_changes":[2.405686E-2,1.9143011E-2,6.4828545E-3,1.5555691E-2,1.1791201E-2,6.6794446E-3,9.734409E-3,0E0,0E0,0E0,0E0,0E0,0E0,0E0,0E0],"parents":[2147483647,0,0,1,1,2,2,3,3,4,4,5,5,6,6],"right_children":[2,4,6,8,10,12,14,-1,-1,-1,-1,-1,-1,-1,-1],"split_conditions":[5.7599E-1,1.179662E-2,5.933915E-1,-6.1E-3,4.5556E-1,9.5E-3,6.25482E-1,-8.309035E-5,6.422207E-6,3.3481664E-4,8.0751364E-5,-3.7843478E-5,-2.8797332E-4,-2.0066323E-4,-2.2645594E-5],"split_indices":[1,14,16,6,3,7,16,0,0,0,0,0,0,0,0],"split_type":[0,0,0,0,0,0,0,0,0,0,0,0,0,0,0],"sum_hessian":[6.533E3,5.995E3,5.38E2,5.891E3,1.04E2,4.12E2,1.26E2,2E2,5.691E3,2.3E1,8.1E1,4.02E2,1E1,7.3E1,5.3E1],"tree_param":{"num_deleted":"0","num_feature":"20","num_nodes":"15","size_leaf_vector":"1"}},{"base_weights":[2.813111E-7,5.698722E-4,-6.3360217E-3,3.3358356E-4,1.3823614E-2,-4.4159084E-3,-1.2530279E-2,2.4104364E-4,2.2411461E-6,6.132041E-4,1.133542E-4,-9.050091E-5,-9.3630415E-6,-1.9868372E-4,-2.2423334E-5],"categories":[],"categories_nodes":[],"categories_segments":[],"categories_sizes":[],"default_left":[0,0,0,0,0,0,0,0,0,0,0,0,0,0,0],"id":15,"left_children":[1,3,5,7,9,11,13,-1,-1,-1,-1,-1,-1,-1,-1],"loss_changes":[2.3585476E-2,1.8773114E-2,6.3553583E-3,1.5326534E-2,1.1713937E-2,6.6512004E-3,9.543175E-3,0E0,0E0,0E0,0E0,0E0,0E0,0E0,0E0],"parents":[2147483647,0,0,1,1,2,2,3,3,4,4,5,5,6,6],"right_children":[2,4,6,8,10,12,14,-1,-1,-1,-1,-1,-1,-1,-1],"split_conditions":[5.7599E-1,1.179662E-2,5.933915E-1,3.9194E-1,4.1349E-1,5.727841E-1,6.25482E-1,2.4104364E-4,2.2411461E-6,6.132041E-4,1.133542E-4,-9.050091E-5,-9.3630415E-6,-1.9868372E-4,-2.2423334E-5],"split_indices":[1,14,16,3,3,19,16,0,0,0,0,0,0,0,0],"split_type":[0,0,0,0,0,0,0,0,0,0,0,0,0,0,0],"sum_hessian":[6.533E3,5.995E3,5.38E2,5.891E3,1.04E2,4.12E2,1.26E2,2.6E1,5.865E3,4E0,1E2,1.76E2,2.36E2,7.3E1,5.3E1],"tree_param":{"num_deleted":"0","num_feature":"20","num_nodes":"15","size_leaf_vector":"1"}},{"base_weights":[3.777334E-7,5.6433515E-4,-6.2732566E-3,3.3028892E-4,1.3692298E-2,-4.371991E-3,-1.2406717E-2,-8.342274E-5,6.3017737E-6,2.0497094E-4,-2.4716786E-5,-3.703233E-5,-2.8475394E-4,-1.9672373E-4,-2.220325E-5],"categories":[],"categories_nodes":[],"categories_segments":[],"categories_sizes":[],"default_left":[0,0,0,0,0,0,0,0,0,0,0,0,0,0,0],"id":16,"left_children":[1,3,5,7,9,11,13,-1,-1,-1,-1,-1,-1,-1,-1],"loss_changes":[2.3121241E-2,1.8418489E-2,6.2312186E-3,1.5329181E-2,1.1599882E-2,6.5518366E-3,9.355694E-3,0E0,0E0,0E0,0E0,0E0,0E0,0E0,0E0],"parents":[2147483647,0,0,1,1,2,2,3,3,4,4,5,5,6,6],"right_children":[2,4,6,8,10,12,14,-1,-1,-1,-1,-1,-1,-1,-1],"split_conditions":[5.7599E-1,1.179662E-2,5.933915E-1,-5.8E-3,5.5448E-1,9.5E-3,6.25482E-1,-8.342274E-5,6.3017737E-6,2.0497094E-4,-2.4716786E-5,-3.703233E-5,-2.8475394E-4,-1.9672373E-4,-2.220325E-5],"split_indices":[1,14,16,7,3,7,16,0,0,0,0,0,0,0,0],"split_type":[0,0,0,0,0,0,0,0,0,0,0,0,0,0,0],"sum_hessian":[6.533E3,5.995E3,5.38E2,5.891E3,1.04E2,4.12E2,1.26E2,1.96E2,5.695E3,7.3E1,3.1E1,4.02E2,1E1,7.3E1,5.3E1],"tree_param":{"num_deleted":"0","num_feature":"20","num_nodes":"15","size_leaf_vector":"1"}},{"base_weights":[3.0698902E-7,5.58709E-4,-6.2115276E-3,3.2697295E-4,1.3557091E-2,-4.3290504E-3,-1.2284375E-2,2.3912702E-4,2.1835692E-6,6.066587E-4,1.1090745E-4,-8.913482E-5,-8.869689E-6,-1.9478308E-4,-2.1985332E-5],"categories":[],"categories_nodes":[],"categories_segments":[],"categories_sizes":[],"default_left":[0,0,0,0,0,0,0,0,0,0,0,0,0,0,0],"id":17,"left_children":[1,3,5,7,9,11,13,-1,-1,-1,-1,-1,-1,-1,-1],"loss_changes":[2.2667963E-2,1.8056683E-2,6.108666E-3,1.5088837E-2,1.1526758E-2,6.509227E-3,9.171899E-3,0E0,0E0,0E0,0E0,0E0,0E0,0E0,0E0],"parents":[2147483647,0,0,1,1,2,2,3,3,4,4,5,5,6,6],"right_children":[2,4,6,8,10,12,14,-1,-1,-1,-1,-1,-1,-1,-1],"split_conditions":[5.7599E-1,1.179662E-2,5.933915E-1,3.9194E-1,4.1349E-1,5.727841E-1,6.25482E-1,2.3912702E-4,2.1835692E-6,6.066587E-4,1.1090745E-4,-8.913482E-5,-8.869689E-6,-1.9478308E-4,-2.1985332E-5],"split_indices":[1,14,16,3,3,19,16,0,0,0,0,0,0,0,0],"split_type":[0,0,0,0,0,0,0,0,0,0,0,0,0,0,0],"sum_hessian":[6.533E3,5.995E3,5.38E2,5.891E3,1.04E2,4.12E2,1.26E2,2.6E1,5.865E3,4E0,1E2,1.76E2,2.36E2,7.3E1,5.3E1],"tree_param":{"num_deleted":"0","num_feature":"20","num_nodes":"15","size_leaf_vector":"1"}},{"base_weights":[4.0252277E-7,5.5328186E-4,-6.149996E-3,3.237442E-4,1.3428355E-2,-4.2859972E-3,-1.2163238E-2,-8.6967695E-5,6.078977E-6,3.2583516E-4,7.658205E-5,-3.3853536E-5,-2.1814376E-4,-5.8368852E-5,-2.3561547E-4],"categories":[],"categories_nodes":[],"categories_segments":[],"categories_sizes":[],"default_left":[0,0,0,0,0,0,0,0,0,0,0,0,0,0,0],"id":18,"left_children":[1,3,5,7,9,11,13,-1,-1,-1,-1,-1,-1,-1,-1],"loss_changes":[2.2221802E-2,1.7715715E-2,5.989343E-3,1.5107722E-2,1.1355927E-2,6.446108E-3,9.0204105E-3,0E0,0E0,0E0,0E0,0E0,0E0,0E0,0E0],"parents":[2147483647,0,0,1,1,2,2,3,3,4,4,5,5,6,6],"right_children":[2,4,6,8,10,12,14,-1,-1,-1,-1,-1,-1,-1,-1],"split_conditions":[5.7599E-1,1.179662E-2,5.933915E-1,-6.5E-3,4.5556E-1,9.8E-3,4.05784E1,-8.6967695E-5,6.078977E-6,3.2583516E-4,7.658205E-5,-3.3853536E-5,-2.1814376E-4,-5.8368852E-5,-2.3561547E-4],"split_indices":[1,14,16,6,3,6,11,0,0,0,0,0,0,0,0],"split_type":[0,0,0,0,0,0,0,0,0,0,0,0,0,0,0],"sum_hessian":[6.533E3,5.995E3,5.38E2,5.891E3,1.04E2,4.12E2,1.26E2,1.79E2,5.712E3,2.3E1,8.1E1,3.93E2,1.9E1,8.2E1,4.4E1],"tree_param":{"num_deleted":"0","num_feature":"20","num_nodes":"15","size_leaf_vector":"1"}},{"base_weights":[3.6406382E-7,5.478026E-4,-6.089509E-3,3.2049295E-4,1.3297903E-2,-4.0257564E-3,-1.141467E-2,2.372138E-4,2.1272879E-6,5.991987E-4,1.0858223E-4,-8.191186E-5,-1.5810288E-5,-3.8039983E-5,-1.688212E-4],"categories":[],"categories_nodes":[],"categories_segments":[],"categories_sizes":[],"default_left":[0,0,0,0,0,0,0,0,0,0,0,0,0,0,0],"id":19,"left_children":[1,3,5,7,9,11,13,-1,-1,-1,-1,-1,-1,-1,-1],"loss_changes":[2.1786591E-2,1.7373469E-2,5.877558E-3,1.485326E-2,1.1292363E-2,3.9585517E-3,6.1774272E-3,0E0,0E0,0E0,0E0,0E0,0E0,0E0,0E0],"parents":[2147483647,0,0,1,1,2,2,3,3,4,4,5,5,6,6],"right_children":[2,4,6,8,10,12,14,-1,-1,-1,-1,-1,-1,-1,-1],"split_conditions":[5.7599E-1,1.179662E-2,8.71716E-3,3.9194E-1,4.1349E-1,5.727841E-1,3.09664E1,2.372138E-4,2.1272879E-6,5.991987E-4,1.0858223E-4,-8.191186E-5,-1.5810288E-5,-3.8039983E-5,-1.688212E-4],"split_indices":[1,14,14,3,3,19,11,0,0,0,0,0,0,0,0],"split_type":[0,0,0,0,0,0,0,0,0,0,0,0,0,0,0],"sum_hessian":[6.533E3,5.995E3,5.38E2,5.891E3,1.04E2,3.89E2,1.49E2,2.6E1,5.865E3,4E0,1E2,1.43E2,2.46E2,6.3E1,8.6E1],"tree_param":{"num_deleted":"0","num_feature":"20","num_nodes":"15","size_leaf_vector":"1"}},{"base_weights":[4.588384E-7,5.424826E-4,-6.0291793E-3,3.1732873E-4,1.3171665E-2,-4.1845436E-3,-1.1980403E-2,-8.231365E-5,6.129353E-6,1.9872033E-4,-2.7345532E-5,-3.5294164E-5,-2.78056E-4,-1.9102574E-4,-1.9985295E-5],"categories":[],"categories_nodes":[],"categories_segments":[],"categories_sizes":[],"default_left":[0,0,0,0,0,0,0,0,0,0,0,0,0,0,0],"id":20,"left_children":[1,3,5,7,9,11,13,-1,-1,-1,-1,-1,-1,-1,-1],"loss_changes":[2.1357736E-2,1.7045503E-2,5.8669243E-3,1.4894428E-2,1.12449825E-2,6.2929518E-3,8.990588E-3,0E0,0E0,0E0,0E0,0E0,0E0,0E0,0E0],"parents":[2147483647,0,0,1,1,2,2,3,3,4,4,5,5,6,6],"right_children":[2,4,6,8,10,12,14,-1,-1,-1,-1,-1,-1,-1,-1],"split_conditions":[5.7599E-1,1.179662E-2,5.933915E-1,-5.8E-3,5.5448E-1,9.5E-3,6.25482E-1,-8.231365E-5,6.129353E-6,1.9872033E-4,-2.7345532E-5,-3.5294164E-5,-2.78056E-4,-1.9102574E-4,-1.9985295E-5],"split_indices":[1,14,16,7,3,7,16,0,0,0,0,0,0,0,0],"split_type":[0,0,0,0,0,0,0,0,0,0,0,0,0,0,0],"sum_hessian":[6.533E3,5.995E3,5.38E2,5.891E3,1.04E2,4.12E2,1.26E2,1.96E2,5.695E3,7.3E1,3.1E1,4.02E2,1E1,7.3E1,5.3E1],"tree_param":{"num_deleted":"0","num_feature":"20","num_nodes":"15","size_leaf_vector":"1"}},{"base_weights":[3.8847529E-7,5.3707353E-4,-5.96986E-3,3.141424E-4,1.304158E-2,-4.1434565E-3,-1.186226E-2,-8.069924E-5,6.101514E-6,5.9281534E-4,1.06233485E-4,-1.1031891E-4,-1.936492E-5,-2.6024456E-4,-6.8178946E-5],"categories":[],"categories_nodes":[],"categories_segments":[],"categories_sizes":[],"default_left":[0,0,0,0,0,0,0,0,0,0,0,0,0,0,0],"id":21,"left_children":[1,3,5,7,9,11,13,-1,-1,-1,-1,-1,-1,-1,-1],"loss_changes":[2.0939078E-2,1.6710615E-2,5.7515167E-3,1.4627447E-2,1.11112185E-2,6.2572807E-3,8.895356E-3,0E0,0E0,0E0,0E0,0E0,0E0,0E0,0E0],"parents":[2147483647,0,0,1,1,2,2,3,3,4,4,5,5,6,6],"right_children":[2,4,6,8,10,12,14,-1,-1,-1,-1,-1,-1,-1,-1],"split_conditions":[5.7599E-1,1.179662E-2,5.933915E-1,-6.1E-3,4.1349E-1,5.8207923E-1,6.121793E-1,-8.069924E-5,6.101514E-6,5.9281534E-4,1.06233485E-4,-1.1031891E-4,-1.936492E-5,-2.6024456E-4,-6.8178946E-5],"split_indices":[1,14,16,6,3,15,15,0,0,0,0,0,0,0,0],"split_type":[0,0,0,0,0,0,0,0,0,0,0,0,0,0,0],"sum_hessian":[6.533E3,5.995E3,5.38E2,5.891E3,1.04E2,4.12E2,1.26E2,2E2,5.691E3,4E0,1E2,9.9E1,3.13E2,3.2E1,9.4E1],"tree_param":{"num_deleted":"0","num_feature":"20","num_nodes":"15","size_leaf_vector":"1"}},{"base_weights":[4.1004094E-7,5.3180696E-4,-5.9110117E-3,3.109883E-4,1.2917822E-2,-4.1023362E-3,-1.1746224E-2,2.3568825E-4,2.0388422E-6,1.9544899E-4,-2.8109764E-5,-8.5701606E-5,-7.482972E-6,-5.478388E-5,-2.3045871E-4],"categories":[],"categories_nodes":[],"categories_segments":[],"categories_sizes":[],"default_left":[0,0,0,0,0,0,0,0,0,0,0,0,0,0,0],"id":22,"left_children":[1,3,5,7,9,11,13,-1,-1,-1,-1,-1,-1,-1,-1],"loss_changes":[2.052847E-2,1.6395422E-2,5.640421E-3,1.4672223E-2,1.0999717E-2,6.1824983E-3,8.868437E-3,0E0,0E0,0E0,0E0,0E0,0E0,0E0,0E0],"parents":[2147483647,0,0,1,1,2,2,3,3,4,4,5,5,6,6],"right_children":[2,4,6,8,10,12,14,-1,-1,-1,-1,-1,-1,-1,-1],"split_conditions":[5.7599E-1,1.179662E-2,5.933915E-1,3.9194E-1,5.5448E-1,5.727841E-1,4.05784E1,2.3568825E-4,2.0388422E-6,1.9544899E-4,-2.8109764E-5,-8.5701606E-5,-7.482972E-6,-5.478388E-5,-2.3045871E-4],"split_indices":[1,14,16,3,3,19,11,0,0,0,0,0,0,0,0],"split_type":[0,0,0,0,0,0,0,0,0,0,0,0,0,0,0],"sum_hessian":[6.533E3,5.995E3,5.38E2,5.891E3,1.04E2,4.12E2,1.26E2,2.6E1,5.865E3,7.3E1,3.1E1,1.76E2,2.36E2,8.2E1,4.4E1],"tree_param":{"num_deleted":"0","num_feature":"20","num_nodes":"15","size_leaf_vector":"1"}},{"base_weights":[4.1002895E-7,3.7385104E-4,-8.249603E-3,2.3341866E-2,2.741867E-4,-2.4792124E-2,-7.0991707E-3,2.818176E-4,1.7052815E-5,4.005457E-6,-4.8793937E-4,-9.190728E-6,-3.6652057E-4,-6.103657E-5,-2.3350526E-4],"categories":[],"categories_nodes":[],"categories_segments":[],"categories_sizes":[],"default_left":[0,0,0,0,0,0,0,0,0,0,0,0,0,0,0],"id":23,"left_children":[1,3,5,7,9,11,13,-1,-1,-1,-1,-1,-1,-1,-1],"loss_changes":[2.0133639E-2,1.4305006E-2,5.209785E-3,2.7793478E-3,3.8621992E-2,5.062705E-3,4.1609425E-3,0E0,0E0,0E0,0E0,0E0,0E0,0E0,0E0],"parents":[2147483647,0,0,1,1,2,2,3,3,4,4,5,5,6,6],"right_children":[2,4,6,8,10,12,14,-1,-1,-1,-1,-1,-1,-1,-1],"split_conditions":[5.801E-1,3.9194E-1,-2.3E-3,3.9182E-1,6.57949E1,-4.7E-3,3.86223E1,2.818176E-4,1.7052815E-5,4.005457E-6,-4.8793937E-4,-9.190728E-6,-3.6652057E-4,-6.103657E-5,-2.3350526E-4],"split_indices":[2,3,7,0,13,7,13,0,0,0,0,0,0,0,0],"split_type":[0,0,0,0,0,0,0,0,0,0,0,0,0,0,0],"sum_hessian":[6.533E3,6.251E3,2.82E2,2.6E1,6.225E3,1.7E1,2.65E2,2.1E1,5E0,6.21E3,1.5E1,6E0,1.1E1,2.51E2,1.4E1],"tree_param":{"num_deleted":"0","num_feature":"20","num_nodes":"15","size_leaf_vector":"1"}},{"base_weights":[2.750858E-7,5.227985E-4,-5.8124354E-3,3.0416524E-4,1.2786271E-2,-3.8096814E-3,-1.0980846E-2,-8.6888605E-5,5.761039E-6,5.864772E-4,1.0389306E-4,-7.913332E-5,-1.4018453E-5,-3.4711906E-5,-1.6378972E-4],"categories":[],"categories_nodes":[],"categories_segments":[],"categories_sizes":[],"default_left":[0,0,0,0,0,0,0,0,0,0,0,0,0,0,0],"id":24,"left_children":[1,3,5,7,9,11,13,-1,-1,-1,-1,-1,-1,-1,-1],"loss_changes":[1.984861E-2,1.6072607E-2,5.537387E-3,1.4414196E-2,1.09331645E-2,3.842465E-3,6.023856E-3,0E0,0E0,0E0,0E0,0E0,0E0,0E0,0E0],"parents":[2147483647,0,0,1,1,2,2,3,3,4,4,5,5,6,6],"right_children":[2,4,6,8,10,12,14,-1,-1,-1,-1,-1,-1,-1,-1],"split_conditions":[5.7599E-1,1.179662E-2,8.71716E-3,-6.1E-3,4.1349E-1,5.727841E-1,3.09664E1,-8.6888605E-5,5.761039E-6,5.864772E-4,1.0389306E-4,-7.913332E-5,-1.4018453E-5,-3.4711906E-5,-1.6378972E-4],"split_indices":[1,14,14,7,3,19,11,0,0,0,0,0,0,0,0],"split_type":[0,0,0,0,0,0,0,0,0,0,0,0,0,0,0],"sum_hessian":[6.533E3,5.995E3,5.38E2,5.891E3,1.04E2,3.89E2,1.49E2,1.72E2,5.719E3,4E0,1E2,1.43E2,2.46E2,6.3E1,8.6E1],"tree_param":{"num_deleted":"0","num_feature":"20","num_nodes":"15","size_leaf_vector":"1"}},{"base_weights":[3.2101008E-7,3.677508E-4,-8.116892E-3,2.316201E-2,2.6884093E-4,-2.4465181E-2,-6.980102E-3,2.795779E-4,1.717153E-5,3.939032E-6,-4.8295571E-4,-7.892434E-6,-3.6237377E-4,-5.997074E-5,-2.302964E-4],"categories":[],"categories_nodes":[],"categories_segments":[],"categories_sizes":[],"default_left":[0,0,0,0,0,0,0,0,0,0,0,0,0,0,0],"id":25,"left_children":[1,3,5,7,9,11,13,-1,-1,-1,-1,-1,-1,-1,-1],"loss_changes":[1.9490678E-2,1.4089387E-2,5.0886627E-3,2.7288022E-3,3.783311E-2,4.988321E-3,4.0586106E-3,0E0,0E0,0E0,0E0,0E0,0E0,0E0,0E0],"parents":[2147483647,0,0,1,1,2,2,3,3,4,4,5,5,6,6],"right_children":[2,4,6,8,10,12,14,-1,-1,-1,-1,-1,-1,-1,-1],"split_conditions":[5.801E-1,3.9194E-1,-2.3E-3,3.9182E-1,6.57949E1,-4.7E-3,3.86223E1,2.795779E-4,1.717153E-5,3.939032E-6,-4.8295571E-4,-7.892434E-6,-3.6237377E-4,-5.997074E-5,-2.302964E-4],"split_indices":[2,3,7,0,13,7,13,0,0,0,0,0,0,0,0],"split_type":[0,0,0,0,0,0,0,0,0,0,0,0,0,0,0],"sum_hessian":[6.533E3,6.251E3,2.82E2,2.6E1,6.225E3,1.7E1,2.65E2,2.1E1,5E0,6.21E3,1.5E1,6E0,1.1E1,2.51E2,1.4E1],"tree_param":{"num_deleted":"0","num_feature":"20","num_nodes":"15","size_leaf_vector":"1"}},{"base_weights":[1.8871866E-7,4.7288573E-4,-6.213424E-3,2.619918E-4,1.1494419E-2,-4.138168E-3,-1.1963005E-2,2.294138E-4,1.5875529E-6,1.932344E-4,-3.472358E-5,-1.3348272E-4,-2.3203214E-5,-2.9776775E-5,-1.9294578E-4],"categories":[],"categories_nodes":[],"categories_segments":[],"categories_sizes":[],"default_left":[0,0,0,0,0,0,0,0,0,0,0,0,0,0,0],"id":26,"left_children":[1,3,5,7,9,11,13,-1,-1,-1,-1,-1,-1,-1,-1],"loss_changes":[1.9194316E-2,1.4112912E-2,5.4630116E-3,1.3950752E-2,1.3425074E-2,5.6782383E-3,7.97949E-3,0E0,0E0,0E0,0E0,0E0,0E0,0E0,0E0],"parents":[2147483647,0,0,1,1,2,2,3,3,4,4,5,5,6,6],"right_children":[2,4,6,8,10,12,14,-1,-1,-1,-1,-1,-1,-1,-1],"split_conditions":[5.7267E-1,1.179662E-2,8.71716E-3,3.9194E-1,5.5448E-1,5.8207923E-1,3.09664E1,2.294138E-4,1.5875529E-6,1.932344E-4,-3.472358E-5,-1.3348272E-4,-2.3203214E-5,-2.9776775E-5,-1.9294578E-4],"split_indices":[2,14,14,3,3,15,11,0,0,0,0,0,0,0,0],"split_type":[0,0,0,0,0,0,0,0,0,0,0,0,0,0,0],"sum_hessian":[6.533E3,6.072E3,4.61E2,5.959E3,1.13E2,3.4E2,1.21E2,2.6E1,5.933E3,7.4E1,3.9E1,5.5E1,2.85E2,5.5E1,6.6E1],"tree_param":{"num_deleted":"0","num_feature":"20","num_nodes":"15","size_leaf_vector":"1"}},{"base_weights":[1.8840949E-7,5.0933054E-4,-5.663664E-3,2.9490193E-4,1.25369895E-2,-3.9045382E-3,-1.133969E-2,-8.461912E-5,5.70752E-6,5.8020797E-4,1.0161186E-4,-1.0692741E-4,-1.7302556E-5,-2.5475936E-4,-6.3098385E-5],"categories":[],"categories_nodes":[],"categories_segments":[],"categories_sizes":[],"default_left":[0,0,0,0,0,0,0,0,0,0,0,0,0,0,0],"id":27,"left_children":[1,3,5,7,9,11,13,-1,-1,-1,-1,-1,-1,-1,-1],"loss_changes":[1.8845022E-2,1.54604325E-2,5.3375512E-3,1.4237357E-2,1.0756798E-2,6.07716E-3,8.869359E-3,0E0,0E0,0E0,0E0,0E0,0E0,0E0,0E0],"parents":[2147483647,0,0,1,1,2,2,3,3,4,4,5,5,6,6],"right_children":[2,4,6,8,10,12,14,-1,-1,-1,-1,-1,-1,-1,-1],"split_conditions":[5.7599E-1,1.179662E-2,5.933915E-1,-6.5E-3,4.1349E-1,5.8207923E-1,6.121793E-1,-8.461912E-5,5.70752E-6,5.8020797E-4,1.0161186E-4,-1.0692741E-4,-1.7302556E-5,-2.5475936E-4,-6.3098385E-5],"split_indices":[1,14,16,6,3,15,15,0,0,0,0,0,0,0,0],"split_type":[0,0,0,0,0,0,0,0,0,0,0,0,0,0,0],"sum_hessian":[6.533E3,5.995E3,5.38E2,5.891E3,1.04E2,4.12E2,1.26E2,1.79E2,5.712E3,4E0,1E2,9.9E1,3.13E2,3.2E1,9.4E1],"tree_param":{"num_deleted":"0","num_feature":"20","num_nodes":"15","size_leaf_vector":"1"}},{"base_weights":[2.1125307E-7,3.59024E-4,-7.926635E-3,2.2758458E-2,2.6182778E-4,-2.4087092E-2,-6.803271E-3,2.7515754E-4,1.52196335E-5,3.8563708E-6,-4.7815766E-4,-6.190332E-6,-3.5769536E-4,-5.8345002E-5,-2.2625066E-4],"categories":[],"categories_nodes":[],"categories_segments":[],"categories_sizes":[],"default_left":[0,0,0,0,0,0,0,0,0,0,0,0,0,0,0],"id":28,"left_children":[1,3,5,7,9,11,13,-1,-1,-1,-1,-1,-1,-1,-1],"loss_changes":[1.8587198E-2,1.3605525E-2,4.973734E-3,2.6858868E-3,3.7078418E-2,4.912813E-3,3.945159E-3,0E0,0E0,0E0,0E0,0E0,0E0,0E0,0E0],"parents":[2147483647,0,0,1,1,2,2,3,3,4,4,5,5,6,6],"right_children":[2,4,6,8,10,12,14,-1,-1,-1,-1,-1,-1,-1,-1],"split_conditions":[5.801E-1,3.9194E-1,-2.3E-3,3.9182E-1,6.57949E1,-4.7E-3,3.86223E1,2.7515754E-4,1.52196335E-5,3.8563708E-6,-4.7815766E-4,-6.190332E-6,-3.5769536E-4,-5.8345002E-5,-2.2625066E-4],"split_indices":[2,3,7,0,13,7,13,0,0,0,0,0,0,0,0],"split_type":[0,0,0,0,0,0,0,0,0,0,0,0,0,0,0],"sum_hessian":[6.533E3,6.251E3,2.82E2,2.6E1,6.225E3,1.7E1,2.65E2,2.1E1,5E0,6.21E3,1.5E1,6E0,1.1E1,2.51E2,1.4E1],"tree_param":{"num_deleted":"0","num_feature":"20","num_nodes":"15","size_leaf_vector":"1"}},{"base_weights":[8.16119E-8,3.5540422E-4,-7.84966E-3,2.254163E-2,2.5913317E-4,-2.3866437E-2,-6.7363083E-3,2.7253103E-4,1.5092804E-5,3.817812E-6,-4.7367494E-4,-6.137272E-6,-3.5441646E-4,-5.7763868E-5,-2.24139E-4],"categories":[],"categories_nodes":[],"categories_segments":[],"categories_sizes":[],"default_left":[0,0,0,0,0,0,0,0,0,0,0,0,0,0,0],"id":29,"left_children":[1,3,5,7,9,11,13,-1,-1,-1,-1,-1,-1,-1,-1],"loss_changes":[1.8227363E-2,1.3347748E-2,4.8857704E-3,2.6343903E-3,3.63861E-2,4.8230393E-3,3.8736295E-3,0E0,0E0,0E0,0E0,0E0,0E0,0E0,0E0],"parents":[2147483647,0,0,1,1,2,2,3,3,4,4,5,5,6,6],"right_children":[2,4,6,8,10,12,14,-1,-1,-1,-1,-1,-1,-1,-1],"split_conditions":[5.801E-1,3.9194E-1,-2.3E-3,3.9182E-1,6.57949E1,-4.7E-3,3.86223E1,2.7253103E-4,1.5092804E-5,3.817812E-6,-4.7367494E-4,-6.137272E-6,-3.5441646E-4,-5.7763868E-5,-2.24139E-4],"split_indices":[2,3,7,0,13,7,13,0,0,0,0,0,0,0,0],"split_type":[0,0,0,0,0,0,0,0,0,0,0,0,0,0,0],"sum_hessian":[6.533E3,6.251E3,2.82E2,2.6E1,6.225E3,1.7E1,2.65E2,2.1E1,5E0,6.21E3,1.5E1,6E0,1.1E1,2.51E2,1.4E1],"tree_param":{"num_deleted":"0","num_feature":"20","num_nodes":"15","size_leaf_vector":"1"}},{"base_weights":[-4.544527E-8,4.97155E-4,-5.5310545E-3,3.0297213E-4,1.3530446E-2,-3.5969699E-3,-1.0522801E-2,2.2326864E-4,2.0184207E-6,4.4960258E-4,8.924569E-5,-7.690566E-5,-1.1958575E-5,-3.1704898E-5,-1.5810446E-4],"categories":[],"categories_nodes":[],"categories_segments":[],"categories_sizes":[],"default_left":[0,0,0,0,0,0,0,0,0,0,0,0,0,0,0],"id":30,"left_children":[1,3,5,7,9,11,13,-1,-1,-1,-1,-1,-1,-1,-1],"loss_changes":[1.7971383E-2,1.5170832E-2,5.165903E-3,1.31564755E-2,1.2337791E-2,3.824185E-3,5.781334E-3,0E0,0E0,0E0,0E0,0E0,0E0,0E0,0E0],"parents":[2147483647,0,0,1,1,2,2,3,3,4,4,5,5,6,6],"right_children":[2,4,6,8,10,12,14,-1,-1,-1,-1,-1,-1,-1,-1],"split_conditions":[5.7599E-1,1.254856E-2,8.71716E-3,3.9194E-1,4.4014E-1,5.727841E-1,3.09664E1,2.2326864E-4,2.0184207E-6,4.4960258E-4,8.924569E-5,-7.690566E-5,-1.1958575E-5,-3.1704898E-5,-1.5810446E-4],"split_indices":[1,14,14,3,3,19,11,0,0,0,0,0,0,0,0],"split_type":[0,0,0,0,0,0,0,0,0,0,0,0,0,0,0],"sum_hessian":[6.533E3,5.995E3,5.38E2,5.908E3,8.7E1,3.89E2,1.49E2,2.6E1,5.882E3,1E1,7.7E1,1.43E2,2.46E2,6.3E1,8.6E1],"tree_param":{"num_deleted":"0","num_feature":"20","num_nodes":"15","size_leaf_vector":"1"}},{"base_weights":[2.942733E-8,4.533894E-4,-5.959397E-3,5.5749808E-3,1.3843962E-5,-3.9505125E-3,-1.1525547E-2,2.9742817E-4,2.2480077E-5,1.2432929E-6,-3.0784635E-4,-1.305685E-4,-2.1536402E-5,-2.1427049E-4,-5.0349114E-5],"categories":[],"categories_nodes":[],"categories_segments":[],"categories_sizes":[],"default_left":[0,0,0,0,0,0,0,0,0,0,0,0,0,0,0],"id":31,"left_children":[1,3,5,7,9,11,13,-1,-1,-1,-1,-1,-1,-1,-1],"loss_changes":[1.7656038E-2,1.3671291E-2,5.1204395E-3,3.852789E-2,1.903898E-2,5.5516385E-3,7.732695E-3,0E0,0E0,0E0,0E0,0E0,0E0,0E0,0E0],"parents":[2147483647,0,0,1,1,2,2,3,3,4,4,5,5,6,6],"right_children":[2,4,6,8,10,12,14,-1,-1,-1,-1,-1,-1,-1,-1],"split_conditions":[5.7267E-1,-1.3E-3,8.71716E-3,4.70372E-1,6.57949E1,5.8207923E-1,2.6E-3,2.9742817E-4,2.2480077E-5,1.2432929E-6,-3.0784635E-4,-1.305685E-4,-2.1536402E-5,-2.1427049E-4,-5.0349114E-5],"split_indices":[2,8,14,16,13,15,7,0,0,0,0,0,0,0,0],"split_type":[0,0,0,0,0,0,0,0,0,0,0,0,0,0,0],"sum_hessian":[6.533E3,6.072E3,4.61E2,4.79E2,5.593E3,3.4E2,1.21E2,5.7E1,4.22E2,5.574E3,1.9E1,5.5E1,2.85E2,4.7E1,7.4E1],"tree_param":{"num_deleted":"0","num_feature":"20","num_nodes":"15","size_leaf_vector":"1"}},{"base_weights":[-3.276284E-8,3.4721862E-4,-7.671466E-3,2.2042604E-2,2.530775E-4,-2.339249E-2,-6.5787975E-3,2.8415569E-4,3.3548666E-5,3.7427958E-6,-4.4036217E-4,-3.0734523E-6,-3.4909448E-4,1.6602966E-6,-8.716594E-5],"categories":[],"categories_nodes":[],"categories_segments":[],"categories_sizes":[],"default_left":[0,0,0,0,0,0,0,0,0,0,0,0,0,0,0],"id":32,"left_children":[1,3,5,7,9,11,13,-1,-1,-1,-1,-1,-1,-1,-1],"loss_changes":[1.740869E-2,1.2763681E-2,4.7074426E-3,3.1202687E-3,3.343737E-2,4.774942E-3,3.8369205E-3,0E0,0E0,0E0,0E0,0E0,0E0,0E0,0E0],"parents":[2147483647,0,0,1,1,2,2,3,3,4,4,5,5,6,6],"right_children":[2,4,6,8,10,12,14,-1,-1,-1,-1,-1,-1,-1,-1],"split_conditions":[5.801E-1,3.9182E-1,-2.3E-3,4.57164E1,6.57949E1,-4.7E-3,4.97182E1,2.8415569E-4,3.3548666E-5,3.7427958E-6,-4.4036217E-4,-3.0734523E-6,-3.4909448E-4,1.6602966E-6,-8.716594E-5],"split_indices":[2,0,7,5,13,7,5,0,0,0,0,0,0,0,0],"split_type":[0,0,0,0,0,0,0,0,0,0,0,0,0,0,0],"sum_hessian":[6.533E3,6.251E3,2.82E2,2.6E1,6.225E3,1.7E1,2.65E2,1.9E1,7E0,6.209E3,1.6E1,6E0,1.1E1,6.4E1,2.01E2],"tree_param":{"num_deleted":"0","num_feature":"20","num_nodes":"15","size_leaf_vector":"1"}},{"base_weights":[-1.17548716E-7,3.437275E-4,-7.596298E-3,2.1849578E-2,2.504089E-4,-2.3178129E-2,-6.513331E-3,2.6465813E-4,1.2817801E-5,3.7014297E-6,-4.6244517E-4,-3.0471085E-6,-3.4589446E-4,-5.566426E-5,-2.198711E-4],"categories":[],"categories_nodes":[],"categories_segments":[],"categories_sizes":[],"default_left":[0,0,0,0,0,0,0,0,0,0,0,0,0,0,0],"id":33,"left_children":[1,3,5,7,9,11,13,-1,-1,-1,-1,-1,-1,-1,-1],"loss_changes":[1.7068826E-2,1.2541644E-2,4.6245474E-3,2.5296146E-3,3.4677427E-2,4.687745E-3,3.7750946E-3,0E0,0E0,0E0,0E0,0E0,0E0,0E0,0E0],"parents":[2147483647,0,0,1,1,2,2,3,3,4,4,5,5,6,6],"right_children":[2,4,6,8,10,12,14,-1,-1,-1,-1,-1,-1,-1,-1],"split_conditions":[5.801E-1,3.9194E-1,-2.3E-3,3.9182E-1,6.57949E1,-4.7E-3,3.86223E1,2.6465813E-4,1.2817801E-5,3.7014297E-6,-4.6244517E-4,-3.0471085E-6,-3.4589446E-4,-5.566426E-5,-2.198711E-4],"split_indices":[2,3,7,0,13,7,13,0,0,0,0,0,0,0,0],"split_type":[0,0,0,0,0,0,0,0,0,0,0,0,0,0,0],"sum_hessian":[6.533E3,6.251E3,2.82E2,2.6E1,6.225E3,1.7E1,2.65E2,2.1E1,5E0,6.21E3,1.5E1,6E0,1.1E1,2.51E2,1.4E1],"tree_param":{"num_deleted":"0","num_feature":"20","num_nodes":"15","size_leaf_vector":"1"}},{"base_weights":[-2.3955005E-7,4.2918135E-4,-6.007207E-3,5.9169945E-3,-2.0587862E-5,-9.601631E-4,-9.758367E-3,2.9357203E-4,2.5455149E-5,8.6069304E-7,-2.9984888E-4,6.4455795E-5,-7.751557E-5,-2.396025E-4,-6.088095E-5],"categories":[],"categories_nodes":[],"categories_segments":[],"categories_sizes":[],"default_left":[0,0,0,0,0,0,0,0,0,0,0,0,0,0,0],"id":34,"left_children":[1,3,5,7,9,11,13,-1,-1,-1,-1,-1,-1,-1,-1],"loss_changes":[1.6857145E-2,1.5053974E-2,8.2450975E-3,3.643629E-2,1.8021105E-2,9.455188E-3,1.2885321E-2,0E0,0E0,0E0,0E0,0E0,0E0,0E0,0E0],"parents":[2147483647,0,0,1,1,2,2,3,3,4,4,5,5,6,6],"right_children":[2,4,6,8,10,12,14,-1,-1,-1,-1,-1,-1,-1,-1],"split_conditions":[5.651309E-1,-1.3E-3,4.40864E1,4.70372E-1,6.57949E1,2.10714E1,5.727841E-1,2.9357203E-4,2.5455149E-5,8.6069304E-7,-2.9984888E-4,6.4455795E-5,-7.751557E-5,-2.396025E-4,-6.088095E-5],"split_indices":[17,8,10,16,13,13,19,0,0,0,0,0,0,0,0],"split_type":[0,0,0,0,0,0,0,0,0,0,0,0,0,0,0],"sum_hessian":[6.533E3,6.098E3,4.35E2,4.61E2,5.637E3,1.86E2,2.49E2,5.7E1,4.04E2,5.618E3,1.9E1,8.9E1,9.7E1,5E1,1.99E2],"tree_param":{"num_deleted":"0","num_feature":"20","num_nodes":"15","size_leaf_vector":"1"}},{"base_weights":[-2.8217949E-7,4.775142E-4,-5.315434E-3,2.8577665E-4,1.33468285E-2,-3.426669E-3,-1.0190787E-2,-7.39191E-5,5.671923E-6,4.432037E-4,8.8076515E-5,-5.6370696E-5,9.865443E-6,7.941751E-5,-1.2264341E-4],"categories":[],"categories_nodes":[],"categories_segments":[],"categories_sizes":[],"default_left":[0,0,0,0,0,0,0,0,0,0,0,0,0,0,0],"id":35,"left_children":[1,3,5,7,9,11,13,-1,-1,-1,-1,-1,-1,-1,-1],"loss_changes":[1.6596025E-2,1.4791501E-2,4.9284073E-3,1.2771305E-2,1.1981949E-2,3.8099992E-3,5.73722E-3,0E0,0E0,0E0,0E0,0E0,0E0,0E0,0E0],"parents":[2147483647,0,0,1,1,2,2,3,3,4,4,5,5,6,6],"right_children":[2,4,6,8,10,12,14,-1,-1,-1,-1,-1,-1,-1,-1],"split_conditions":[5.7599E-1,1.254856E-2,8.71716E-3,-6.1E-3,4.4014E-1,7.48429E1,-6.9E-3,-7.39191E-5,5.671923E-6,4.432037E-4,8.8076515E-5,-5.6370696E-5,9.865443E-6,7.941751E-5,-1.2264341E-4],"split_indices":[1,14,14,6,3,10,7,0,0,0,0,0,0,0,0],"split_type":[0,0,0,0,0,0,0,0,0,0,0,0,0,0,0],"sum_hessian":[6.533E3,5.995E3,5.38E2,5.908E3,8.7E1,3.89E2,1.49E2,2.08E2,5.7E3,1E1,7.7E1,2.59E2,1.3E2,1.5E1,1.34E2],"tree_param":{"num_deleted":"0","num_feature":"20","num_nodes":"15","size_leaf_vector":"1"}},{"base_weights":[-2.2227681E-7,4.7281623E-4,-5.262446E-3,2.6486203E-4,1.2137515E-2,-3.3925215E-3,-1.0089167E-2,-8.3446284E-5,5.360757E-6,1.8583474E-4,-3.1480668E-5,-7.474155E-5,-9.992107E-6,-2.8130235E-5,-1.5325764E-4],"categories":[],"categories_nodes":[],"categories_segments":[],"categories_sizes":[],"default_left":[0,0,0,0,0,0,0,0,0,0,0,0,0,0,0],"id":36,"left_children":[1,3,5,7,9,11,13,-1,-1,-1,-1,-1,-1,-1,-1],"loss_changes":[1.6267147E-2,1.4541422E-2,4.8305737E-3,1.376236E-2,1.0404177E-2,3.8022925E-3,5.672224E-3,0E0,0E0,0E0,0E0,0E0,0E0,0E0,0E0],"parents":[2147483647,0,0,1,1,2,2,3,3,4,4,5,5,6,6],"right_children":[2,4,6,8,10,12,14,-1,-1,-1,-1,-1,-1,-1,-1],"split_conditions":[5.7599E-1,1.179662E-2,8.71716E-3,-6.5E-3,5.5448E-1,5.727841E-1,3.09664E1,-8.3446284E-5,5.360757E-6,1.8583474E-4,-3.1480668E-5,-7.474155E-5,-9.992107E-6,-2.8130235E-5,-1.5325764E-4],"split_indices":[1,14,14,6,3,19,11,0,0,0,0,0,0,0,0],"split_type":[0,0,0,0,0,0,0,0,0,0,0,0,0,0,0],"sum_hessian":[6.533E3,5.995E3,5.38E2,5.891E3,1.04E2,3.89E2,1.49E2,1.79E2,5.712E3,7.3E1,3.1E1,1.43E2,2.46E2,6.3E1,8.6E1],"tree_param":{"num_deleted":"0","num_feature":"20","num_nodes":"15","size_leaf_vector":"1"}},{"base_weights":[-2.4906157E-7,4.1958224E-4,-5.8730724E-3,5.850836E-3,-2.5550571E-5,-2.1131579E-3,-1.0821719E-2,2.9032075E-4,2.516607E-5,7.976939E-7,-2.9613913E-4,4.022527E-5,-8.330764E-5,-2.8726915E-4,-6.82431E-5],"categories":[],"categories_nodes":[],"categories_segments":[],"categories_sizes":[],"default_left":[0,0,0,0,0,0,0,0,0,0,0,0,0,0,0],"id":37,"left_children":[1,3,5,7,9,11,13,-1,-1,-1,-1,-1,-1,-1,-1],"loss_changes":[1.6112661E-2,1.474527E-2,8.089563E-3,3.563564E-2,1.7571753E-2,9.532679E-3,1.3259944E-2,0E0,0E0,0E0,0E0,0E0,0E0,0E0,0E0],"parents":[2147483647,0,0,1,1,2,2,3,3,4,4,5,5,6,6],"right_children":[2,4,6,8,10,12,14,-1,-1,-1,-1,-1,-1,-1,-1],"split_conditions":[5.651309E-1,-1.3E-3,4.05784E1,4.70372E-1,6.57949E1,2.06894E1,5.8207923E-1,2.9032075E-4,2.516607E-5,7.976939E-7,-2.9613913E-4,4.022527E-5,-8.330764E-5,-2.8726915E-4,-6.82431E-5],"split_indices":[17,8,11,16,13,13,15,0,0,0,0,0,0,0,0],"split_type":[0,0,0,0,0,0,0,0,0,0,0,0,0,0,0],"sum_hessian":[6.533E3,6.098E3,4.35E2,4.61E2,5.637E3,2.48E2,1.87E2,5.7E1,4.04E2,5.618E3,1.9E1,1.25E2,1.23E2,3.3E1,1.54E2],"tree_param":{"num_deleted":"0","num_feature":"20","num_nodes":"15","size_leaf_vector":"1"}},{"base_weights":[-3.045213E-7,3.309497E-4,-7.31833E-3,2.1591306E-2,2.3869777E-4,-2.270716E-2,-6.249468E-3,2.779475E-4,3.3837838E-5,3.5619762E-6,-4.2697348E-4,-1.296119E-6,-3.3985134E-4,4.1020526E-6,-8.361494E-5],"categories":[],"categories_nodes":[],"categories_segments":[],"categories_sizes":[],"default_left":[0,0,0,0,0,0,0,0,0,0,0,0,0,0,0],"id":38,"left_children":[1,3,5,7,9,11,13,-1,-1,-1,-1,-1,-1,-1,-1],"loss_changes":[1.5841668E-2,1.2256951E-2,4.513027E-3,2.955582E-3,3.1425245E-2,4.5789164E-3,3.7448276E-3,0E0,0E0,0E0,0E0,0E0,0E0,0E0,0E0],"parents":[2147483647,0,0,1,1,2,2,3,3,4,4,5,5,6,6],"right_children":[2,4,6,8,10,12,14,-1,-1,-1,-1,-1,-1,-1,-1],"split_conditions":[5.801E-1,3.9182E-1,-2.3E-3,4.57164E1,6.57949E1,-4.7E-3,4.97182E1,2.779475E-4,3.3837838E-5,3.5619762E-6,-4.2697348E-4,-1.296119E-6,-3.3985134E-4,4.1020526E-6,-8.361494E-5],"split_indices":[2,0,7,5,13,7,5,0,0,0,0,0,0,0,0],"split_type":[0,0,0,0,0,0,0,0,0,0,0,0,0,0,0],"sum_hessian":[6.533E3,6.251E3,2.82E2,2.6E1,6.225E3,1.7E1,2.65E2,1.9E1,7E0,6.209E3,1.6E1,6E0,1.1E1,6.4E1,2.01E2],"tree_param":{"num_deleted":"0","num_feature":"20","num_nodes":"15","size_leaf_vector":"1"}},{"base_weights":[-3.8292103E-7,5.9467193E-4,-4.0127723E-3,3.3878404E-4,1.369584E-2,-4.027876E-2,-3.5296325E-3,6.241672E-5,-7.653107E-7,6.933003E-5,5.257151E-4,-1.5267445E-4,-4.774957E-4,1.3484297E-4,-4.3812393E-5],"categories":[],"categories_nodes":[],"categories_segments":[],"categories_sizes":[],"default_left":[0,0,0,0,0,0,0,0,0,0,0,0,0,0,0],"id":39,"left_children":[1,3,5,7,9,11,13,-1,-1,-1,-1,-1,-1,-1,-1],"loss_changes":[1.5602911E-2,1.9074038E-2,1.4646016E-2,1.36875305E-2,2.829269E-2,1.3263877E-3,1.2143056E-2,0E0,0E0,0E0,0E0,0E0,0E0,0E0,0E0],"parents":[2147483647,0,0,1,1,2,2,3,3,4,4,5,5,6,6],"right_children":[2,4,6,8,10,12,14,-1,-1,-1,-1,-1,-1,-1,-1],"split_conditions":[5.628755E-1,5.621446E-1,5.443864E-1,-1.3E-3,7E-4,2.94063E1,5.5751E-1,6.241672E-5,-7.653107E-7,6.933003E-5,5.257151E-4,-1.5267445E-4,-4.774957E-4,1.3484297E-4,-4.3812393E-5],"split_indices":[16,19,19,8,6,10,3,0,0,0,0,0,0,0,0],"split_type":[0,0,0,0,0,0,0,0,0,0,0,0,0,0,0],"sum_hessian":[6.533E3,5.69E3,8.43E2,5.582E3,1.08E2,1E1,8.33E2,3.66E2,5.216E3,9.3E1,1.5E1,3E0,7E0,3.9E1,7.94E2],"tree_param":{"num_deleted":"0","num_feature":"20","num_nodes":"15","size_leaf_vector":"1"}},{"base_weights":[-3.6108304E-7,4.095989E-4,-5.735099E-3,5.734885E-3,-2.6848717E-5,-7.9569046E-4,-9.406836E-3,2.8642034E-4,2.4401948E-5,7.660296E-7,-2.9090254E-4,6.616038E-5,-7.310054E-5,-2.3441127E-4,-5.7810572E-5],"categories":[],"categories_nodes":[],"categories_segments":[],"categories_sizes":[],"default_left":[0,0,0,0,0,0,0,0,0,0,0,0,0,0,0],"id":40,"left_children":[1,3,5,7,9,11,13,-1,-1,-1,-1,-1,-1,-1,-1],"loss_changes":[1.5363868E-2,1.4175502E-2,7.899902E-3,3.4798153E-2,1.6953768E-2,9.077228E-3,1.2585793E-2,0E0,0E0,0E0,0E0,0E0,0E0,0E0,0E0],"parents":[2147483647,0,0,1,1,2,2,3,3,4,4,5,5,6,6],"right_children":[2,4,6,8,10,12,14,-1,-1,-1,-1,-1,-1,-1,-1],"split_conditions":[5.651309E-1,-1.3E-3,4.40864E1,4.70372E-1,6.57949E1,2.09262E1,5.727841E-1,2.8642034E-4,2.4401948E-5,7.660296E-7,-2.9090254E-4,6.616038E-5,-7.310054E-5,-2.3441127E-4,-5.7810572E-5],"split_indices":[17,8,10,16,13,13,19,0,0,0,0,0,0,0,0],"split_type":[0,0,0,0,0,0,0,0,0,0,0,0,0,0,0],"sum_hessian":[6.533E3,6.098E3,4.35E2,4.61E2,5.637E3,1.86E2,2.49E2,5.7E1,4.04E2,5.618E3,1.9E1,8.7E1,9.9E1,5E1,1.99E2],"tree_param":{"num_deleted":"0","num_feature":"20","num_nodes":"15","size_leaf_vector":"1"}},{"base_weights":[-4.001018E-7,3.2349944E-4,-7.155946E-3,2.1311754E-2,2.324287E-4,-2.2412684E-2,-6.096633E-3,2.7414615E-4,3.3906337E-5,3.482249E-6,-4.208092E-4,-7.2683605E-7,-3.3576626E-4,-5.1609644E-5,-2.1409425E-4],"categories":[],"categories_nodes":[],"categories_segments":[],"categories_sizes":[],"default_left":[0,0,0,0,0,0,0,0,0,0,0,0,0,0,0],"id":41,"left_children":[1,3,5,7,9,11,13,-1,-1,-1,-1,-1,-1,-1,-1],"loss_changes":[1.51460245E-2,1.1945219E-2,4.4371067E-3,2.8600395E-3,3.0520344E-2,4.486805E-3,3.7006754E-3,0E0,0E0,0E0,0E0,0E0,0E0,0E0,0E0],"parents":[2147483647,0,0,1,1,2,2,3,3,4,4,5,5,6,6],"right_children":[2,4,6,8,10,12,14,-1,-1,-1,-1,-1,-1,-1,-1],"split_conditions":[5.801E-1,3.9182E-1,-2.3E-3,4.57164E1,6.57949E1,-4.7E-3,3.86223E1,2.7414615E-4,3.3906337E-5,3.482249E-6,-4.208092E-4,-7.2683605E-7,-3.3576626E-4,-5.1609644E-5,-2.1409425E-4],"split_indices":[2,0,7,5,13,7,13,0,0,0,0,0,0,0,0],"split_type":[0,0,0,0,0,0,0,0,0,0,0,0,0,0,0],"sum_hessian":[6.533E3,6.251E3,2.82E2,2.6E1,6.225E3,1.7E1,2.65E2,1.9E1,7E0,6.209E3,1.6E1,6E0,1.1E1,2.51E2,1.4E1],"tree_param":{"num_deleted":"0","num_feature":"20","num_nodes":"15","size_leaf_vector":"1"}},{"base_weights":[-5.050623E-7,5.816506E-4,-3.9259167E-3,3.2822383E-4,1.3556879E-2,-3.9952163E-2,-3.4460428E-3,6.10586E-5,-7.827813E-7,6.856436E-5,5.207467E-4,-1.5173852E-4,-4.73473E-4,1.3330957E-4,-4.2858337E-5],"categories":[],"categories_nodes":[],"categories_segments":[],"categories_sizes":[],"default_left":[0,0,0,0,0,0,0,0,0,0,0,0,0,0,0],"id":42,"left_children":[1,3,5,7,9,11,13,-1,-1,-1,-1,-1,-1,-1,-1],"loss_changes":[1.4933783E-2,1.8709093E-2,1.4453436E-2,1.3112827E-2,2.7774354E-2,1.2971871E-3,1.1807505E-2,0E0,0E0,0E0,0E0,0E0,0E0,0E0,0E0],"parents":[2147483647,0,0,1,1,2,2,3,3,4,4,5,5,6,6],"right_children":[2,4,6,8,10,12,14,-1,-1,-1,-1,-1,-1,-1,-1],"split_conditions":[5.628755E-1,5.621446E-1,5.443864E-1,-1.3E-3,7E-4,2.94063E1,5.5751E-1,6.10586E-5,-7.827813E-7,6.856436E-5,5.207467E-4,-1.5173852E-4,-4.73473E-4,1.3330957E-4,-4.2858337E-5],"split_indices":[16,19,19,8,6,10,3,0,0,0,0,0,0,0,0],"split_type":[0,0,0,0,0,0,0,0,0,0,0,0,0,0,0],"sum_hessian":[6.533E3,5.69E3,8.43E2,5.582E3,1.08E2,1E1,8.33E2,3.66E2,5.216E3,9.3E1,1.5E1,3E0,7E0,3.9E1,7.94E2],"tree_param":{"num_deleted":"0","num_feature":"20","num_nodes":"15","size_leaf_vector":"1"}},{"base_weights":[-4.8242356E-7,3.1836433E-4,-7.0444024E-3,2.1087896E-2,2.2824293E-4,-2.2166774E-2,-5.994601E-3,2.7124E-4,3.3616503E-5,3.4296206E-6,-4.16914E-4,-3.5324896E-7,-3.3229555E-4,5.8628398E-6,-8.082537E-5],"categories":[],"categories_nodes":[],"categories_segments":[],"categories_sizes":[],"default_left":[0,0,0,0,0,0,0,0,0,0,0,0,0,0,0],"id":43,"left_children":[1,3,5,7,9,11,13,-1,-1,-1,-1,-1,-1,-1,-1],"loss_changes":[1.4677155E-2,1.1697549E-2,4.3598823E-3,2.7977498E-3,2.9955035E-2,4.4058617E-3,3.6597028E-3,0E0,0E0,0E0,0E0,0E0,0E0,0E0,0E0],"parents":[2147483647,0,0,1,1,2,2,3,3,4,4,5,5,6,6],"right_children":[2,4,6,8,10,12,14,-1,-1,-1,-1,-1,-1,-1,-1],"split_conditions":[5.801E-1,3.9182E-1,-2.3E-3,4.57164E1,6.57949E1,-4.7E-3,4.97182E1,2.7124E-4,3.3616503E-5,3.4296206E-6,-4.16914E-4,-3.5324896E-7,-3.3229555E-4,5.8628398E-6,-8.082537E-5],"split_indices":[2,0,7,5,13,7,5,0,0,0,0,0,0,0,0],"split_type":[0,0,0,0,0,0,0,0,0,0,0,0,0,0,0],"sum_hessian":[6.533E3,6.251E3,2.82E2,2.6E1,6.225E3,1.7E1,2.65E2,1.9E1,7E0,6.209E3,1.6E1,6E0,1.1E1,6.4E1,2.01E2],"tree_param":{"num_deleted":"0","num_feature":"20","num_nodes":"15","size_leaf_vector":"1"}},{"base_weights":[-5.565509E-7,5.7282904E-4,-3.8668325E-3,3.2183924E-4,1.3423318E-2,-3.96126E-2,-3.390729E-3,6.0365408E-5,-8.0234275E-7,6.785208E-5,5.1583257E-4,-1.506262E-4,-4.6936012E-4,1.3197635E-4,-4.2210984E-5],"categories":[],"categories_nodes":[],"categories_segments":[],"categories_sizes":[],"default_left":[0,0,0,0,0,0,0,0,0,0,0,0,0,0,0],"id":44,"left_children":[1,3,5,7,9,11,13,-1,-1,-1,-1,-1,-1,-1,-1],"loss_changes":[1.4487224E-2,1.83511E-2,1.4229452E-2,1.2828712E-2,2.7260771E-2,1.2707058E-3,1.154362E-2,0E0,0E0,0E0,0E0,0E0,0E0,0E0,0E0],"parents":[2147483647,0,0,1,1,2,2,3,3,4,4,5,5,6,6],"right_children":[2,4,6,8,10,12,14,-1,-1,-1,-1,-1,-1,-1,-1],"split_conditions":[5.628755E-1,5.621446E-1,5.443864E-1,-1.3E-3,7E-4,2.94063E1,5.5751E-1,6.0365408E-5,-8.0234275E-7,6.785208E-5,5.1583257E-4,-1.506262E-4,-4.6936012E-4,1.3197635E-4,-4.2210984E-5],"split_indices":[16,19,19,8,6,10,3,0,0,0,0,0,0,0,0],"split_type":[0,0,0,0,0,0,0,0,0,0,0,0,0,0,0],"sum_hessian":[6.533E3,5.69E3,8.43E2,5.582E3,1.08E2,1E1,8.33E2,3.66E2,5.216E3,9.3E1,1.5E1,3E0,7E0,3.9E1,7.94E2],"tree_param":{"num_deleted":"0","num_feature":"20","num_nodes":"15","size_leaf_vector":"1"}},{"base_weights":[-5.335981E-7,3.9429602E-4,-5.5236192E-3,5.5647152E-3,-2.9458512E-5,-1.8492392E-3,-1.0360837E-2,2.8156152E-4,2.3156586E-5,7.1308364E-7,-2.833844E-4,4.1525236E-5,-7.932892E-5,-2.8141664E-4,-6.393682E-5],"categories":[],"categories_nodes":[],"categories_segments":[],"categories_sizes":[],"default_left":[0,0,0,0,0,0,0,0,0,0,0,0,0,0,0],"id":45,"left_children":[1,3,5,7,9,11,13,-1,-1,-1,-1,-1,-1,-1,-1],"loss_changes":[1.4250726E-2,1.3363004E-2,7.7302093E-3,3.3846002E-2,1.6085021E-2,9.124589E-3,1.30814575E-2,0E0,0E0,0E0,0E0,0E0,0E0,0E0,0E0],"parents":[2147483647,0,0,1,1,2,2,3,3,4,4,5,5,6,6],"right_children":[2,4,6,8,10,12,14,-1,-1,-1,-1,-1,-1,-1,-1],"split_conditions":[5.651309E-1,-1.3E-3,4.05784E1,4.70372E-1,6.57949E1,2.06894E1,5.8207923E-1,2.8156152E-4,2.3156586E-5,7.1308364E-7,-2.833844E-4,4.1525236E-5,-7.932892E-5,-2.8141664E-4,-6.393682E-5],"split_indices":[17,8,11,16,13,13,15,0,0,0,0,0,0,0,0],"split_type":[0,0,0,0,0,0,0,0,0,0,0,0,0,0,0],"sum_hessian":[6.533E3,6.098E3,4.35E2,4.61E2,5.637E3,2.48E2,1.87E2,5.7E1,4.04E2,5.618E3,1.9E1,1.25E2,1.23E2,3.3E1,1.54E2],"tree_param":{"num_deleted":"0","num_feature":"20","num_nodes":"15","size_leaf_vector":"1"}},{"base_weights":[-5.8355204E-7,3.1152432E-4,-6.8956288E-3,2.0814331E-2,2.2256072E-4,-2.1875137E-2,-5.8560544E-3,2.6752218E-4,3.367826E-5,3.3561885E-6,-4.109E-4,2.121779E-7,-3.282508E-4,-4.929679E-5,-2.1028753E-4],"categories":[],"categories_nodes":[],"categories_segments":[],"categories_sizes":[],"default_left":[0,0,0,0,0,0,0,0,0,0,0,0,0,0,0],"id":46,"left_children":[1,3,5,7,9,11,13,-1,-1,-1,-1,-1,-1,-1,-1],"loss_changes":[1.4063301E-2,1.1399037E-2,4.278863E-3,2.7069785E-3,2.9093701E-2,4.3164454E-3,3.635129E-3,0E0,0E0,0E0,0E0,0E0,0E0,0E0,0E0],"parents":[2147483647,0,0,1,1,2,2,3,3,4,4,5,5,6,6],"right_children":[2,4,6,8,10,12,14,-1,-1,-1,-1,-1,-1,-1,-1],"split_conditions":[5.801E-1,3.9182E-1,-2.3E-3,4.57164E1,6.57949E1,-4.7E-3,3.86223E1,2.6752218E-4,3.367826E-5,3.3561885E-6,-4.109E-4,2.121779E-7,-3.282508E-4,-4.929679E-5,-2.1028753E-4],"split_indices":[2,0,7,5,13,7,13,0,0,0,0,0,0,0,0],"split_type":[0,0,0,0,0,0,0,0,0,0,0,0,0,0,0],"sum_hessian":[6.533E3,6.251E3,2.82E2,2.6E1,6.225E3,1.7E1,2.65E2,1.9E1,7E0,6.209E3,1.6E1,6E0,1.1E1,2.51E2,1.4E1],"tree_param":{"num_deleted":"0","num_feature":"20","num_nodes":"15","size_leaf_vector":"1"}},{"base_weights":[-6.840018E-7,5.5101083E-4,-3.8510952E-3,2.4301234E-4,1.4671506E-2,-2.7551283E-3,-9.6385265E-3,2.0617423E-4,1.4418812E-6,9.947308E-5,8.074791E-4,-5.085552E-5,-1.0691674E-6,-2.4247223E-4,-4.620919E-5],"categories":[],"categories_nodes":[],"categories_segments":[],"categories_sizes":[],"default_left":[0,0,0,0,0,0,0,0,0,0,0,0,0,0,0],"id":47,"left_children":[1,3,5,7,9,11,13,-1,-1,-1,-1,-1,-1,-1,-1],"loss_changes":[1.3881984E-2,2.485584E-2,5.1682265E-3,1.1262477E-2,3.7280053E-2,4.25776E-3,9.417047E-3,0E0,0E0,0E0,0E0,0E0,0E0,0E0,0E0],"parents":[2147483647,0,0,1,1,2,2,3,3,4,4,5,5,6,6],"right_children":[2,4,6,8,10,12,14,-1,-1,-1,-1,-1,-1,-1,-1],"split_conditions":[5.6416386E-1,5.621446E-1,5.933915E-1,3.9194E-1,5.6864E-1,5.727841E-1,6.121793E-1,2.0617423E-4,1.4418812E-6,9.947308E-5,8.074791E-4,-5.085552E-5,-1.0691674E-6,-2.4247223E-4,-4.620919E-5],"split_indices":[18,19,16,3,0,19,15,0,0,0,0,0,0,0,0],"split_type":[0,0,0,0,0,0,0,0,0,0,0,0,0,0,0],"sum_hessian":[6.533E3,5.715E3,8.18E2,5.594E3,1.21E2,6.89E2,1.29E2,2.6E1,5.568E3,1.14E2,7E0,3.66E2,3.23E2,3.2E1,9.7E1],"tree_param":{"num_deleted":"0","num_feature":"20","num_nodes":"15","size_leaf_vector":"1"}},{"base_weights":[-5.5867366E-7,4.325085E-4,-4.827888E-3,2.4594305E-4,1.2538108E-2,-2.93169E-3,-1.0146037E-2,-7.187242E-5,5.198502E-6,4.330905E-4,8.204546E-5,-5.2865835E-5,1.593228E-5,-1.6293101E-4,-4.1968113E-5],"categories":[],"categories_nodes":[],"categories_segments":[],"categories_sizes":[],"default_left":[0,0,0,0,0,0,0,0,0,0,0,0,0,0,0],"id":48,"left_children":[1,3,5,7,9,11,13,-1,-1,-1,-1,-1,-1,-1,-1],"loss_changes":[1.3661794E-2,1.354106E-2,5.3955894E-3,1.2030403E-2,1.1779317E-2,4.2493916E-3,5.0880276E-3,0E0,0E0,0E0,0E0,0E0,0E0,0E0,0E0],"parents":[2147483647,0,0,1,1,2,2,3,3,4,4,5,5,6,6],"right_children":[2,4,6,8,10,12,14,-1,-1,-1,-1,-1,-1,-1,-1],"split_conditions":[5.7325E-1,1.254856E-2,8.71716E-3,-6.1E-3,4.4014E-1,7.48429E1,5.9366256E-1,-7.187242E-5,5.198502E-6,4.330905E-4,8.204546E-5,-5.2865835E-5,1.593228E-5,-1.6293101E-4,-4.1968113E-5],"split_indices":[3,14,14,6,3,10,19,0,0,0,0,0,0,0,0],"split_type":[0,0,0,0,0,0,0,0,0,0,0,0,0,0,0],"sum_hessian":[6.533E3,5.996E3,5.37E2,5.906E3,9E1,3.97E2,1.4E2,2.09E2,5.697E3,1E1,8E1,2.61E2,1.36E2,6.8E1,7.2E1],"tree_param":{"num_deleted":"0","num_feature":"20","num_nodes":"15","size_leaf_vector":"1"}},{"base_weights":[-5.215408E-7,5.5141986E-4,-3.7222016E-3,3.0529752E-4,1.3152791E-2,-3.928157E-2,-3.24873E-3,5.8938E-5,-8.7895063E-7,6.607995E-5,5.0781417E-4,-1.4974516E-4,-4.6524897E-4,1.3004096E-4,-4.062396E-5],"categories":[],"categories_nodes":[],"categories_segments":[],"categories_sizes":[],"default_left":[0,0,0,0,0,0,0,0,0,0,0,0,0,0,0],"id":49,"left_children":[1,3,5,7,9,11,13,-1,-1,-1,-1,-1,-1,-1,-1],"loss_changes":[1.3423864E-2,1.7646499E-2,1.4082262E-2,1.2268366E-2,2.6508054E-2,1.240015E-3,1.1081952E-2,0E0,0E0,0E0,0E0,0E0,0E0,0E0,0E0],"parents":[2147483647,0,0,1,1,2,2,3,3,4,4,5,5,6,6],"right_children":[2,4,6,8,10,12,14,-1,-1,-1,-1,-1,-1,-1,-1],"split_conditions":[5.628755E-1,5.621446E-1,5.443864E-1,-1.3E-3,7E-4,2.94063E1,5.5751E-1,5.8938E-5,-8.7895063E-7,6.607995E-5,5.0781417E-4,-1.4974516E-4,-4.6524897E-4,1.3004096E-4,-4.062396E-5],"split_indices":[16,19,19,8,6,10,3,0,0,0,0,0,0,0,0],"split_type":[0,0,0,0,0,0,0,0,0,0,0,0,0,0,0],"sum_hessian":[6.533E3,5.69E3,8.43E2,5.582E3,1.08E2,1E1,8.33E2,3.66E2,5.216E3,9.3E1,1.5E1,3E0,7E0,3.9E1,7.94E2],"tree_param":{"num_deleted":"0","num_feature":"20","num_nodes":"15","size_leaf_vector":"1"}},{"base_weights":[-5.000043E-7,3.0224604E-4,-6.688725E-3,1.1633485E-4,9.801338E-3,-2.1573111E-2,-5.656366E-3,-7.7687495E-5,3.61523E-6,1.8090838E-4,-3.9272247E-5,9.919406E-7,-3.2417531E-4,8.6656555E-6,-7.727327E-5],"categories":[],"categories_nodes":[],"categories_segments":[],"categories_sizes":[],"default_left":[0,0,0,0,0,0,0,0,0,0,0,0,0,0,0],"id":50,"left_children":[1,3,5,7,9,11,13,-1,-1,-1,-1,-1,-1,-1,-1],"loss_changes":[1.3232286E-2,1.1039813E-2,4.2265644E-3,1.1859918E-2,1.37273995E-2,4.2336397E-3,3.600019E-3,0E0,0E0,0E0,0E0,0E0,0E0,0E0,0E0],"parents":[2147483647,0,0,1,1,2,2,3,3,4,4,5,5,6,6],"right_children":[2,4,6,8,10,12,14,-1,-1,-1,-1,-1,-1,-1,-1],"split_conditions":[5.801E-1,1.179662E-2,-2.3E-3,-6.5E-3,5.5448E-1,-4.7E-3,4.97182E1,-7.7687495E-5,3.61523E-6,1.8090838E-4,-3.9272247E-5,9.919406E-7,-3.2417531E-4,8.6656555E-6,-7.727327E-5],"split_indices":[2,14,7,6,3,7,5,0,0,0,0,0,0,0,0],"split_type":[0,0,0,0,0,0,0,0,0,0,0,0,0,0,0],"sum_hessian":[6.533E3,6.251E3,2.82E2,6.132E3,1.19E2,1.7E1,2.65E2,1.84E2,5.948E3,7.4E1,4.5E1,6E0,1.1E1,6.4E1,2.01E2],"tree_param":{"num_deleted":"0","num_feature":"20","num_nodes":"15","size_leaf_vector":"1"}},{"base_weights":[-5.446457E-7,5.4312346E-4,-3.6664389E-3,2.9934986E-4,1.302427E-2,-3.8947947E-2,-3.1966988E-3,5.8325266E-5,-8.994963E-7,6.5405766E-5,5.030195E-4,-1.4864918E-4,-4.6120965E-4,1.2825958E-4,-3.9988496E-5],"categories":[],"categories_nodes":[],"categories_segments":[],"categories_sizes":[],"default_left":[0,0,0,0,0,0,0,0,0,0,0,0,0,0,0],"id":51,"left_children":[1,3,5,7,9,11,13,-1,-1,-1,-1,-1,-1,-1,-1],"loss_changes":[1.30244475E-2,1.7311392E-2,1.3863218E-2,1.2026658E-2,2.6015975E-2,1.2146439E-3,1.0770341E-2,0E0,0E0,0E0,0E0,0E0,0E0,0E0,0E0],"parents":[2147483647,0,0,1,1,2,2,3,3,4,4,5,5,6,6],"right_children":[2,4,6,8,10,12,14,-1,-1,-1,-1,-1,-1,-1,-1],"split_conditions":[5.628755E-1,5.621446E-1,5.443864E-1,-1.3E-3,7E-4,2.94063E1,5.5751E-1,5.8325266E-5,-8.994963E-7,6.5405766E-5,5.030195E-4,-1.4864918E-4,-4.6120965E-4,1.2825958E-4,-3.9988496E-5],"split_indices":[16,19,19,8,6,10,3,0,0,0,0,0,0,0,0],"split_type":[0,0,0,0,0,0,0,0,0,0,0,0,0,0,0],"sum_hessian":[6.533E3,5.69E3,8.43E2,5.582E3,1.08E2,1E1,8.33E2,3.66E2,5.216E3,9.3E1,1.5E1,3E0,7E0,3.9E1,7.94E2],"tree_param":{"num_deleted":"0","num_feature":"20","num_nodes":"15","size_leaf_vector":"1"}},{"base_weights":[-5.2320854E-7,3.740665E-4,-5.2404823E-3,5.390744E-3,-3.7086247E-5,-1.6056224E-3,-1.0026863E-2,2.7643982E-4,2.1905498E-5,6.175635E-7,-2.780506E-4,4.3063497E-5,-7.6000004E-5,-2.7736288E-4,-6.077525E-5],"categories":[],"categories_nodes":[],"categories_segments":[],"categories_sizes":[],"default_left":[0,0,0,0,0,0,0,0,0,0,0,0,0,0,0],"id":52,"left_children":[1,3,5,7,9,11,13,-1,-1,-1,-1,-1,-1,-1,-1],"loss_changes":[1.2827123E-2,1.2580124E-2,7.5693494E-3,3.2840632E-2,1.5476102E-2,8.856939E-3,1.2980245E-2,0E0,0E0,0E0,0E0,0E0,0E0,0E0,0E0],"parents":[2147483647,0,0,1,1,2,2,3,3,4,4,5,5,6,6],"right_children":[2,4,6,8,10,12,14,-1,-1,-1,-1,-1,-1,-1,-1],"split_conditions":[5.651309E-1,-1.3E-3,4.05784E1,4.70372E-1,6.57949E1,2.06894E1,5.8207923E-1,2.7643982E-4,2.1905498E-5,6.175635E-7,-2.780506E-4,4.3063497E-5,-7.6000004E-5,-2.7736288E-4,-6.077525E-5],"split_indices":[17,8,11,16,13,13,15,0,0,0,0,0,0,0,0],"split_type":[0,0,0,0,0,0,0,0,0,0,0,0,0,0,0],"sum_hessian":[6.533E3,6.098E3,4.35E2,4.61E2,5.637E3,2.48E2,1.87E2,5.7E1,4.04E2,5.618E3,1.9E1,1.25E2,1.23E2,3.3E1,1.54E2],"tree_param":{"num_deleted":"0","num_feature":"20","num_nodes":"15","size_leaf_vector":"1"}},{"base_weights":[-5.716371E-7,2.9580033E-4,-6.547981E-3,2.0430963E-2,2.084336E-4,-2.1291275E-2,-5.525698E-3,2.6232423E-4,3.3734406E-5,3.1972006E-6,-4.045612E-4,1.5180615E-6,-3.2025468E-4,-4.6109075E-5,-2.0525798E-4],"categories":[],"categories_nodes":[],"categories_segments":[],"categories_sizes":[],"default_left":[0,0,0,0,0,0,0,0,0,0,0,0,0,0,0],"id":53,"left_children":[1,3,5,7,9,11,13,-1,-1,-1,-1,-1,-1,-1,-1],"loss_changes":[1.2680959E-2,1.0993905E-2,4.147675E-3,2.5833864E-3,2.8188165E-2,4.147996E-3,3.5553956E-3,0E0,0E0,0E0,0E0,0E0,0E0,0E0,0E0],"parents":[2147483647,0,0,1,1,2,2,3,3,4,4,5,5,6,6],"right_children":[2,4,6,8,10,12,14,-1,-1,-1,-1,-1,-1,-1,-1],"split_conditions":[5.801E-1,3.9182E-1,-2.3E-3,4.57164E1,6.57949E1,-4.7E-3,3.86223E1,2.6232423E-4,3.3734406E-5,3.1972006E-6,-4.045612E-4,1.5180615E-6,-3.2025468E-4,-4.6109075E-5,-2.0525798E-4],"split_indices":[2,0,7,5,13,7,13,0,0,0,0,0,0,0,0],"split_type":[0,0,0,0,0,0,0,0,0,0,0,0,0,0,0],"sum_hessian":[6.533E3,6.251E3,2.82E2,2.6E1,6.225E3,1.7E1,2.65E2,1.9E1,7E0,6.209E3,1.6E1,6E0,1.1E1,2.51E2,1.4E1],"tree_param":{"num_deleted":"0","num_feature":"20","num_nodes":"15","size_leaf_vector":"1"}},{"base_weights":[-6.692015E-7,5.224878E-4,-3.6519081E-3,2.2231994E-4,1.4284099E-2,-2.5922372E-3,-9.248224E-3,2.0237619E-4,1.2524049E-6,9.640123E-5,7.925575E-4,-4.932985E-5,6.7166707E-7,-2.369056E-4,-4.2906184E-5],"categories":[],"categories_nodes":[],"categories_segments":[],"categories_sizes":[],"default_left":[0,0,0,0,0,0,0,0,0,0,0,0,0,0,0],"id":54,"left_children":[1,3,5,7,9,11,13,-1,-1,-1,-1,-1,-1,-1,-1],"loss_changes":[1.2482966E-2,2.3608439E-2,4.832905E-3,1.0868965E-2,3.604664E-2,4.2955773E-3,9.206275E-3,0E0,0E0,0E0,0E0,0E0,0E0,0E0,0E0],"parents":[2147483647,0,0,1,1,2,2,3,3,4,4,5,5,6,6],"right_children":[2,4,6,8,10,12,14,-1,-1,-1,-1,-1,-1,-1,-1],"split_conditions":[5.6416386E-1,5.621446E-1,5.933915E-1,3.9182E-1,5.6864E-1,5.727841E-1,6.121793E-1,2.0237619E-4,1.2524049E-6,9.640123E-5,7.925575E-4,-4.932985E-5,6.7166707E-7,-2.369056E-4,-4.2906184E-5],"split_indices":[18,19,16,0,0,19,15,0,0,0,0,0,0,0,0],"split_type":[0,0,0,0,0,0,0,0,0,0,0,0,0,0,0],"sum_hessian":[6.533E3,5.715E3,8.18E2,5.594E3,1.21E2,6.89E2,1.29E2,2.6E1,5.568E3,1.14E2,7E0,3.66E2,3.23E2,3.2E1,9.7E1],"tree_param":{"num_deleted":"0","num_feature":"20","num_nodes":"15","size_leaf_vector":"1"}},{"base_weights":[-5.455614E-7,4.1086806E-4,-4.577235E-3,2.3052619E-4,1.2515747E-2,-2.7712772E-3,-9.242211E-3,-7.3026735E-5,5.0665462E-6,4.2578782E-4,8.115629E-5,-6.9540874E-5,-3.214961E-6,-2.0012312E-5,-1.4462674E-4],"categories":[],"categories_nodes":[],"categories_segments":[],"categories_sizes":[],"default_left":[0,0,0,0,0,0,0,0,0,0,0,0,0,0,0],"id":55,"left_children":[1,3,5,7,9,11,13,-1,-1,-1,-1,-1,-1,-1,-1],"loss_changes":[1.230483E-2,1.3086482E-2,4.5153266E-3,1.2295193E-2,1.1295163E-2,3.9940826E-3,5.641248E-3,0E0,0E0,0E0,0E0,0E0,0E0,0E0,0E0],"parents":[2147483647,0,0,1,1,2,2,3,3,4,4,5,5,6,6],"right_children":[2,4,6,8,10,12,14,-1,-1,-1,-1,-1,-1,-1,-1],"split_conditions":[5.7599E-1,1.254856E-2,8.71716E-3,-6.1E-3,4.4014E-1,5.727841E-1,3.09664E1,-7.3026735E-5,5.0665462E-6,4.2578782E-4,8.115629E-5,-6.9540874E-5,-3.214961E-6,-2.0012312E-5,-1.4462674E-4],"split_indices":[1,14,14,6,3,19,11,0,0,0,0,0,0,0,0],"split_type":[0,0,0,0,0,0,0,0,0,0,0,0,0,0,0],"sum_hessian":[6.533E3,5.995E3,5.38E2,5.908E3,8.7E1,3.89E2,1.49E2,2.08E2,5.7E3,1E1,7.7E1,1.43E2,2.46E2,6.3E1,8.6E1],"tree_param":{"num_deleted":"0","num_feature":"20","num_nodes":"15","size_leaf_vector":"1"}},{"base_weights":[-5.0918595E-7,3.641029E-4,-5.1008957E-3,5.321391E-3,-4.2181447E-5,-1.5018363E-3,-9.840603E-3,2.7273738E-4,2.1644586E-5,5.4922043E-7,-2.73213E-4,4.32896E-5,-7.414566E-5,-2.7403087E-4,-5.924699E-5],"categories":[],"categories_nodes":[],"categories_segments":[],"categories_sizes":[],"default_left":[0,0,0,0,0,0,0,0,0,0,0,0,0,0,0],"id":56,"left_children":[1,3,5,7,9,11,13,-1,-1,-1,-1,-1,-1,-1,-1],"loss_changes":[1.2152893E-2,1.2284027E-2,7.422722E-3,3.1958528E-2,1.4935986E-2,8.616602E-3,1.276697E-2,0E0,0E0,0E0,0E0,0E0,0E0,0E0,0E0],"parents":[2147483647,0,0,1,1,2,2,3,3,4,4,5,5,6,6],"right_children":[2,4,6,8,10,12,14,-1,-1,-1,-1,-1,-1,-1,-1],"split_conditions":[5.651309E-1,-1.3E-3,4.05784E1,4.70372E-1,6.57949E1,2.06894E1,5.8207923E-1,2.7273738E-4,2.1644586E-5,5.4922043E-7,-2.73213E-4,4.32896E-5,-7.414566E-5,-2.7403087E-4,-5.924699E-5],"split_indices":[17,8,11,16,13,13,15,0,0,0,0,0,0,0,0],"split_type":[0,0,0,0,0,0,0,0,0,0,0,0,0,0,0],"sum_hessian":[6.533E3,6.098E3,4.35E2,4.61E2,5.637E3,2.48E2,1.87E2,5.7E1,4.04E2,5.618E3,1.9E1,1.25E2,1.23E2,3.3E1,1.54E2],"tree_param":{"num_deleted":"0","num_feature":"20","num_nodes":"15","size_leaf_vector":"1"}},{"base_weights":[-5.5659126E-7,2.876638E-4,-6.3678827E-3,2.0024817E-2,2.0202441E-4,-2.0947788E-2,-5.357333E-3,2.574333E-4,3.2254353E-5,3.1159916E-6,-3.9836872E-4,2.8106058E-6,-3.1585633E-4,1.079033E-5,-7.401919E-5],"categories":[],"categories_nodes":[],"categories_segments":[],"categories_sizes":[],"default_left":[0,0,0,0,0,0,0,0,0,0,0,0,0,0,0],"id":57,"left_children":[1,3,5,7,9,11,13,-1,-1,-1,-1,-1,-1,-1,-1],"loss_changes":[1.1992984E-2,1.056357E-2,4.0574176E-3,2.510788E-3,2.7327443E-2,4.0738033E-3,3.5084682E-3,0E0,0E0,0E0,0E0,0E0,0E0,0E0,0E0],"parents":[2147483647,0,0,1,1,2,2,3,3,4,4,5,5,6,6],"right_children":[2,4,6,8,10,12,14,-1,-1,-1,-1,-1,-1,-1,-1],"split_conditions":[5.801E-1,3.9182E-1,-2.3E-3,4.57164E1,6.57949E1,-4.7E-3,4.97182E1,2.574333E-4,3.2254353E-5,3.1159916E-6,-3.9836872E-4,2.8106058E-6,-3.1585633E-4,1.079033E-5,-7.401919E-5],"split_indices":[2,0,7,5,13,7,5,0,0,0,0,0,0,0,0],"split_type":[0,0,0,0,0,0,0,0,0,0,0,0,0,0,0],"sum_hessian":[6.533E3,6.251E3,2.82E2,2.6E1,6.225E3,1.7E1,2.65E2,1.9E1,7E0,6.209E3,1.6E1,6E0,1.1E1,6.4E1,2.01E2],"tree_param":{"num_deleted":"0","num_feature":"20","num_nodes":"15","size_leaf_vector":"1"}},{"base_weights":[-6.246431E-7,5.3579715E-4,-3.38098E-3,3.6076992E-4,2.6329E-2,-2.9508868E-2,-2.7194305E-3,6.46905E-5,-6.3614607E-7,6.034503E-4,8.30833E-5,-4.2598855E-4,-1.2546258E-4,1.2231008E-4,-3.777455E-5],"categories":[],"categories_nodes":[],"categories_segments":[],"categories_sizes":[],"default_left":[0,0,0,0,0,0,0,0,0,0,0,0,0,0,0],"id":58,"left_children":[1,3,5,7,9,11,13,-1,-1,-1,-1,-1,-1,-1,-1],"loss_changes":[1.1849889E-2,2.5452351E-2,1.5389739E-2,1.4524843E-2,2.2792317E-2,4.3504294E-3,1.3871074E-2,0E0,0E0,0E0,0E0,0E0,0E0,0E0,0E0],"parents":[2147483647,0,0,1,1,2,2,3,3,4,4,5,5,6,6],"right_children":[2,4,6,8,10,12,14,-1,-1,-1,-1,-1,-1,-1,-1],"split_conditions":[5.611315E-1,5.610415E-1,5.443864E-1,-1.3E-3,6.25173E-3,1.102422E-2,5.5751E-1,6.46905E-5,-6.3614607E-7,6.034503E-4,8.30833E-5,-4.2598855E-4,-1.2546258E-4,1.2231008E-4,-3.777455E-5],"split_indices":[16,18,19,8,14,14,3,0,0,0,0,0,0,0,0],"split_type":[0,0,0,0,0,0,0,0,0,0,0,0,0,0,0],"sum_hessian":[6.533E3,5.639E3,8.94E2,5.602E3,3.7E1,2.1E1,8.73E2,3.63E2,5.239E3,1.2E1,2.5E1,1.1E1,1E1,5.7E1,8.16E2],"tree_param":{"num_deleted":"0","num_feature":"20","num_nodes":"15","size_leaf_vector":"1"}},{"base_weights":[-5.7506315E-7,2.6880638E-3,-6.7016523E-4,5.6071836E-5,9.529633E-3,-4.133592E-4,-7.83433E-3,-6.600487E-4,2.6684497E-6,5.6569934E-5,2.8176972E-4,-1.5422767E-4,-2.7840777E-6,-2.8139655E-5,-1.5942546E-4],"categories":[],"categories_nodes":[],"categories_segments":[],"categories_sizes":[],"default_left":[0,0,0,0,0,0,0,0,0,0,0,0,0,0,0],"id":59,"left_children":[1,3,5,7,9,11,13,-1,-1,-1,-1,-1,-1,-1,-1],"loss_changes":[1.1764871E-2,2.3462528E-2,9.622598E-3,1.3133901E-2,2.5982223E-2,1.022874E-2,7.3229605E-3,0E0,0E0,0E0,0E0,0E0,0E0,0E0,0E0],"parents":[2147483647,0,0,1,1,2,2,3,3,4,4,5,5,6,6],"right_children":[2,4,6,8,10,12,14,-1,-1,-1,-1,-1,-1,-1,-1],"split_conditions":[4.7028E-1,4.26475E-3,5.863775E-1,-6.5E-3,9E-4,-9.6E-3,4.05784E1,-6.600487E-4,2.6684497E-6,5.6569934E-5,2.8176972E-4,-1.5422767E-4,-2.7840777E-6,-2.8139655E-5,-1.5942546E-4],"split_indices":[3,14,18,7,7,7,11,0,0,0,0,0,0,0,0],"split_type":[0,0,0,0,0,0,0,0,0,0,0,0,0,0,0],"sum_hessian":[6.533E3,1.302E3,5.231E3,9.41E2,3.61E2,5.051E3,1.8E2,2E0,9.39E2,3E2,6.1E1,4.4E1,5.007E3,1.12E2,6.8E1],"tree_param":{"num_deleted":"0","num_feature":"20","num_nodes":"15","size_leaf_vector":"1"}},{"base_weights":[-6.709225E-7,2.660938E-3,-6.635295E-4,1.9332575E-2,1.5980927E-3,-4.0925673E-4,-7.757023E-3,1.3058723E-3,9.923526E-5,1.0770906E-5,3.0062158E-4,-1.5271967E-4,-2.756243E-6,-2.786075E-5,-1.5785432E-4],"categories":[],"categories_nodes":[],"categories_segments":[],"categories_sizes":[],"default_left":[0,0,0,0,0,0,0,0,0,0,0,0,0,0,0],"id":60,"left_children":[1,3,5,7,9,11,13,-1,-1,-1,-1,-1,-1,-1,-1],"loss_changes":[1.1529508E-2,2.3057444E-2,9.43369E-3,8.035454E-2,1.8149002E-2,1.0029771E-2,7.1795126E-3,0E0,0E0,0E0,0E0,0E0,0E0,0E0,0E0],"parents":[2147483647,0,0,1,1,2,2,3,3,4,4,5,5,6,6],"right_children":[2,4,6,8,10,12,14,-1,-1,-1,-1,-1,-1,-1,-1],"split_conditions":[4.7028E-1,-1.6E-3,5.863775E-1,1.85073E1,4.5E-3,-9.6E-3,4.05784E1,1.3058723E-3,9.923526E-5,1.0770906E-5,3.0062158E-4,-1.5271967E-4,-2.756243E-6,-2.786075E-5,-1.5785432E-4],"split_indices":[3,8,18,13,7,7,11,0,0,0,0,0,0,0,0],"split_type":[0,0,0,0,0,0,0,0,0,0,0,0,0,0,0],"sum_hessian":[6.533E3,1.302E3,5.231E3,7.7E1,1.225E3,5.051E3,1.8E2,5E0,7.2E1,1.204E3,2.1E1,4.4E1,5.007E3,1.12E2,6.8E1],"tree_param":{"num_deleted":"0","num_feature":"20","num_nodes":"15","size_leaf_vector":"1"}},{"base_weights":[-4.536768E-7,5.244861E-4,-3.3084538E-3,3.5101076E-4,2.6089171E-2,-2.9233556E-2,-2.6520914E-3,6.3571584E-5,-6.627718E-7,5.9793115E-4,8.23377E-5,-4.2203284E-4,-1.2427165E-4,1.2142235E-4,-3.6991158E-5],"categories":[],"categories_nodes":[],"categories_segments":[],"categories_sizes":[],"default_left":[0,0,0,0,0,0,0,0,0,0,0,0,0,0,0],"id":61,"left_children":[1,3,5,7,9,11,13,-1,-1,-1,-1,-1,-1,-1,-1],"loss_changes":[1.1348033E-2,2.5003359E-2,1.5152026E-2,1.4043181E-2,2.2375979E-2,4.270967E-3,1.3583193E-2,0E0,0E0,0E0,0E0,0E0,0E0,0E0,0E0],"parents":[2147483647,0,0,1,1,2,2,3,3,4,4,5,5,6,6],"right_children":[2,4,6,8,10,12,14,-1,-1,-1,-1,-1,-1,-1,-1],"split_conditions":[5.611315E-1,5.610415E-1,5.443864E-1,-1.3E-3,6.25173E-3,1.102422E-2,5.5751E-1,6.3571584E-5,-6.627718E-7,5.9793115E-4,8.23377E-5,-4.2203284E-4,-1.2427165E-4,1.2142235E-4,-3.6991158E-5],"split_indices":[16,18,19,8,14,14,3,0,0,0,0,0,0,0,0],"split_type":[0,0,0,0,0,0,0,0,0,0,0,0,0,0,0],"sum_hessian":[6.533E3,5.639E3,8.94E2,5.602E3,3.7E1,2.1E1,8.73E2,3.63E2,5.239E3,1.2E1,2.5E1,1.1E1,1E1,5.7E1,8.16E2],"tree_param":{"num_deleted":"0","num_feature":"20","num_nodes":"15","size_leaf_vector":"1"}},{"base_weights":[-4.0605443E-7,2.631083E-3,-6.5576343E-4,4.0944687E-5,9.363898E-3,-4.0527436E-4,-7.643692E-3,-6.5571576E-4,2.5030276E-6,5.555933E-5,2.7699926E-4,-1.5140706E-4,-2.7278638E-6,-2.721797E-5,-1.5593409E-4],"categories":[],"categories_nodes":[],"categories_segments":[],"categories_sizes":[],"default_left":[0,0,0,0,0,0,0,0,0,0,0,0,0,0,0],"id":62,"left_children":[1,3,5,7,9,11,13,-1,-1,-1,-1,-1,-1,-1,-1],"loss_changes":[1.1270038E-2,2.2722537E-2,9.154994E-3,1.2956208E-2,2.5122013E-2,9.858724E-3,7.039667E-3,0E0,0E0,0E0,0E0,0E0,0E0,0E0,0E0],"parents":[2147483647,0,0,1,1,2,2,3,3,4,4,5,5,6,6],"right_children":[2,4,6,8,10,12,14,-1,-1,-1,-1,-1,-1,-1,-1],"split_conditions":[4.7028E-1,4.26475E-3,5.863775E-1,-6.5E-3,9E-4,-9.6E-3,4.05784E1,-6.5571576E-4,2.5030276E-6,5.555933E-5,2.7699926E-4,-1.5140706E-4,-2.7278638E-6,-2.721797E-5,-1.5593409E-4],"split_indices":[3,14,18,7,7,7,11,0,0,0,0,0,0,0,0],"split_type":[0,0,0,0,0,0,0,0,0,0,0,0,0,0,0],"sum_hessian":[6.533E3,1.302E3,5.231E3,9.41E2,3.61E2,5.051E3,1.8E2,2E0,9.39E2,3E2,6.1E1,4.4E1,5.007E3,1.12E2,6.8E1],"tree_param":{"num_deleted":"0","num_feature":"20","num_nodes":"15","size_leaf_vector":"1"}},{"base_weights":[-5.0281415E-7,2.604526E-3,-6.4927037E-4,1.902363E-2,1.5577929E-3,-4.0125224E-4,-7.568267E-3,1.292521E-3,9.703159E-5,1.0456877E-5,2.953638E-4,-1.4992664E-4,-2.7005922E-6,-2.6948197E-5,-1.5439735E-4],"categories":[],"categories_nodes":[],"categories_segments":[],"categories_sizes":[],"default_left":[0,0,0,0,0,0,0,0,0,0,0,0,0,0,0],"id":63,"left_children":[1,3,5,7,9,11,13,-1,-1,-1,-1,-1,-1,-1,-1],"loss_changes":[1.1044531E-2,2.236427E-2,8.975268E-3,7.888159E-2,1.7535219E-2,9.666952E-3,6.901766E-3,0E0,0E0,0E0,0E0,0E0,0E0,0E0,0E0],"parents":[2147483647,0,0,1,1,2,2,3,3,4,4,5,5,6,6],"right_children":[2,4,6,8,10,12,14,-1,-1,-1,-1,-1,-1,-1,-1],"split_conditions":[4.7028E-1,-1.6E-3,5.863775E-1,1.85073E1,4.5E-3,-9.6E-3,4.05784E1,1.292521E-3,9.703159E-5,1.0456877E-5,2.953638E-4,-1.4992664E-4,-2.7005922E-6,-2.6948197E-5,-1.5439735E-4],"split_indices":[3,8,18,13,7,7,11,0,0,0,0,0,0,0,0],"split_type":[0,0,0,0,0,0,0,0,0,0,0,0,0,0,0],"sum_hessian":[6.533E3,1.302E3,5.231E3,7.7E1,1.225E3,5.051E3,1.8E2,5E0,7.2E1,1.204E3,2.1E1,4.4E1,5.007E3,1.12E2,6.8E1],"tree_param":{"num_deleted":"0","num_feature":"20","num_nodes":"15","size_leaf_vector":"1"}},{"base_weights":[-2.8934554E-7,3.450414E-4,-4.830959E-3,5.1023476E-3,-4.4852288E-5,-1.6077247E-4,-8.304934E-3,2.7237472E-4,2.1673868E-5,5.029897E-7,-2.6775355E-4,5.496729E-5,-7.9646576E-5,-2.2282741E-4,-4.6990684E-5],"categories":[],"categories_nodes":[],"categories_segments":[],"categories_sizes":[],"default_left":[0,0,0,0,0,0,0,0,0,0,0,0,0,0,0],"id":64,"left_children":[1,3,5,7,9,11,13,-1,-1,-1,-1,-1,-1,-1,-1],"loss_changes":[1.0901546E-2,1.1312921E-2,7.072379E-3,2.9955126E-2,1.4341267E-2,8.299921E-3,1.2495816E-2,0E0,0E0,0E0,0E0,0E0,0E0,0E0,0E0],"parents":[2147483647,0,0,1,1,2,2,3,3,4,4,5,5,6,6],"right_children":[2,4,6,8,10,12,14,-1,-1,-1,-1,-1,-1,-1,-1],"split_conditions":[5.651309E-1,-1.3E-3,4.40864E1,4.690355E-1,6.57949E1,2.31887E1,5.727841E-1,2.7237472E-4,2.1673868E-5,5.029897E-7,-2.6775355E-4,5.496729E-5,-7.9646576E-5,-2.2282741E-4,-4.6990684E-5],"split_indices":[17,8,10,16,13,13,19,0,0,0,0,0,0,0,0],"split_type":[0,0,0,0,0,0,0,0,0,0,0,0,0,0,0],"sum_hessian":[6.533E3,6.098E3,4.35E2,4.61E2,5.637E3,1.86E2,2.49E2,5.3E1,4.08E2,5.618E3,1.9E1,1.08E2,7.8E1,5E1,1.99E2],"tree_param":{"num_deleted":"0","num_feature":"20","num_nodes":"15","size_leaf_vector":"1"}},{"base_weights":[-3.2741093E-7,2.5700359E-3,-6.404618E-4,6.9685344E-4,1.1589979E-2,-3.9604958E-4,-7.45886E-3,-5.672942E-4,1.1243588E-5,6.559477E-5,3.0913233E-4,-1.4851737E-4,-2.6607713E-6,-2.6353611E-5,-1.5250113E-4],"categories":[],"categories_nodes":[],"categories_segments":[],"categories_sizes":[],"default_left":[0,0,0,0,0,0,0,0,0,0,0,0,0,0,0],"id":65,"left_children":[1,3,5,7,9,11,13,-1,-1,-1,-1,-1,-1,-1,-1],"loss_changes":[1.0752546E-2,2.200741E-2,8.716173E-3,2.657783E-2,2.1571293E-2,9.487953E-3,6.7619914E-3,0E0,0E0,0E0,0E0,0E0,0E0,0E0,0E0],"parents":[2147483647,0,0,1,1,2,2,3,3,4,4,5,5,6,6],"right_children":[2,4,6,8,10,12,14,-1,-1,-1,-1,-1,-1,-1,-1],"split_conditions":[4.7028E-1,5.4222E-3,5.863775E-1,-6.5E-3,4E-4,-9.6E-3,4.05784E1,-5.672942E-4,1.1243588E-5,6.559477E-5,3.0913233E-4,-1.4851737E-4,-2.6607713E-6,-2.6353611E-5,-1.5250113E-4],"split_indices":[3,14,18,7,7,7,11,0,0,0,0,0,0,0,0],"split_type":[0,0,0,0,0,0,0,0,0,0,0,0,0,0,0],"sum_hessian":[6.533E3,1.302E3,5.231E3,1.079E3,2.23E2,5.051E3,1.8E2,7E0,1.072E3,1.78E2,4.5E1,4.4E1,5.007E3,1.12E2,6.8E1],"tree_param":{"num_deleted":"0","num_feature":"20","num_nodes":"15","size_leaf_vector":"1"}},{"base_weights":[-4.0245777E-7,5.0703506E-4,-3.1981089E-3,3.350461E-4,2.585301E-2,-2.8975172E-2,-2.5455991E-3,6.1722145E-5,-7.0500533E-7,5.9248175E-4,8.161079E-5,-4.1821817E-4,-1.232654E-4,1.205494E-4,-3.5789966E-5],"categories":[],"categories_nodes":[],"categories_segments":[],"categories_sizes":[],"default_left":[0,0,0,0,0,0,0,0,0,0,0,0,0,0,0],"id":66,"left_children":[1,3,5,7,9,11,13,-1,-1,-1,-1,-1,-1,-1,-1],"loss_changes":[1.0603926E-2,2.4577381E-2,1.4979946E-2,1.3264103E-2,2.1967823E-2,4.189823E-3,1.3230195E-2,0E0,0E0,0E0,0E0,0E0,0E0,0E0,0E0],"parents":[2147483647,0,0,1,1,2,2,3,3,4,4,5,5,6,6],"right_children":[2,4,6,8,10,12,14,-1,-1,-1,-1,-1,-1,-1,-1],"split_conditions":[5.611315E-1,5.610415E-1,5.443864E-1,-1.3E-3,6.25173E-3,1.102422E-2,5.5751E-1,6.1722145E-5,-7.0500533E-7,5.9248175E-4,8.161079E-5,-4.1821817E-4,-1.232654E-4,1.205494E-4,-3.5789966E-5],"split_indices":[16,18,19,8,14,14,3,0,0,0,0,0,0,0,0],"split_type":[0,0,0,0,0,0,0,0,0,0,0,0,0,0,0],"sum_hessian":[6.533E3,5.639E3,8.94E2,5.602E3,3.7E1,2.1E1,8.73E2,3.63E2,5.239E3,1.2E1,2.5E1,1.1E1,1E1,5.7E1,8.16E2],"tree_param":{"num_deleted":"0","num_feature":"20","num_nodes":"15","size_leaf_vector":"1"}},{"base_weights":[-3.558084E-7,2.5398224E-3,-6.3297275E-4,1.1085739E-5,9.11311E-3,6.464964E-4,-6.5781164E-4,-6.458424E-4,2.1722922E-6,5.3948323E-5,2.7017764E-4,-4.178822E-6,-7.3496674E-5],"categories":[],"categories_nodes":[],"categories_segments":[],"categories_sizes":[],"default_left":[0,0,0,0,0,0,0,0,0,0,0,0,0],"id":67,"left_children":[1,3,5,7,9,-1,11,-1,-1,-1,-1,-1,-1],"loss_changes":[1.0501483E-2,2.165851E-2,8.526466E-3,1.2557614E-2,2.3954201E-2,0E0,8.395682E-3,0E0,0E0,0E0,0E0,0E0,0E0],"parents":[2147483647,0,0,1,1,2,2,3,3,4,4,6,6],"right_children":[2,4,6,8,10,-1,12,-1,-1,-1,-1,-1,-1],"split_conditions":[4.7028E-1,4.26475E-3,4.5818E-1,-6.5E-3,9E-4,6.464964E-4,5.863775E-1,-6.458424E-4,2.1722922E-6,5.3948323E-5,2.7017764E-4,-4.178822E-6,-7.3496674E-5],"split_indices":[3,14,0,7,7,0,18,0,0,0,0,0,0],"split_type":[0,0,0,0,0,0,0,0,0,0,0,0,0],"sum_hessian":[6.533E3,1.302E3,5.231E3,9.41E2,3.61E2,1E0,5.23E3,2E0,9.39E2,3E2,6.1E1,5.05E3,1.8E2],"tree_param":{"num_deleted":"0","num_feature":"20","num_nodes":"13","size_leaf_vector":"1"}},{"base_weights":[-3.1410596E-7,2.514179E-3,-6.2653434E-4,1.0291631E-5,9.022875E-3,6.432639E-4,-6.512484E-4,-6.415368E-4,2.150593E-6,5.3410633E-5,2.6751944E-4,-4.1370417E-6,-7.276577E-5],"categories":[],"categories_nodes":[],"categories_segments":[],"categories_sizes":[],"default_left":[0,0,0,0,0,0,0,0,0,0,0,0,0],"id":68,"left_children":[1,3,5,7,9,-1,11,-1,-1,-1,-1,-1,-1],"loss_changes":[1.0290184E-2,2.1234952E-2,8.440567E-3,1.2390458E-2,2.3486698E-2,0E0,8.229581E-3,0E0,0E0,0E0,0E0,0E0,0E0],"parents":[2147483647,0,0,1,1,2,2,3,3,4,4,6,6],"right_children":[2,4,6,8,10,-1,12,-1,-1,-1,-1,-1,-1],"split_conditions":[4.7028E-1,4.26475E-3,4.5818E-1,-6.5E-3,9E-4,6.432639E-4,5.863775E-1,-6.415368E-4,2.150593E-6,5.3410633E-5,2.6751944E-4,-4.1370417E-6,-7.276577E-5],"split_indices":[3,14,0,7,7,0,18,0,0,0,0,0,0],"split_type":[0,0,0,0,0,0,0,0,0,0,0,0,0],"sum_hessian":[6.533E3,1.302E3,5.231E3,9.41E2,3.61E2,1E0,5.23E3,2E0,9.39E2,3E2,6.1E1,5.05E3,1.8E2],"tree_param":{"num_deleted":"0","num_feature":"20","num_nodes":"13","size_leaf_vector":"1"}},{"base_weights":[-2.7302713E-7,1.9396994E-2,-8.07472E-5,2.4997609E-2,2.97083E-3,2.0787165E-5,-3.885018E-2,2.8548876E-4,8.634036E-5,7.423095E-5,-3.337208E-5,5.246207E-6,-3.130588E-5,-2.1135058E-4,-6.7805394E-4],"categories":[],"categories_nodes":[],"categories_segments":[],"categories_sizes":[],"default_left":[0,0,0,0,0,0,0,0,0,0,0,0,0,0,0],"id":69,"left_children":[1,3,5,7,9,11,13,-1,-1,-1,-1,-1,-1,-1,-1],"loss_changes":[1.02010025E-2,2.4096454E-3,2.5619093E-2,9.1573596E-4,2.494529E-4,1.0309435E-2,7.2869975E-3,0E0,0E0,0E0,0E0,0E0,0E0,0E0,0E0],"parents":[2147483647,0,0,1,1,2,2,3,3,4,4,5,5,6,6],"right_children":[2,4,6,8,10,12,14,-1,-1,-1,-1,-1,-1,-1,-1],"split_conditions":[3.9182E-1,4.57164E1,6.57949E1,3.964874E-1,4.98105E1,5.611315E-1,5.22973E1,2.8548876E-4,8.634036E-5,7.423095E-5,-3.337208E-5,5.246207E-6,-3.130588E-5,-2.1135058E-4,-6.7805394E-4],"split_indices":[0,5,13,18,5,16,11,0,0,0,0,0,0,0,0],"split_type":[0,0,0,0,0,0,0,0,0,0,0,0,0,0,0],"sum_hessian":[6.533E3,2.6E1,6.507E3,1.9E1,7E0,6.491E3,1.6E1,1.5E1,4E0,4E0,3E0,5.597E3,8.94E2,1.1E1,5E0],"tree_param":{"num_deleted":"0","num_feature":"20","num_nodes":"15","size_leaf_vector":"1"}},{"base_weights":[-3.4722473E-7,2.9271955E-3,-5.2676577E-4,7.038519E-4,1.6293615E-2,3.412766E-2,-5.8305997E-4,-5.3876115E-4,1.2829733E-5,6.044057E-4,9.397763E-5,4.0794304E-4,7.19627E-5,-3.0083716E-6,-5.815584E-5],"categories":[],"categories_nodes":[],"categories_segments":[],"categories_sizes":[],"default_left":[0,0,0,0,0,0,0,0,0,0,0,0,0,0,0],"id":70,"left_children":[1,3,5,7,9,11,13,-1,-1,-1,-1,-1,-1,-1,-1],"loss_changes":[1.0071173E-2,2.9587805E-2,1.08256135E-2,2.7094325E-2,4.2661175E-2,1.3223113E-3,8.166087E-3,0E0,0E0,0E0,0E0,0E0,0E0,0E0,0E0],"parents":[2147483647,0,0,1,1,2,2,3,3,4,4,5,5,6,6],"right_children":[2,4,6,8,10,12,14,-1,-1,-1,-1,-1,-1,-1,-1],"split_conditions":[4.6221E-1,6.08632E-3,4.4101837E-1,-6.5E-3,1.98449E1,6.7517994E5,5.801E-1,-5.3876115E-4,1.2829733E-5,6.044057E-4,9.397763E-5,4.0794304E-4,7.19627E-5,-3.0083716E-6,-5.815584E-5],"split_indices":[2,14,19,7,13,4,2,0,0,0,0,0,0,0,0],"split_type":[0,0,0,0,0,0,0,0,0,0,0,0,0,0,0],"sum_hessian":[6.533E3,9.95E2,5.538E3,8.54E2,1.41E2,8E0,5.53E3,8E0,8.46E2,1.8E1,1.23E2,6E0,2E0,5.248E3,2.82E2],"tree_param":{"num_deleted":"0","num_feature":"20","num_nodes":"15","size_leaf_vector":"1"}},{"base_weights":[-2.5329686E-7,1.9160872E-2,-7.9747784E-5,2.4713462E-2,2.8842855E-3,2.0256037E-5,-3.826475E-2,2.82337E-4,8.506011E-5,7.304757E-5,-3.3623757E-5,5.1579354E-6,-3.0792293E-5,-2.0768061E-4,-6.688067E-4],"categories":[],"categories_nodes":[],"categories_segments":[],"categories_sizes":[],"default_left":[0,0,0,0,0,0,0,0,0,0,0,0,0,0,0],"id":71,"left_children":[1,3,5,7,9,11,13,-1,-1,-1,-1,-1,-1,-1,-1],"loss_changes":[9.954142E-3,2.3689047E-3,2.4852524E-2,9.0092514E-4,2.454669E-4,9.972724E-3,7.1226433E-3,0E0,0E0,0E0,0E0,0E0,0E0,0E0,0E0],"parents":[2147483647,0,0,1,1,2,2,3,3,4,4,5,5,6,6],"right_children":[2,4,6,8,10,12,14,-1,-1,-1,-1,-1,-1,-1,-1],"split_conditions":[3.9182E-1,4.57164E1,6.57949E1,3.964874E-1,4.98105E1,5.611315E-1,5.22973E1,2.82337E-4,8.506011E-5,7.304757E-5,-3.3623757E-5,5.1579354E-6,-3.0792293E-5,-2.0768061E-4,-6.688067E-4],"split_indices":[0,5,13,18,5,16,11,0,0,0,0,0,0,0,0],"split_type":[0,0,0,0,0,0,0,0,0,0,0,0,0,0,0],"sum_hessian":[6.533E3,2.6E1,6.507E3,1.9E1,7E0,6.491E3,1.6E1,1.5E1,4E0,4E0,3E0,5.597E3,8.94E2,1.1E1,5E0],"tree_param":{"num_deleted":"0","num_feature":"20","num_nodes":"15","size_leaf_vector":"1"}},{"base_weights":[-3.265567E-7,3.0851094E-3,-4.8931426E-4,5.218464E-4,1.9774243E-2,3.0474469E-2,-5.4420566E-4,-5.300766E-4,1.1484659E-5,8.1347465E-4,1.1455382E-4,5.415789E-5,4.044022E-4,-3.26739E-6,-7.091631E-5],"categories":[],"categories_nodes":[],"categories_segments":[],"categories_sizes":[],"default_left":[0,0,0,0,0,0,0,0,0,0,0,0,0,0,0],"id":72,"left_children":[1,3,5,7,9,11,13,-1,-1,-1,-1,-1,-1,-1,-1],"loss_changes":[9.859617E-3,3.823379E-2,9.604288E-3,2.608996E-2,6.0022205E-2,2.2782702E-3,8.0167875E-3,0E0,0E0,0E0,0E0,0E0,0E0,0E0,0E0],"parents":[2147483647,0,0,1,1,2,2,3,3,4,4,5,5,6,6],"right_children":[2,4,6,8,10,12,14,-1,-1,-1,-1,-1,-1,-1,-1],"split_conditions":[4.5949E-1,5.96462E-3,4.4101837E-1,-6.5E-3,1.98449E1,9.5E-3,5.863775E-1,-5.300766E-4,1.1484659E-5,8.1347465E-4,1.1455382E-4,5.415789E-5,4.044022E-4,-3.26739E-6,-7.091631E-5],"split_indices":[2,14,19,7,13,7,18,0,0,0,0,0,0,0,0],"split_type":[0,0,0,0,0,0,0,0,0,0,0,0,0,0,0],"sum_hessian":[6.533E3,8.93E2,5.64E3,7.75E2,1.18E2,9E0,5.631E3,8E0,7.67E2,1.3E1,1.05E2,3E0,6E0,5.451E3,1.8E2],"tree_param":{"num_deleted":"0","num_feature":"20","num_nodes":"15","size_leaf_vector":"1"}},{"base_weights":[-2.0179483E-7,1.891601E-2,-7.868021E-5,2.4422253E-2,2.7859034E-3,1.9820167E-5,-3.7689608E-2,2.791315E-4,8.3669336E-5,7.17529E-5,-3.397306E-5,3.4797595E-6,-4.5390316E-5,-2.0408907E-4,-6.596941E-4],"categories":[],"categories_nodes":[],"categories_segments":[],"categories_sizes":[],"default_left":[0,0,0,0,0,0,0,0,0,0,0,0,0,0,0],"id":73,"left_children":[1,3,5,7,9,11,13,-1,-1,-1,-1,-1,-1,-1,-1],"loss_changes":[9.701305E-3,2.3300024E-3,2.4110872E-2,8.874014E-4,2.4150065E-4,9.7137E-3,6.9614463E-3,0E0,0E0,0E0,0E0,0E0,0E0,0E0,0E0],"parents":[2147483647,0,0,1,1,2,2,3,3,4,4,5,5,6,6],"right_children":[2,4,6,8,10,12,14,-1,-1,-1,-1,-1,-1,-1,-1],"split_conditions":[3.9182E-1,4.57164E1,6.57949E1,3.964874E-1,4.98105E1,5.651309E-1,5.22973E1,2.791315E-4,8.3669336E-5,7.17529E-5,-3.397306E-5,3.4797595E-6,-4.5390316E-5,-2.0408907E-4,-6.596941E-4],"split_indices":[0,5,13,18,5,17,11,0,0,0,0,0,0,0,0],"split_type":[0,0,0,0,0,0,0,0,0,0,0,0,0,0,0],"sum_hessian":[6.533E3,2.6E1,6.507E3,1.9E1,7E0,6.491E3,1.6E1,1.5E1,4E0,4E0,3E0,6.056E3,4.35E2,1.1E1,5E0],"tree_param":{"num_deleted":"0","num_feature":"20","num_nodes":"15","size_leaf_vector":"1"}},{"base_weights":[-2.770738E-7,3.050205E-3,-4.8372516E-4,5.139879E-4,1.9563267E-2,3.0212449E-2,-5.3814246E-4,-5.215258E-4,1.130505E-5,8.058887E-4,1.1318721E-4,5.3725606E-5,4.0090605E-4,-2.150259E-6,-4.8568047E-5],"categories":[],"categories_nodes":[],"categories_segments":[],"categories_sizes":[],"default_left":[0,0,0,0,0,0,0,0,0,0,0,0,0,0,0],"id":74,"left_children":[1,3,5,7,9,11,13,-1,-1,-1,-1,-1,-1,-1,-1],"loss_changes":[9.637491E-3,3.7431296E-2,9.438995E-3,2.5255553E-2,5.8960102E-2,2.2383342E-3,7.858023E-3,0E0,0E0,0E0,0E0,0E0,0E0,0E0,0E0],"parents":[2147483647,0,0,1,1,2,2,3,3,4,4,5,5,6,6],"right_children":[2,4,6,8,10,12,14,-1,-1,-1,-1,-1,-1,-1,-1],"split_conditions":[4.5949E-1,5.96462E-3,4.4101837E-1,-6.5E-3,1.98449E1,9.5E-3,4.41063E1,-5.215258E-4,1.130505E-5,8.058887E-4,1.1318721E-4,5.3725606E-5,4.0090605E-4,-2.150259E-6,-4.8568047E-5],"split_indices":[2,14,19,7,13,7,13,0,0,0,0,0,0,0,0],"split_type":[0,0,0,0,0,0,0,0,0,0,0,0,0,0,0],"sum_hessian":[6.533E3,8.93E2,5.64E3,7.75E2,1.18E2,9E0,5.631E3,8E0,7.67E2,1.3E1,1.05E2,3E0,6E0,5.24E3,3.91E2],"tree_param":{"num_deleted":"0","num_feature":"20","num_nodes":"15","size_leaf_vector":"1"}},{"base_weights":[-1.4986013E-7,2.4133956E-3,-6.0122967E-4,1.7996678E-2,1.4199947E-3,6.288593E-4,-6.253882E-4,1.253979E-3,8.9226494E-5,9.237676E-6,2.853516E-4,-4.3294076E-6,-8.1733975E-5],"categories":[],"categories_nodes":[],"categories_segments":[],"categories_sizes":[],"default_left":[0,0,0,0,0,0,0,0,0,0,0,0,0],"id":75,"left_children":[1,3,5,7,9,-1,11,-1,-1,-1,-1,-1,-1],"loss_changes":[9.480543E-3,2.0145465E-2,8.063931E-3,7.489693E-2,1.6469812E-2,0E0,7.5949854E-3,0E0,0E0,0E0,0E0,0E0,0E0],"parents":[2147483647,0,0,1,1,2,2,3,3,4,4,6,6],"right_children":[2,4,6,8,10,-1,12,-1,-1,-1,-1,-1,-1],"split_conditions":[4.7028E-1,-1.6E-3,4.5818E-1,1.85073E1,4.5E-3,6.288593E-4,5.933915E-1,1.253979E-3,8.9226494E-5,9.237676E-6,2.853516E-4,-4.3294076E-6,-8.1733975E-5],"split_indices":[3,8,0,13,7,0,16,0,0,0,0,0,0],"split_type":[0,0,0,0,0,0,0,0,0,0,0,0,0],"sum_hessian":[6.533E3,1.302E3,5.231E3,7.7E1,1.225E3,1E0,5.23E3,5E0,7.2E1,1.204E3,2.1E1,5.101E3,1.29E2],"tree_param":{"num_deleted":"0","num_feature":"20","num_nodes":"13","size_leaf_vector":"1"}},{"base_weights":[1.8534413E-7,1.863864E-2,-7.7140794E-5,2.4089718E-2,2.6811154E-3,1.9852347E-5,-3.711257E-2,2.7557634E-4,8.1744416E-5,7.040324E-5,-3.4381745E-5,3.5357687E-6,-4.336668E-5,-2.0041483E-4,-6.5069314E-4],"categories":[],"categories_nodes":[],"categories_segments":[],"categories_sizes":[],"default_left":[0,0,0,0,0,0,0,0,0,0,0,0,0,0,0],"id":76,"left_children":[1,3,5,7,9,11,13,-1,-1,-1,-1,-1,-1,-1,-1],"loss_changes":[9.418498E-3,2.2840276E-3,2.3378663E-2,8.785892E-4,2.3760795E-4,9.440108E-3,6.809199E-3,0E0,0E0,0E0,0E0,0E0,0E0,0E0,0E0],"parents":[2147483647,0,0,1,1,2,2,3,3,4,4,5,5,6,6],"right_children":[2,4,6,8,10,12,14,-1,-1,-1,-1,-1,-1,-1,-1],"split_conditions":[3.9182E-1,4.57164E1,6.57949E1,3.964874E-1,4.98105E1,5.7267E-1,5.22973E1,2.7557634E-4,8.1744416E-5,7.040324E-5,-3.4381745E-5,3.5357687E-6,-4.336668E-5,-2.0041483E-4,-6.5069314E-4],"split_indices":[0,5,13,18,5,2,11,0,0,0,0,0,0,0,0],"split_type":[0,0,0,0,0,0,0,0,0,0,0,0,0,0,0],"sum_hessian":[6.533E3,2.6E1,6.507E3,1.9E1,7E0,6.491E3,1.6E1,1.5E1,4E0,4E0,3E0,6.03E3,4.61E2,1.1E1,5E0],"tree_param":{"num_deleted":"0","num_feature":"20","num_nodes":"15","size_leaf_vector":"1"}},{"base_weights":[1.0730111E-7,2.3862866E-3,-5.941572E-4,-3.411874E-5,8.678098E-3,6.256974E-4,-6.181935E-4,-6.09004E-4,1.6017165E-6,5.111745E-5,2.5852196E-4,-2.994598E-6,-5.1173683E-5],"categories":[],"categories_nodes":[],"categories_segments":[],"categories_sizes":[],"default_left":[0,0,0,0,0,0,0,0,0,0,0,0,0],"id":77,"left_children":[1,3,5,7,9,-1,11,-1,-1,-1,-1,-1,-1],"loss_changes":[9.266771E-3,1.9843336E-2,7.982023E-3,1.1149596E-2,2.2039948E-2,0E0,7.499923E-3,0E0,0E0,0E0,0E0,0E0,0E0],"parents":[2147483647,0,0,1,1,2,2,3,3,4,4,6,6],"right_children":[2,4,6,8,10,-1,12,-1,-1,-1,-1,-1,-1],"split_conditions":[4.7028E-1,4.26475E-3,4.5818E-1,-6.5E-3,9E-4,6.256974E-4,4.41063E1,-6.09004E-4,1.6017165E-6,5.111745E-5,2.5852196E-4,-2.994598E-6,-5.1173683E-5],"split_indices":[3,14,0,7,7,0,13,0,0,0,0,0,0],"split_type":[0,0,0,0,0,0,0,0,0,0,0,0,0],"sum_hessian":[6.533E3,1.302E3,5.231E3,9.41E2,3.61E2,1E0,5.23E3,2E0,9.39E2,3E2,6.1E1,4.885E3,3.45E2],"tree_param":{"num_deleted":"0","num_feature":"20","num_nodes":"13","size_leaf_vector":"1"}},{"base_weights":[1.4811403E-7,1.842519E-2,-7.629262E-5,2.2493163E-2,4.3842607E-4,1.9424166E-5,-3.891459E-2,2.3711607E-4,-1.5470776E-5,-2.1952046E-5,3.8037917E-5,4.970037E-6,-2.9682711E-5,-2.1512542E-4,-6.433258E-4],"categories":[],"categories_nodes":[],"categories_segments":[],"categories_sizes":[],"default_left":[0,0,0,0,0,0,0,0,0,0,0,0,0,0,0],"id":78,"left_children":[1,3,5,7,9,11,13,-1,-1,-1,-1,-1,-1,-1,-1],"loss_changes":[9.204048E-3,1.9657183E-3,2.4194097E-2,6.8110134E-4,6.152889E-5,9.266092E-3,5.6932457E-3,0E0,0E0,0E0,0E0,0E0,0E0,0E0,0E0],"parents":[2147483647,0,0,1,1,2,2,3,3,4,4,5,5,6,6],"right_children":[2,4,6,8,10,12,14,-1,-1,-1,-1,-1,-1,-1,-1],"split_conditions":[3.9194E-1,3.9182E-1,6.57949E1,-3.8E-3,-3E-3,5.611315E-1,5.22973E1,2.3711607E-4,-1.5470776E-5,-2.1952046E-5,3.8037917E-5,4.970037E-6,-2.9682711E-5,-2.1512542E-4,-6.433258E-4],"split_indices":[3,0,13,6,6,16,11,0,0,0,0,0,0,0,0],"split_type":[0,0,0,0,0,0,0,0,0,0,0,0,0,0,0],"sum_hessian":[6.533E3,2.6E1,6.507E3,2.1E1,5E0,6.492E3,1.5E1,2E1,1E0,3E0,2E0,5.598E3,8.94E2,1E1,5E0],"tree_param":{"num_deleted":"0","num_feature":"20","num_nodes":"15","size_leaf_vector":"1"}},{"base_weights":[4.789725E-8,2.9605452E-3,-4.6913922E-4,4.746625E-4,1.9146128E-2,2.9758334E-2,-5.2272686E-4,-5.083615E-4,1.0753431E-5,7.91077E-4,1.1046051E-4,5.0678256E-5,3.9616003E-4,-2.0562186E-6,-4.7610545E-5],"categories":[],"categories_nodes":[],"categories_segments":[],"categories_sizes":[],"default_left":[0,0,0,0,0,0,0,0,0,0,0,0,0,0,0],"id":79,"left_children":[1,3,5,7,9,11,13,-1,-1,-1,-1,-1,-1,-1,-1],"loss_changes":[9.077293E-3,3.5961412E-2,9.152954E-3,2.3972081E-2,5.6923684E-2,2.233142E-3,7.568401E-3,0E0,0E0,0E0,0E0,0E0,0E0,0E0,0E0],"parents":[2147483647,0,0,1,1,2,2,3,3,4,4,5,5,6,6],"right_children":[2,4,6,8,10,12,14,-1,-1,-1,-1,-1,-1,-1,-1],"split_conditions":[4.5949E-1,5.96462E-3,4.4101837E-1,-6.5E-3,1.98449E1,9.5E-3,4.41063E1,-5.083615E-4,1.0753431E-5,7.91077E-4,1.1046051E-4,5.0678256E-5,3.9616003E-4,-2.0562186E-6,-4.7610545E-5],"split_indices":[2,14,19,7,13,7,13,0,0,0,0,0,0,0,0],"split_type":[0,0,0,0,0,0,0,0,0,0,0,0,0,0,0],"sum_hessian":[6.533E3,8.93E2,5.64E3,7.75E2,1.18E2,9E0,5.631E3,8E0,7.67E2,1.3E1,1.05E2,3E0,6E0,5.24E3,3.91E2],"tree_param":{"num_deleted":"0","num_feature":"20","num_nodes":"15","size_leaf_vector":"1"}},{"base_weights":[1.6994719E-7,2.5062048E-4,-5.532752E-3,7.19608E-5,9.379529E-3,-2.0001758E-2,-4.532846E-3,-7.581328E-5,3.099481E-6,1.7173475E-4,-3.531893E-5,6.5736454E-6,-3.03861E-4,1.9648252E-5,-6.6012406E-5],"categories":[],"categories_nodes":[],"categories_segments":[],"categories_sizes":[],"default_left":[0,0,0,0,0,0,0,0,0,0,0,0,0,0,0],"id":80,"left_children":[1,3,5,7,9,11,13,-1,-1,-1,-1,-1,-1,-1,-1],"loss_changes":[9.055701E-3,1.0196136E-2,4.0036775E-3,1.11729065E-2,1.2136365E-2,3.8815397E-3,3.587944E-3,0E0,0E0,0E0,0E0,0E0,0E0,0E0,0E0],"parents":[2147483647,0,0,1,1,2,2,3,3,4,4,5,5,6,6],"right_children":[2,4,6,8,10,12,14,-1,-1,-1,-1,-1,-1,-1,-1],"split_conditions":[5.801E-1,1.179662E-2,-2.3E-3,-6.5E-3,5.5448E-1,-4.7E-3,4.97182E1,-7.581328E-5,3.099481E-6,1.7173475E-4,-3.531893E-5,6.5736454E-6,-3.03861E-4,1.9648252E-5,-6.6012406E-5],"split_indices":[2,14,7,6,3,7,5,0,0,0,0,0,0,0,0],"split_type":[0,0,0,0,0,0,0,0,0,0,0,0,0,0,0],"sum_hessian":[6.533E3,6.251E3,2.82E2,6.132E3,1.19E2,1.7E1,2.65E2,1.84E2,5.948E3,7.4E1,4.5E1,6E0,1.1E1,6.4E1,2.01E2],"tree_param":{"num_deleted":"0","num_feature":"20","num_nodes":"15","size_leaf_vector":"1"}},{"base_weights":[1.2542269E-7,1.8222699E-2,-7.547532E-5,2.225374E-2,4.0509508E-4,1.8673196E-5,-3.8277403E-2,2.5000316E-4,7.915321E-5,-2.2192557E-5,3.7691978E-5,3.3477088E-6,-4.3733875E-5,-2.1080268E-4,-6.3425914E-4],"categories":[],"categories_nodes":[],"categories_segments":[],"categories_sizes":[],"default_left":[0,0,0,0,0,0,0,0,0,0,0,0,0,0,0],"id":81,"left_children":[1,3,5,7,9,11,13,-1,-1,-1,-1,-1,-1,-1,-1],"loss_changes":[9.0028765E-3,1.9302191E-3,2.3407742E-2,6.68508E-4,6.133633E-5,9.015827E-3,5.582683E-3,0E0,0E0,0E0,0E0,0E0,0E0,0E0,0E0],"parents":[2147483647,0,0,1,1,2,2,3,3,4,4,5,5,6,6],"right_children":[2,4,6,8,10,12,14,-1,-1,-1,-1,-1,-1,-1,-1],"split_conditions":[3.9194E-1,3.9182E-1,6.57949E1,3.964874E-1,-3E-3,5.651309E-1,5.22973E1,2.5000316E-4,7.915321E-5,-2.2192557E-5,3.7691978E-5,3.3477088E-6,-4.3733875E-5,-2.1080268E-4,-6.3425914E-4],"split_indices":[3,0,13,18,6,17,11,0,0,0,0,0,0,0,0],"split_type":[0,0,0,0,0,0,0,0,0,0,0,0,0,0,0],"sum_hessian":[6.533E3,2.6E1,6.507E3,2.1E1,5E0,6.492E3,1.5E1,1.7E1,4E0,3E0,2E0,6.057E3,4.35E2,1E1,5E0],"tree_param":{"num_deleted":"0","num_feature":"20","num_nodes":"15","size_leaf_vector":"1"}},{"base_weights":[4.145106E-8,1.8053237E-2,-7.485657E-5,2.2046166E-2,4.0362735E-4,1.8480296E-5,-3.7947446E-2,2.3247016E-4,-1.5858452E-5,-2.2026114E-5,3.7440695E-5,4.8512125E-6,-2.9007839E-5,-2.0888628E-4,-6.289737E-4],"categories":[],"categories_nodes":[],"categories_segments":[],"categories_sizes":[],"default_left":[0,0,0,0,0,0,0,0,0,0,0,0,0,0,0],"id":82,"left_children":[1,3,5,7,9,11,13,-1,-1,-1,-1,-1,-1,-1,-1],"loss_changes":[8.836291E-3,1.8938901E-3,2.300589E-2,6.611934E-4,6.048267E-5,8.846485E-3,5.496016E-3,0E0,0E0,0E0,0E0,0E0,0E0,0E0,0E0],"parents":[2147483647,0,0,1,1,2,2,3,3,4,4,5,5,6,6],"right_children":[2,4,6,8,10,12,14,-1,-1,-1,-1,-1,-1,-1,-1],"split_conditions":[3.9194E-1,3.9182E-1,6.57949E1,-3.8E-3,-3E-3,5.611315E-1,5.22973E1,2.3247016E-4,-1.5858452E-5,-2.2026114E-5,3.7440695E-5,4.8512125E-6,-2.9007839E-5,-2.0888628E-4,-6.289737E-4],"split_indices":[3,0,13,6,6,16,11,0,0,0,0,0,0,0,0],"split_type":[0,0,0,0,0,0,0,0,0,0,0,0,0,0,0],"sum_hessian":[6.533E3,2.6E1,6.507E3,2.1E1,5E0,6.492E3,1.5E1,2E1,1E0,3E0,2E0,5.598E3,8.94E2,1E1,5E0],"tree_param":{"num_deleted":"0","num_feature":"20","num_nodes":"15","size_leaf_vector":"1"}},{"base_weights":[-5.5398946E-8,2.914728E-3,-4.6199764E-4,4.629051E-4,1.887859E-2,2.9495267E-2,-5.151068E-4,-4.9586454E-4,1.0488183E-5,7.836264E-4,1.0844107E-4,5.021344E-5,3.9266757E-4,-2.0226375E-6,-4.6964717E-5],"categories":[],"categories_nodes":[],"categories_segments":[],"categories_sizes":[],"default_left":[0,0,0,0,0,0,0,0,0,0,0,0,0,0,0],"id":83,"left_children":[1,3,5,7,9,11,13,-1,-1,-1,-1,-1,-1,-1,-1],"loss_changes":[8.799125E-3,3.4982927E-2,8.990049E-3,2.2807885E-2,5.6023136E-2,2.1942947E-3,7.3663304E-3,0E0,0E0,0E0,0E0,0E0,0E0,0E0,0E0],"parents":[2147483647,0,0,1,1,2,2,3,3,4,4,5,5,6,6],"right_children":[2,4,6,8,10,12,14,-1,-1,-1,-1,-1,-1,-1,-1],"split_conditions":[4.5949E-1,5.96462E-3,4.4101837E-1,-6.5E-3,1.98449E1,9.5E-3,4.41063E1,-4.9586454E-4,1.0488183E-5,7.836264E-4,1.0844107E-4,5.021344E-5,3.9266757E-4,-2.0226375E-6,-4.6964717E-5],"split_indices":[2,14,19,7,13,7,13,0,0,0,0,0,0,0,0],"split_type":[0,0,0,0,0,0,0,0,0,0,0,0,0,0,0],"sum_hessian":[6.533E3,8.93E2,5.64E3,7.75E2,1.18E2,9E0,5.631E3,8E0,7.67E2,1.3E1,1.05E2,3E0,6E0,5.24E3,3.91E2],"tree_param":{"num_deleted":"0","num_feature":"20","num_nodes":"15","size_leaf_vector":"1"}},{"base_weights":[6.770269E-8,2.45048E-4,-5.4120063E-3,6.8433204E-5,9.269494E-3,-1.9758107E-2,-4.4208714E-3,-7.4870055E-5,3.0337821E-6,1.6963569E-4,-3.476706E-5,6.8890995E-6,-3.0039024E-4,2.0190939E-5,-6.471251E-5],"categories":[],"categories_nodes":[],"categories_segments":[],"categories_sizes":[],"default_left":[0,0,0,0,0,0,0,0,0,0,0,0,0,0,0],"id":84,"left_children":[1,3,5,7,9,11,13,-1,-1,-1,-1,-1,-1,-1,-1],"loss_changes":[8.664439E-3,9.96412E-3,3.9366065E-3,1.08890375E-2,1.1827403E-2,3.804549E-3,3.5254308E-3,0E0,0E0,0E0,0E0,0E0,0E0,0E0,0E0],"parents":[2147483647,0,0,1,1,2,2,3,3,4,4,5,5,6,6],"right_children":[2,4,6,8,10,12,14,-1,-1,-1,-1,-1,-1,-1,-1],"split_conditions":[5.801E-1,1.179662E-2,-2.3E-3,-6.5E-3,5.5448E-1,-4.7E-3,4.97182E1,-7.4870055E-5,3.0337821E-6,1.6963569E-4,-3.476706E-5,6.8890995E-6,