{"learner":{"attributes":{"scikit_learn":"{\"_estimator_type\": \"regressor\"}"},"feature_names":[],"feature_types":[],"gradient_booster":{"model":{"gbtree_model_param":{"num_parallel_tree":"1","num_trees":"100"},"iteration_indptr":[0,1,2,3,4,5,6,7,8,9,10,11,12,13,14,15,16,17,18,19,20,21,22,23,24,25,26,27,28,29,30,31,32,33,34,35,36,37,38,39,40,41,42,43,44,45,46,47,48,49,50,51,52,53,54,55,56,57,58,59,60,61,62,63,64,65,66,67,68,69,70,71,72,73,74,75,76,77,78,79,80,81,82,83,84,85,86,87,88,89,90,91,92,93,94,95,96,97,98,99,100],"tree_info":[0,0,0,0,0,0,0,0,0,0,0,0,0,0,0,0,0,0,0,0,0,0,0,0,0,0,0,0,0,0,0,0,0,0,0,0,0,0,0,0,0,0,0,0,0,0,0,0,0,0,0,0,0,0,0,0,0,0,0,0,0,0,0,0,0,0,0,0,0,0,0,0,0,0,0,0,0,0,0,0,0,0,0,0,0,0,0,0,0,0,0,0,0,0,0,0,0,0,0,0],"trees":[{"base_weights":[-7.761207E-11,7.9604203E-4,-7.012041E-3,4.621599E-4,2.005109E-2,-4.5584673E-3,-1.3546027E-2,-1.0887219E-2,9.5182756E-4,6.7408974E-3,1.6671611E-2,-6.8992847E-3,3.249461E-4,6.5960013E-3,-1.5920846E-2,-8.995867E-3,-1.2641328E-2,1.0096553E-3,-4.181618E-2,2.2914128E-2,3.02031E-3,-1.6174011E-2,-3.1823337E-3,2.73163E-3,-3.2544596E-4,1.3412228E-2,-1.8967537E-3,-3.267679E-2,-9.403639E-3,2.6464213E-3,-1.1549456E-3,3.3059437E-3,9.440633E-5,-1.1687995E-3,-5.3958273E-3,3.9380984E-3,1.9477484E-3,2.4858247E-3,-3.682087E-4,-4.543129E-3,-1.0435552E-3,-1.06568E-4,-1.3936063E-3,-3.018389E-4,5.4725184E-4,4.5366553E-4,1.9605355E-3,3.7246267E-4,-8.449291E-4,-9.241811E-3,-2.6444413E-3,-4.806729E-4,-3.180046E-3],"categories":[],"categories_nodes":[],"categories_segments":[],"categories_sizes":[],"default_left":[0,0,0,0,0,0,0,0,0,0,0,0,0,0,0,0,0,0,0,0,0,0,0,0,0,0,0,0,0,0,0,0,0,0,0,0,0,0,0,0,0,0,0,0,0,0,0,0,0,0,0,0,0],"id":0,"left_children":[1,3,5,7,9,11,13,15,17,-1,19,21,23,25,27,29,-1,31,33,35,37,39,41,-1,43,45,47,49,51,-1,-1,-1,-1,-1,-1,-1,-1,-1,-1,-1,-1,-1,-1,-1,-1,-1,-1,-1,-1,-1,-1,-1,-1],"loss_changes":[2.9182067E-2,3.01745E-2,8.483104E-3,2.5663432E-2,1.1679783E-2,4.448971E-3,7.0408937E-3,4.059638E-2,1.09884925E-2,0E0,6.407397E-3,9.015113E-3,2.2383705E-3,9.516564E-4,1.38889775E-2,1.7419685E-2,0E0,9.262664E-3,1.5642513E-3,2.1756738E-3,3.7506938E-3,1.2117773E-2,4.287152E-3,0E0,1.9682166E-3,4.0576502E-4,3.261449E-4,1.0959949E-2,9.627979E-3,0E0,0E0,0E0,0E0,0E0,0E0,0E0,0E0,0E0,0E0,0E0,0E0,0E0,0E0,0E0,0E0,0E0,0E0,0E0,0E0,0E0,0E0,0E0,0E0],"parents":[2147483647,0,0,1,1,2,2,3,3,4,4,5,5,6,6,7,7,8,8,10,10,11,11,12,12,13,13,14,14,15,15,17,17,18,18,19,19,20,20,21,21,22,22,24,24,25,25,26,26,27,27,28,28],"right_children":[2,4,6,8,10,12,14,16,18,-1,20,22,24,26,28,30,-1,32,34,36,38,40,42,-1,44,46,48,50,52,-1,-1,-1,-1,-1,-1,-1,-1,-1,-1,-1,-1,-1,-1,-1,-1,-1,-1,-1,-1,-1,-1,-1,-1],"split_conditions":[5.7595E-1,1.189821E-2,8.74614E-3,-6E-3,4.142E-1,7.49268E1,-6.9E-3,7.31016E1,6.82355E1,6.7408974E-3,9.19935E1,5.730927E-1,4.8191E1,5.7948E-1,1.4E-3,3.9263E-1,-1.2641328E-2,3.89E-1,2.87213E1,4.1167152E-1,4.719094E-1,4.19775E-3,2.67395E1,2.73163E-3,2.55769E1,-1.03E-2,1.9423997E5,1.74432E1,3.85522E1,2.6464213E-3,-1.1549456E-3,3.3059437E-3,9.440633E-5,-1.1687995E-3,-5.3958273E-3,3.9380984E-3,1.9477484E-3,2.4858247E-3,-3.682087E-4,-4.543129E-3,-1.0435552E-3,-1.06568E-4,-1.3936063E-3,-3.018389E-4,5.4725184E-4,4.5366553E-4,1.9605355E-3,3.7246267E-4,-8.449291E-4,-9.241811E-3,-2.6444413E-3,-4.806729E-4,-3.180046E-3],"split_indices":[1,14,14,6,3,10,7,10,13,0,11,19,5,3,7,1,0,0,11,17,15,14,13,0,13,7,4,13,13,0,0,0,0,0,0,0,0,0,0,0,0,0,0,0,0,0,0,0,0,0,0,0,0],"split_type":[0,0,0,0,0,0,0,0,0,0,0,0,0,0,0,0,0,0,0,0,0,0,0,0,0,0,0,0,0,0,0,0,0,0,0,0,0,0,0,0,0,0,0,0,0,0,0,0,0,0,0,0,0],"sum_hessian":[5.226E3,4.694E3,5.32E2,4.615E3,7.9E1,3.88E2,1.44E2,1.9E2,4.425E3,4E0,7.5E1,2.62E2,1.26E2,1.5E1,1.29E2,1.88E2,2E0,4.42E3,5E0,5.1E1,2.4E1,7.4E1,1.88E2,2E0,1.24E2,8E0,7E0,3.5E1,9.4E1,1.2E1,1.76E2,8E0,4.412E3,2E0,3E0,7E0,4.4E1,5E0,1.9E1,1.1E1,6.3E1,1.58E2,3E1,8.5E1,3.9E1,4E0,4E0,4E0,3E0,2E0,3.3E1,7.9E1,1.5E1],"tree_param":{"num_deleted":"0","num_feature":"20","num_nodes":"53","size_leaf_vector":"1"}},{"base_weights":[-3.3068663E-6,7.165295E-4,-6.344073E-3,4.1284296E-4,1.8230287E-2,-4.134447E-3,-1.2517278E-2,-9.856873E-3,8.559299E-4,6.201626E-3,1.5109759E-2,-3.4764868E-3,-3.189424E-2,-2.0181566E-2,-3.1005982E-3,-8.0883885E-3,-1.1798574E-2,9.094589E-4,-3.872866E-2,2.0735905E-2,2.802984E-3,-7.5308545E-3,-2.1682258E-4,1.181413E-5,-3.5910555E-3,-1.1904741E-2,-4.3175288E-2,1.2144126E-3,-1.2654343E-2,-2.359546E-3,-1.710779E-4,2.7606917E-5,3.7847657E-4,-1.0908794E-3,-4.9911398E-3,3.593515E-3,1.757302E-3,2.921019E-3,-2.1257345E-4,-2.8164958E-4,-2.4655773E-3,2.3642089E-4,-6.343384E-4,3.6965273E-4,-1.6493918E-3,-6.4895707E-3,-2.3287034E-3,3.595482E-4,-1.0247468E-3,3.6160833E-5,-1.9690748E-3],"categories":[],"categories_nodes":[],"categories_segments":[],"categories_sizes":[],"default_left":[0,0,0,0,0,0,0,0,0,0,0,0,0,0,0,0,0,0,0,0,0,0,0,0,0,0,0,0,0,0,0,0,0,0,0,0,0,0,0,0,0,0,0,0,0,0,0,0,0,0,0],"id":1,"left_children":[1,3,5,7,9,11,13,15,17,-1,19,21,23,25,27,29,-1,31,33,35,37,39,41,-1,-1,43,45,47,49,-1,-1,-1,-1,-1,-1,-1,-1,-1,-1,-1,-1,-1,-1,-1,-1,-1,-1,-1,-1,-1,-1],"loss_changes":[2.3862215E-2,2.4963735E-2,7.2186217E-3,2.1012977E-2,9.993777E-3,7.085465E-3,1.0041527E-2,3.5569496E-2,9.413576E-3,0E0,5.2040964E-3,5.0996956E-3,1.161389E-3,1.4140263E-2,2.6537366E-3,1.8651366E-2,0E0,8.050436E-3,1.32214E-3,1.8683318E-3,3.315935E-3,1.3816635E-2,3.4147594E-3,0E0,0E0,4.2135958E-3,7.128395E-3,1.2649634E-3,1.8388301E-3,0E0,0E0,0E0,0E0,0E0,0E0,0E0,0E0,0E0,0E0,0E0,0E0,0E0,0E0,0E0,0E0,0E0,0E0,0E0,0E0,0E0,0E0],"parents":[2147483647,0,0,1,1,2,2,3,3,4,4,5,5,6,6,7,7,8,8,10,10,11,11,12,12,13,13,14,14,15,15,17,17,18,18,19,19,20,20,21,21,22,22,25,25,26,26,27,27,28,28],"right_children":[2,4,6,8,10,12,14,16,18,-1,20,22,24,26,28,30,-1,32,34,36,38,40,42,-1,-1,44,46,48,50,-1,-1,-1,-1,-1,-1,-1,-1,-1,-1,-1,-1,-1,-1,-1,-1,-1,-1,-1,-1,-1,-1],"split_conditions":[5.7595E-1,1.189821E-2,5.91637E-1,-6E-3,4.142E-1,1.01E-2,6.238865E-1,7.31016E1,6.82355E1,6.201626E-3,9.19935E1,5.730927E-1,5.6145E-1,3.90794E1,-2E-4,5.268299E-1,-1.1798574E-2,5.96124E-3,2.87213E1,4.1167152E-1,4.6212748E-1,5.665945E-1,5.8096504E-1,1.181413E-5,-3.5910555E-3,1.7655E1,1.1E-3,6.3802E-1,7.10486E-3,-2.359546E-3,-1.710779E-4,2.7606917E-5,3.7847657E-4,-1.0908794E-3,-4.9911398E-3,3.593515E-3,1.757302E-3,2.921019E-3,-2.1257345E-4,-2.8164958E-4,-2.4655773E-3,2.3642089E-4,-6.343384E-4,3.6965273E-4,-1.6493918E-3,-6.4895707E-3,-2.3287034E-3,3.595482E-4,-1.0247468E-3,3.6160833E-5,-1.9690748E-3],"split_indices":[1,14,16,6,3,7,16,10,13,0,11,19,2,11,8,15,0,14,11,17,15,17,19,0,0,13,6,3,14,0,0,0,0,0,0,0,0,0,0,0,0,0,0,0,0,0,0,0,0,0,0],"split_type":[0,0,0,0,0,0,0,0,0,0,0,0,0,0,0,0,0,0,0,0,0,0,0,0,0,0,0,0,0,0,0,0,0,0,0,0,0,0,0,0,0,0,0,0,0,0,0,0,0,0,0],"sum_hessian":[5.226E3,4.694E3,5.32E2,4.615E3,7.9E1,3.93E2,1.39E2,1.9E2,4.425E3,4E0,7.5E1,3.85E2,8E0,7.6E1,6.3E1,1.88E2,2E0,4.42E3,5E0,5.1E1,2.4E1,1.71E2,2.14E2,1E0,7E0,5.7E1,1.9E1,4.4E1,1.9E1,5.4E1,1.34E2,3.623E3,7.97E2,2E0,3E0,7E0,4.4E1,3E0,2.1E1,1.35E2,3.6E1,1.51E2,6.3E1,1.3E1,4.4E1,8E0,1.1E1,3.7E1,7E0,7E0,1.2E1],"tree_param":{"num_deleted":"0","num_feature":"20","num_nodes":"51","size_leaf_vector":"1"}},{"base_weights":[-7.790516E-6,8.161706E-4,-4.581901E-3,4.0824857E-4,1.49783E-2,-3.1737888E-3,-1.0901373E-2,2.1481702E-4,2.3350786E-2,1.1399366E-2,9.787706E-2,3.0081715E-3,-4.1529085E-3,-5.7526845E-3,-2.1857187E-2,2.7949074E-2,7.123469E-5,4.725582E-2,1.3632226E-2,9.0796035E-3,6.2937975E-2,1.1944118E-2,5.8103044E-4,-1.6480774E-2,6.2177624E-3,-5.8974493E-3,-1.0368462E-3,-1.5182529E-2,2.6470156E-5,-4.3266542E-2,-7.814925E-3,2.9117086E-3,1.7104147E-4,2.2100729E-5,-4.8771636E-3,-7.4935146E-4,5.4171695E-3,8.684883E-4,2.4296555E-3,-1.0892319E-3,1.1066506E-3,2.9855172E-4,1.0191111E-2,-6.21215E-3,3.4235956E-4,1.1317428E-3,5.5186607E-5,-4.3202602E-4,-2.0059766E-3,2.9487498E-4,-4.4026948E-4,-3.0270033E-4,-2.2978436E-3,1.3734781E-3,-1.3920873E-4,-5.9127193E-3,-2.46653E-3,1.9633684E-4,-1.3064732E-3],"categories":[],"categories_nodes":[],"categories_segments":[],"categories_sizes":[],"default_left":[0,0,0,0,0,0,0,0,0,0,0,0,0,0,0,0,0,0,0,0,0,0,0,0,0,0,0,0,0,0,0,0,0,0,0,0,0,0,0,0,0,0,0,0,0,0,0,0,0,0,0,0,0,0,0,0,0,0,0],"id":2,"left_children":[1,3,5,7,9,11,13,15,17,19,21,23,25,27,29,31,33,35,37,39,41,-1,-1,43,45,47,49,51,53,55,57,-1,-1,-1,-1,-1,-1,-1,-1,-1,-1,-1,-1,-1,-1,-1,-1,-1,-1,-1,-1,-1,-1,-1,-1,-1,-1,-1,-1],"loss_changes":[1.9703723E-2,2.5586193E-2,7.066425E-3,1.9108636E-2,3.5673723E-2,3.9710756E-3,8.053429E-3,1.7009752E-2,7.7194087E-3,1.3775423E-2,9.232704E-3,5.732112E-3,3.0652806E-3,5.4500536E-3,1.3491124E-2,6.244313E-4,3.1108217E-2,4.192332E-3,1.2135096E-3,4.72368E-3,1.1378417E-2,0E0,0E0,1.2022527E-2,2.2475E-3,7.999204E-3,2.7496244E-3,3.5314513E-3,1.2442196E-3,3.8521104E-3,1.5143409E-3,0E0,0E0,0E0,0E0,0E0,0E0,0E0,0E0,0E0,0E0,0E0,0E0,0E0,0E0,0E0,0E0,0E0,0E0,0E0,0E0,0E0,0E0,0E0,0E0,0E0,0E0,0E0,0E0],"parents":[2147483647,0,0,1,1,2,2,3,3,4,4,5,5,6,6,7,7,8,8,9,9,10,10,11,11,12,12,13,13,14,14,15,15,16,16,17,17,18,18,19,19,20,20,23,23,24,24,25,25,26,26,27,27,28,28,29,29,30,30],"right_children":[2,4,6,8,10,12,14,16,18,20,22,24,26,28,30,32,34,36,38,40,42,-1,-1,44,46,48,50,52,54,56,58,-1,-1,-1,-1,-1,-1,-1,-1,-1,-1,-1,-1,-1,-1,-1,-1,-1,-1,-1,-1,-1,-1,-1,-1,-1,-1,-1,-1],"split_conditions":[5.647709E-1,5.626024E-1,5.91637E-1,1.252919E-2,5.7011E-1,2.6323E1,4.05784E1,3.9263E-1,4.3922E-1,1.9E-3,5.7595E-1,5.68966E-1,7.07168E1,6.122094E-1,6.245176E-1,3.89E-1,6.82355E1,1.85618E1,-9.1E-3,5.563152E-1,2.4360308E5,1.1944118E-2,5.8103044E-4,3.23973E1,5.882257E-1,7.45159E1,7.97289E1,5.96124E-3,-1.09E-2,1.1E-3,4.7976E1,2.9117086E-3,1.7104147E-4,2.2100729E-5,-4.8771636E-3,-7.4935146E-4,5.4171695E-3,8.684883E-4,2.4296555E-3,-1.0892319E-3,1.1066506E-3,2.9855172E-4,1.0191111E-2,-6.21215E-3,3.4235956E-4,1.1317428E-3,5.5186607E-5,-4.3202602E-4,-2.0059766E-3,2.9487498E-4,-4.4026948E-4,-3.0270033E-4,-2.2978436E-3,1.3734781E-3,-1.3920873E-4,-5.9127193E-3,-2.46653E-3,1.9633684E-4,-1.3064732E-3],"split_indices":[18,19,16,14,0,9,11,1,3,6,1,19,10,15,18,0,13,11,6,18,4,0,0,5,15,12,11,14,6,6,5,0,0,0,0,0,0,0,0,0,0,0,0,0,0,0,0,0,0,0,0,0,0,0,0,0,0,0,0],"split_type":[0,0,0,0,0,0,0,0,0,0,0,0,0,0,0,0,0,0,0,0,0,0,0,0,0,0,0,0,0,0,0,0,0,0,0,0,0,0,0,0,0,0,0,0,0,0,0,0,0,0,0,0,0,0,0,0,0,0,0],"sum_hessian":[5.226E3,4.429E3,7.97E2,4.306E3,1.23E2,6.53E2,1.44E2,4.271E3,3.5E1,1.19E2,4E0,8.9E1,5.64E2,9.9E1,4.5E1,2.1E1,4.25E3,9E0,2.6E1,1.15E2,4E0,3E0,1E0,1.2E1,7.7E1,3.61E2,2.03E2,3.7E1,6.2E1,1.7E1,2.8E1,2E1,1E0,4.238E3,1.2E1,1E0,8E0,1.9E1,7E0,1E1,1.05E2,2E0,2E0,3E0,9E0,4E1,3.7E1,3.26E2,3.5E1,9.3E1,1.1E2,1.5E1,2.2E1,5E0,5.7E1,8E0,9E0,1E1,1.8E1],"tree_param":{"num_deleted":"0","num_feature":"20","num_nodes":"59","size_leaf_vector":"1"}},{"base_weights":[-4.887119E-6,5.257902E-4,-5.9112776E-3,2.6934955E-4,1.4910737E-2,-4.0153246E-3,-1.07914945E-2,-8.531717E-3,6.469513E-4,5.272122E-3,1.2361197E-2,-1.54366E-2,-2.4696635E-3,-2.0017125E-2,-4.7861417E-3,-2.6356367E-2,-1.1075365E-3,7.0782506E-4,-2.4375638E-2,1.7006291E-2,1.4617377E-3,-3.4694094E-3,-7.668885E-3,2.50611E-3,-5.634834E-3,-5.0348945E-2,-1.0458552E-2,-2.3031677E-3,-2.4982784E-3,-6.944455E-4,-9.152404E-3,3.4730309E-3,-2.9996378E-4,2.7508098E-3,6.54103E-5,-2.8034209E-3,6.1050284E-4,-8.460972E-4,1.8106209E-3,8.794185E-4,-1.2550856E-3,1.3076182E-4,-7.257521E-4,1.8033432E-4,2.6501827E-3,-1.53051E-3,-4.4525997E-4,-2.1426275E-3,-7.088013E-3,-8.763424E-5,-2.0524422E-3,-9.2005666E-4,2.5825907E-4],"categories":[],"categories_nodes":[],"categories_segments":[],"categories_sizes":[],"default_left":[0,0,0,0,0,0,0,0,0,0,0,0,0,0,0,0,0,0,0,0,0,0,0,0,0,0,0,0,0,0,0,0,0,0,0,0,0,0,0,0,0,0,0,0,0,0,0,0,0,0,0,0,0],"id":3,"left_children":[1,3,5,7,9,11,13,15,17,-1,19,21,23,25,27,29,31,33,35,37,39,41,-1,43,45,47,49,51,-1,-1,-1,-1,-1,-1,-1,-1,-1,-1,-1,-1,-1,-1,-1,-1,-1,-1,-1,-1,-1,-1,-1,-1,-1],"loss_changes":[1.6386552E-2,1.7691566E-2,3.9445655E-3,1.5671548E-2,7.4458458E-3,5.4697446E-3,6.552575E-3,2.564349E-2,6.9037275E-3,0E0,4.025462E-3,2.6855577E-2,4.360893E-3,1.310008E-2,3.6533934E-3,7.147108E-2,9.461797E-3,6.476787E-3,1.3978225E-3,1.7218627E-3,2.6790393E-3,5.885593E-4,0E0,1.7734538E-3,1.8639485E-3,5.0132833E-3,3.5507842E-3,2.2815957E-3,0E0,0E0,0E0,0E0,0E0,0E0,0E0,0E0,0E0,0E0,0E0,0E0,0E0,0E0,0E0,0E0,0E0,0E0,0E0,0E0,0E0,0E0,0E0,0E0,0E0],"parents":[2147483647,0,0,1,1,2,2,3,3,4,4,5,5,6,6,7,7,8,8,10,10,11,11,12,12,13,13,14,14,15,15,16,16,17,17,18,18,19,19,20,20,21,21,23,23,24,24,25,25,26,26,27,27],"right_children":[2,4,6,8,10,12,14,16,18,-1,20,22,24,26,28,30,32,34,36,38,40,42,-1,44,46,48,50,52,-1,-1,-1,-1,-1,-1,-1,-1,-1,-1,-1,-1,-1,-1,-1,-1,-1,-1,-1,-1,-1,-1,-1,-1,-1],"split_conditions":[5.7361E-1,1.189821E-2,8.74614E-3,-6E-3,4.142E-1,5.816796E-1,2.6E-3,5.268299E-1,5.86927E-1,5.272122E-3,9.19935E1,5.741952E-1,5.8055E-1,5.9366256E-1,8.49675E1,4.7941E-1,5.2719903E-1,3.89E-1,5.8935E-1,4.0278E-1,4.6467E-1,5.68928E-1,-7.668885E-3,9.718465E5,3.6142977E4,4.0585106E5,6.1029E-1,9.73855E-3,-2.4982784E-3,-6.944455E-4,-9.152404E-3,3.4730309E-3,-2.9996378E-4,2.7508098E-3,6.54103E-5,-2.8034209E-3,6.1050284E-4,-8.460972E-4,1.8106209E-3,8.794185E-4,-1.2550856E-3,1.3076182E-4,-7.257521E-4,1.8033432E-4,2.6501827E-3,-1.53051E-3,-4.4525997E-4,-2.1426275E-3,-7.088013E-3,-8.763424E-5,-2.0524422E-3,-9.2005666E-4,2.5825907E-4],"split_indices":[2,14,14,6,3,15,7,15,19,0,11,18,2,19,10,2,19,0,0,2,2,16,0,4,4,4,3,14,0,0,0,0,0,0,0,0,0,0,0,0,0,0,0,0,0,0,0,0,0,0,0,0,0],"split_type":[0,0,0,0,0,0,0,0,0,0,0,0,0,0,0,0,0,0,0,0,0,0,0,0,0,0,0,0,0,0,0,0,0,0,0,0,0,0,0,0,0,0,0,0,0,0,0,0,0,0,0,0,0],"sum_hessian":[5.226E3,4.796E3,4.3E2,4.713E3,8.3E1,3.11E2,1.19E2,1.93E2,4.52E3,4E0,7.9E1,3.6E1,2.75E2,4.6E1,7.3E1,5.6E1,1.37E2,4.51E3,1E1,5.5E1,2.4E1,3.1E1,5E0,1.07E2,1.68E2,1E1,3.6E1,6.6E1,7E0,4.4E1,1.2E1,6E0,1.31E2,8E0,4.502E3,9E0,1E0,2E0,5.3E1,1.6E1,8E0,1.4E1,1.7E1,1.05E2,2E0,1.7E1,1.51E2,5E0,5E0,1.9E1,1.7E1,2.7E1,3.9E1],"tree_param":{"num_deleted":"0","num_feature":"20","num_nodes":"53","size_leaf_vector":"1"}},{"base_weights":[-8.632106E-6,6.882814E-4,-3.8774516E-3,3.1906195E-4,1.350715E-2,-2.688605E-3,-9.212819E-3,1.5596078E-4,1.9664872E-2,1.0184802E-2,9.0542056E-2,-5.068971E-3,-1.575614E-4,-4.7625243E-3,-1.8687092E-2,-8.533062E-3,5.159359E-4,4.0248536E-2,1.1312963E-2,8.006271E-3,5.868978E-2,1.1043402E-2,5.487084E-4,-3.9406266E-2,-4.221191E-3,8.326921E-3,-1.6597664E-3,-1.2822977E-2,1.7493195E-4,-3.7345316E-2,-6.4617437E-3,-3.183083E-3,-3.3133206E-4,5.8105425E-4,1.9276033E-5,-8.0241496E-4,4.650374E-3,1.8733051E-3,5.040838E-4,-5.717612E-4,1.0420651E-3,2.7428762E-4,9.507342E-3,-6.615749E-3,3.8843357E-4,-2.4747578E-4,-1.98641E-3,1.6925812E-3,1.0120112E-4,-1.3123009E-3,-7.43399E-5,-2.8645564E-4,-1.993526E-3,1.7264401E-4,-1.2483768E-3,-5.113633E-3,-2.1198874E-3,2.1896619E-4,-1.1130361E-3],"categories":[],"categories_nodes":[],"categories_segments":[],"categories_sizes":[],"default_left":[0,0,0,0,0,0,0,0,0,0,0,0,0,0,0,0,0,0,0,0,0,0,0,0,0,0,0,0,0,0,0,0,0,0,0,0,0,0,0,0,0,0,0,0,0,0,0,0,0,0,0,0,0,0,0,0,0,0,0],"id":4,"left_children":[1,3,5,7,9,11,13,15,17,19,21,23,25,27,29,31,33,35,37,39,41,-1,-1,43,45,47,49,51,53,55,57,-1,-1,-1,-1,-1,-1,-1,-1,-1,-1,-1,-1,-1,-1,-1,-1,-1,-1,-1,-1,-1,-1,-1,-1,-1,-1,-1,-1],"loss_changes":[1.4095876E-2,2.0962771E-2,5.0368905E-3,1.3586915E-2,3.0814001E-2,3.939427E-3,6.024681E-3,1.3366501E-2,5.733533E-3,1.2210471E-2,7.853594E-3,9.643884E-3,4.066868E-3,3.982057E-3,1.0251436E-2,2.0567946E-2,7.0194723E-3,3.3927094E-3,1.1621423E-3,3.9032018E-3,9.916985E-3,0E0,0E0,9.5215915E-3,8.966208E-3,3.0020764E-3,2.836975E-3,2.6343237E-3,1.2588772E-3,2.9241312E-3,1.1956847E-3,0E0,0E0,0E0,0E0,0E0,0E0,0E0,0E0,0E0,0E0,0E0,0E0,0E0,0E0,0E0,0E0,0E0,0E0,0E0,0E0,0E0,0E0,0E0,0E0,0E0,0E0,0E0,0E0],"parents":[2147483647,0,0,1,1,2,2,3,3,4,4,5,5,6,6,7,7,8,8,9,9,10,10,11,11,12,12,13,13,14,14,15,15,16,16,17,17,18,18,19,19,20,20,23,23,24,24,25,25,26,26,27,27,28,28,29,29,30,30],"right_children":[2,4,6,8,10,12,14,16,18,20,22,24,26,28,30,32,34,36,38,40,42,-1,-1,44,46,48,50,52,54,56,58,-1,-1,-1,-1,-1,-1,-1,-1,-1,-1,-1,-1,-1,-1,-1,-1,-1,-1,-1,-1,-1,-1,-1,-1,-1,-1,-1,-1],"split_conditions":[5.647709E-1,5.626024E-1,5.91637E-1,1.252919E-2,5.7011E-1,5.724504E-1,4.05784E1,-5.7E-3,4.3922E-1,1.9E-3,5.7595E-1,3.23973E1,2.44667E1,6.122094E-1,6.245176E-1,6.72797E-3,4.4196153E-1,1.85618E1,4.5529E-1,5.553245E-1,2.4360308E5,1.1043402E-2,5.487084E-4,2.2497E1,5.7138044E-1,5.882257E-1,5.501457E-1,6.0768306E-1,6.3802E-1,1.1E-3,4.7976E1,-3.183083E-3,-3.3133206E-4,5.8105425E-4,1.9276033E-5,-8.0241496E-4,4.650374E-3,1.8733051E-3,5.040838E-4,-5.717612E-4,1.0420651E-3,2.7428762E-4,9.507342E-3,-6.615749E-3,3.8843357E-4,-2.4747578E-4,-1.98641E-3,1.6925812E-3,1.0120112E-4,-1.3123009E-3,-7.43399E-5,-2.8645564E-4,-1.993526E-3,1.7264401E-4,-1.2483768E-3,-5.113633E-3,-2.1198874E-3,2.1896619E-4,-1.1130361E-3],"split_indices":[18,19,16,14,0,19,11,6,3,6,1,5,9,15,18,14,19,11,3,16,4,0,0,13,19,15,17,15,3,6,5,0,0,0,0,0,0,0,0,0,0,0,0,0,0,0,0,0,0,0,0,0,0,0,0,0,0,0,0],"split_type":[0,0,0,0,0,0,0,0,0,0,0,0,0,0,0,0,0,0,0,0,0,0,0,0,0,0,0,0,0,0,0,0,0,0,0,0,0,0,0,0,0,0,0,0,0,0,0,0,0,0,0,0,0,0,0,0,0,0,0],"sum_hessian":[5.226E3,4.429E3,7.97E2,4.306E3,1.23E2,6.53E2,1.44E2,4.271E3,3.5E1,1.19E2,4E0,3.36E2,3.17E2,9.9E1,4.5E1,1.69E2,4.102E3,9E0,2.6E1,1.15E2,4E0,3E0,1E0,7E0,3.29E2,4.7E1,2.7E2,3.7E1,6.2E1,1.7E1,2.8E1,3E1,1.39E2,2.35E2,3.867E3,1E0,8E0,1.1E1,1.5E1,1.7E1,9.8E1,2E0,2E0,4E0,3E0,2.97E2,3.2E1,2.1E1,2.6E1,1.9E1,2.51E2,1.6E1,2.1E1,5.6E1,6E0,8E0,9E0,1E1,1.8E1],"tree_param":{"num_deleted":"0","num_feature":"20","num_nodes":"59","size_leaf_vector":"1"}},{"base_weights":[-6.693987E-6,2.4694752E-2,-1.1107837E-4,2.7380584E-2,5.763361E-4,-5.744821E-6,-4.2187337E-2,1.510952E-3,2.9645567E-3,5.056139E-4,-4.4784443E-3,-1.49960015E-2,-6.3351914E-3,2.8377367E-4,1.3207969E-2,3.0970156E-2,-4.737531E-3,1.8782598E-3,-2.2121358E-3,-2.1705024E-3,4.577651E-5,1.8613198E-3,5.7193964E-5,4.818165E-3,9.1724424E-4,-3.33257E-4,-9.45899E-4,4.2605508E-4,-1.443161E-4],"categories":[],"categories_nodes":[],"categories_segments":[],"categories_sizes":[],"default_left":[0,0,0,0,0,0,0,0,0,0,0,0,0,0,0,0,0,0,0,0,0,0,0,0,0,0,0,0,0],"id":5,"left_children":[1,3,5,7,-1,9,11,-1,-1,13,15,17,-1,19,21,23,25,27,-1,-1,-1,-1,-1,-1,-1,-1,-1,-1,-1],"loss_changes":[1.3480276E-2,9.608194E-4,2.307297E-2,8.015055E-5,0E0,1.1881743E-2,6.531382E-3,0E0,0E0,1.3133273E-2,5.0419345E-3,8.8319555E-4,0E0,1.7543862E-2,5.453405E-3,1.058741E-3,3.4842147E-3,2.9886432E-5,0E0,0E0,0E0,0E0,0E0,0E0,0E0,0E0,0E0,0E0,0E0],"parents":[2147483647,0,0,1,1,2,2,3,3,5,5,6,6,9,9,10,10,11,11,13,13,14,14,15,15,16,16,17,17],"right_children":[2,4,6,8,-1,10,12,-1,-1,14,16,18,-1,20,22,24,26,28,-1,-1,-1,-1,-1,-1,-1,-1,-1,-1,-1],"split_conditions":[3.89E-1,4.5724E1,6.82355E1,2.16518E1,5.763361E-4,5.7316E-1,4.57575E1,1.510952E-3,2.9645567E-3,1.189821E-2,5.713984E-1,9.2995E0,-6.3351914E-3,-9.6E-3,9.19935E1,5.7525E-1,5.94434E-1,3.9414E-1,-2.2121358E-3,-2.1705024E-3,4.577651E-5,1.8613198E-3,5.7193964E-5,4.818165E-3,9.1724424E-4,-3.33257E-4,-9.45899E-4,4.2605508E-4,-1.443161E-4],"split_indices":[0,5,13,9,0,3,11,0,0,14,15,11,0,7,11,1,16,0,0,0,0,0,0,0,0,0,0,0,0],"split_type":[0,0,0,0,0,0,0,0,0,0,0,0,0,0,0,0,0,0,0,0,0,0,0,0,0,0,0,0,0],"sum_hessian":[5.226E3,2.1E1,5.205E3,1.8E1,3E0,5.193E3,1.2E1,4E0,1.4E1,4.661E3,5.32E2,6E0,6E0,4.582E3,7.9E1,3E0,5.29E2,2E0,4E0,3.5E1,4.547E3,5.5E1,2.4E1,1E0,2E0,4.09E2,1.2E2,1E0,1E0],"tree_param":{"num_deleted":"0","num_feature":"20","num_nodes":"29","size_leaf_vector":"1"}},{"base_weights":[-5.82647E-6,2.2454906E-2,-1.0074201E-4,2.487808E-2,5.33111E-4,-4.352222E-6,-3.860442E-2,1.3900758E-3,2.6878647E-3,5.85136E-4,-3.2524415E-3,-1.3772173E-2,-5.792175E-3,2.527301E-4,1.2037698E-2,-2.1107541E-3,-6.9976132E-3,1.7843469E-3,-2.035165E-3,1.1117651E-5,1.6913643E-3,8.9485524E-4,8.376966E-3,-4.4850103E-4,7.854011E-5,-3.1830918E-4,-1.2858679E-3,4.0475233E-4,-1.371003E-4],"categories":[],"categories_nodes":[],"categories_segments":[],"categories_sizes":[],"default_left":[0,0,0,0,0,0,0,0,0,0,0,0,0,0,0,0,0,0,0,0,0,0,0,0,0,0,0,0,0],"id":6,"left_children":[1,3,5,7,-1,9,11,-1,-1,13,15,17,-1,19,21,23,25,27,-1,-1,-1,-1,-1,-1,-1,-1,-1,-1,-1],"loss_changes":[1.1145559E-2,7.8023877E-4,1.9321177E-2,4.362315E-5,0E0,9.946909E-3,5.438296E-3,0E0,0E0,1.6735893E-2,3.3973306E-3,7.527905E-4,0E0,1.0077971E-2,2.6727602E-2,4.2186417E-3,4.1175E-3,2.6972506E-5,0E0,0E0,0E0,0E0,0E0,0E0,0E0,0E0,0E0,0E0,0E0],"parents":[2147483647,0,0,1,1,2,2,3,3,5,5,6,6,9,9,10,10,11,11,13,13,14,14,15,15,16,16,17,17],"right_children":[2,4,6,8,-1,10,12,-1,-1,14,16,18,-1,20,22,24,26,28,-1,-1,-1,-1,-1,-1,-1,-1,-1,-1,-1],"split_conditions":[3.89E-1,4.5724E1,6.82355E1,2.16518E1,5.33111E-4,5.647709E-1,4.57575E1,1.3900758E-3,2.6878647E-3,5.626024E-1,5.854131E-1,9.2995E0,-5.792175E-3,1.252919E-2,5.7011E-1,5.724504E-1,4.05784E1,3.9414E-1,-2.035165E-3,1.1117651E-5,1.6913643E-3,8.9485524E-4,8.376966E-3,-4.4850103E-4,7.854011E-5,-3.1830918E-4,-1.2858679E-3,4.0475233E-4,-1.371003E-4],"split_indices":[0,5,13,9,0,18,11,0,0,19,18,11,0,14,0,19,11,0,0,0,0,0,0,0,0,0,0,0,0],"split_type":[0,0,0,0,0,0,0,0,0,0,0,0,0,0,0,0,0,0,0,0,0,0,0,0,0,0,0,0,0],"sum_hessian":[5.226E3,2.1E1,5.205E3,1.8E1,3E0,5.193E3,1.2E1,4E0,1.4E1,4.396E3,7.97E2,6E0,6E0,4.273E3,1.23E2,6.12E2,1.85E2,2E0,4E0,4.238E3,3.5E1,1.19E2,4E0,3.36E2,2.76E2,1.13E2,7.2E1,1E0,1E0],"tree_param":{"num_deleted":"0","num_feature":"20","num_nodes":"29","size_leaf_vector":"1"}},{"base_weights":[-4.0860205E-6,2.0419009E-2,-9.0391055E-5,2.26049E-2,4.931276E-4,-2.184144E-6,-3.532549E-2,1.1436921E-3,2.3984087E-3,3.6819643E-4,-4.3133725E-3,-1.26474565E-2,-5.2957027E-3,4.1155824E-3,2.3476025E-5,1.4605877E-6,-7.5129373E-3,1.6951294E-3,-1.8723517E-3,2.7756966E-4,1.7697873E-3,-7.852036E-4,2.5086205E-5,7.0104934E-4,-6.187382E-4,-2.1647073E-3,-4.3413872E-4,3.845147E-4,-1.3024527E-4],"categories":[],"categories_nodes":[],"categories_segments":[],"categories_sizes":[],"default_left":[0,0,0,0,0,0,0,0,0,0,0,0,0,0,0,0,0,0,0,0,0,0,0,0,0,0,0,0,0],"id":7,"left_children":[1,3,5,7,-1,9,11,-1,-1,13,15,17,-1,19,21,23,25,27,-1,-1,-1,-1,-1,-1,-1,-1,-1,-1,-1],"loss_changes":[9.215039E-3,6.333282E-4,1.6180063E-2,1.8347055E-5,0E0,8.295266E-3,4.52826E-3,0E0,0E0,6.1798766E-3,5.6741075E-3,6.417637E-4,0E0,7.2849593E-3,7.849174E-3,7.6778694E-3,1.048522E-2,2.4342684E-5,0E0,0E0,0E0,0E0,0E0,0E0,0E0,0E0,0E0,0E0,0E0],"parents":[2147483647,0,0,1,1,2,2,3,3,5,5,6,6,9,9,10,10,11,11,13,13,14,14,15,15,16,16,17,17],"right_children":[2,4,6,8,-1,10,12,-1,-1,14,16,18,-1,20,22,24,26,28,-1,-1,-1,-1,-1,-1,-1,-1,-1,-1,-1],"split_conditions":[3.89E-1,4.5724E1,6.82355E1,1.8294E1,4.931276E-4,5.6561077E-1,4.57575E1,1.1436921E-3,2.3984087E-3,-1.2E-3,4.39207E1,9.2995E0,-5.2957027E-3,1.252919E-2,-6.8E-3,2.10328E1,5.730927E-1,3.9414E-1,-1.8723517E-3,2.7756966E-4,1.7697873E-3,-7.852036E-4,2.5086205E-5,7.0104934E-4,-6.187382E-4,-2.1647073E-3,-4.3413872E-4,3.845147E-4,-1.3024527E-4],"split_indices":[0,5,13,9,0,17,11,0,0,8,10,11,0,14,6,13,19,0,0,0,0,0,0,0,0,0,0,0,0],"split_type":[0,0,0,0,0,0,0,0,0,0,0,0,0,0,0,0,0,0,0,0,0,0,0,0,0,0,0,0,0],"sum_hessian":[5.226E3,2.1E1,5.205E3,1.8E1,3E0,5.193E3,1.2E1,3E0,1.5E1,4.783E3,4.1E2,6E0,6E0,4.02E2,4.381E3,1.75E2,2.35E2,2E0,4E0,3.67E2,3.5E1,1.22E2,4.259E3,8.2E1,9.3E1,4.2E1,1.93E2,1E0,1E0],"tree_param":{"num_deleted":"0","num_feature":"20","num_nodes":"29","size_leaf_vector":"1"}},{"base_weights":[-4.463253E-6,1.8560527E-2,-8.291606E-5,2.0530837E-2,4.5614308E-4,-2.2023476E-6,-3.2324772E-2,1.1622801E-3,2.2131458E-3,4.983949E-4,-2.760503E-3,-1.1613866E-2,-4.8417854E-3,1.9898244E-4,1.0814447E-2,9.2340335E-3,-3.0649062E-3,1.6103728E-3,-1.7225636E-3,7.265553E-6,1.5068449E-3,7.9645944E-4,7.7048014E-3,1.167099E-3,-4.11033E-5,-1.7645916E-4,-6.5797375E-4,3.6528893E-4,-1.23733E-4],"categories":[],"categories_nodes":[],"categories_segments":[],"categories_sizes":[],"default_left":[0,0,0,0,0,0,0,0,0,0,0,0,0,0,0,0,0,0,0,0,0,0,0,0,0,0,0,0,0],"id":8,"left_children":[1,3,5,7,-1,9,11,-1,-1,13,15,17,-1,19,21,23,25,27,-1,-1,-1,-1,-1,-1,-1,-1,-1,-1,-1],"loss_changes":[7.614537E-3,5.131662E-4,1.3547814E-2,1.3680197E-5,0E0,7.1732393E-3,3.7706112E-3,0E0,0E0,1.3579101E-2,2.941941E-3,5.4721936E-4,0E0,8.027245E-3,2.2792077E-2,4.748893E-4,3.5487209E-3,2.196927E-5,0E0,0E0,0E0,0E0,0E0,0E0,0E0,0E0,0E0,0E0,0E0],"parents":[2147483647,0,0,1,1,2,2,3,3,5,5,6,6,9,9,10,10,11,11,13,13,14,14,15,15,16,16,17,17],"right_children":[2,4,6,8,-1,10,12,-1,-1,14,16,18,-1,20,22,24,26,28,-1,-1,-1,-1,-1,-1,-1,-1,-1,-1,-1],"split_conditions":[3.89E-1,4.5724E1,6.82355E1,2.16518E1,4.5614308E-4,5.647709E-1,4.57575E1,1.1622801E-3,2.2131458E-3,5.626024E-1,-7.6E-3,9.2995E0,-4.8417854E-3,1.252919E-2,5.7011E-1,5.7948E-1,5.8096504E-1,3.9414E-1,-1.7225636E-3,7.265553E-6,1.5068449E-3,7.9645944E-4,7.7048014E-3,1.167099E-3,-4.11033E-5,-1.7645916E-4,-6.5797375E-4,3.6528893E-4,-1.23733E-4],"split_indices":[0,5,13,9,0,18,11,0,0,19,7,11,0,14,0,3,19,0,0,0,0,0,0,0,0,0,0,0,0],"split_type":[0,0,0,0,0,0,0,0,0,0,0,0,0,0,0,0,0,0,0,0,0,0,0,0,0,0,0,0,0],"sum_hessian":[5.226E3,2.1E1,5.205E3,1.8E1,3E0,5.193E3,1.2E1,4E0,1.4E1,4.396E3,7.97E2,6E0,6E0,4.273E3,1.23E2,1.9E1,7.78E2,2E0,4E0,4.238E3,3.5E1,1.19E2,4E0,1.5E1,4E0,5.69E2,2.09E2,1E0,1E0],"tree_param":{"num_deleted":"0","num_feature":"20","num_nodes":"29","size_leaf_vector":"1"}},{"base_weights":[-2.5217876E-6,1.6886242E-2,-7.389142E-5,1.757063E-2,1.2570387E-4,-3.004718E-8,-2.9578663E-2,1.8655406E-2,4.8435084E-4,4.7021397E-4,-2.4380214E-3,-1.0664052E-2,-4.426775E-2,1.9094447E-3,5.376341E-4,2.4039921E-4,1.2012199E-2,-4.7705504E-3,-2.055155E-3,1.5298543E-3,-1.5847586E-3,-5.369675E-3,-2.377182E-3,8.755075E-6,1.4277295E-3,6.7845336E-4,3.413247E-3,1.0501532E-3,-2.684353E-4,3.470245E-4,-1.1754635E-4],"categories":[],"categories_nodes":[],"categories_segments":[],"categories_sizes":[],"default_left":[0,0,0,0,0,0,0,0,0,0,0,0,0,0,0,0,0,0,0,0,0,0,0,0,0,0,0,0,0,0,0],"id":9,"left_children":[1,3,5,7,-1,9,11,13,-1,15,17,19,21,-1,-1,23,25,-1,27,29,-1,-1,-1,-1,-1,-1,-1,-1,-1,-1,-1],"loss_changes":[6.3015847E-3,2.1323515E-4,1.134524E-2,1.9956985E-4,0E0,5.955812E-3,3.1398265E-3,8.112285E-6,0E0,1.154883E-2,1.4460324E-2,4.666972E-4,7.632375E-5,0E0,0E0,9.162258E-3,9.597602E-3,0E0,6.6173235E-3,1.9827265E-5,0E0,0E0,0E0,0E0,0E0,0E0,0E0,0E0,0E0,0E0,0E0],"parents":[2147483647,0,0,1,1,2,2,3,3,5,5,6,6,7,7,9,9,10,10,11,11,12,12,15,15,16,16,18,18,19,19],"right_children":[2,4,6,8,-1,10,12,14,-1,16,18,20,22,-1,-1,24,26,-1,28,30,-1,-1,-1,-1,-1,-1,-1,-1,-1,-1,-1],"split_conditions":[3.9263E-1,3.89E-1,6.82355E1,4.5724E1,1.2570387E-4,5.628755E-1,4.57575E1,-3.2E-3,4.8435084E-4,5.597895E-1,5.4433477E-1,9.2995E0,3.0865725E5,1.9094447E-3,5.376341E-4,8.7E-3,2.4E-3,-4.7705504E-3,5.5751E-1,3.9414E-1,-1.5847586E-3,-5.369675E-3,-2.377182E-3,8.755075E-6,1.4277295E-3,6.7845336E-4,3.413247E-3,1.0501532E-3,-2.684353E-4,3.470245E-4,-1.1754635E-4],"split_indices":[1,0,13,5,0,16,11,7,0,18,19,11,4,0,0,7,8,0,3,0,0,0,0,0,0,0,0,0,0,0,0],"split_type":[0,0,0,0,0,0,0,0,0,0,0,0,0,0,0,0,0,0,0,0,0,0,0,0,0,0,0,0,0,0,0],"sum_hessian":[5.226E3,2.1E1,5.205E3,2E1,1E0,5.193E3,1.2E1,1.8E1,2E0,4.354E3,8.39E2,6E0,6E0,1.7E1,1E0,4.27E3,8.4E1,6E0,8.33E2,2E0,4E0,3E0,3E0,4.225E3,4.5E1,6.9E1,1.5E1,3.9E1,7.94E2,1E0,1E0],"tree_param":{"num_deleted":"0","num_feature":"20","num_nodes":"31","size_leaf_vector":"1"}},{"base_weights":[-3.131553E-6,3.1599281E-3,-3.3911396E-4,2.2359607E-3,1.93321E-2,-1.7891584E-4,-1.2387261E-2,-1.0447046E-2,3.0519678E-3,2.1769622E-2,-1.2605847E-4,-7.146312E-3,8.4570864E-5,-5.4061607E-2,-7.783167E-3,1.0489234E-2,-1.7585373E-2,2.1472566E-2,2.3642506E-3,1.4071535E-2,3.1139791E-2,4.044479E-3,-6.318836E-4,-2.4476696E-2,6.9823646E-4,5.3771823E-3,-1.8899128E-4,-1.9045708E-3,-6.6808127E-3,-2.747166E-3,-1.9470982E-2,1.2366433E-3,-1.3255794E-4,-6.9717783E-4,-2.5849054E-3,6.641472E-4,2.76102E-3,3.4498566E-4,-3.4127122E-4,9.125395E-4,1.7258733E-3,3.3892398E-3,1.3419583E-3,8.2636856E-5,5.240351E-4,-4.240644E-3,2.7155073E-4,9.3092956E-4,-4.9325696E-4,1.6441398E-4,3.3311767E-3,-9.877106E-6,-1.5526087E-3,3.792175E-4,-9.1556896E-4,-2.498528E-3,-5.197224E-4],"categories":[],"categories_nodes":[],"categories_segments":[],"categories_sizes":[],"default_left":[0,0,0,0,0,0,0,0,0,0,0,0,0,0,0,0,0,0,0,0,0,0,0,0,0,0,0,0,0,0,0,0,0,0,0,0,0,0,0,0,0,0,0,0,0,0,0,0,0,0,0,0,0,0,0,0,0],"id":10,"left_children":[1,3,5,7,9,11,13,15,17,19,21,23,25,27,29,31,33,35,37,39,41,43,-1,45,47,49,51,-1,-1,53,55,-1,-1,-1,-1,-1,-1,-1,-1,-1,-1,-1,-1,-1,-1,-1,-1,-1,-1,-1,-1,-1,-1,-1,-1,-1,-1],"loss_changes":[5.5559734E-3,7.457942E-3,9.1193905E-3,4.95821E-3,1.2833457E-3,8.564687E-3,1.1475331E-2,4.518508E-3,5.6245695E-3,1.2929915E-3,1.2886524E-4,2.3128426E-2,6.510587E-3,1.4055762E-3,3.3015208E-3,1.9382278E-4,1.7493484E-3,1.2730728E-3,2.7273358E-3,7.897243E-5,3.2945536E-5,7.2148796E-6,0E0,2.5955267E-2,5.7674083E-3,2.2991328E-2,5.915237E-3,0E0,0E0,1.7529281E-3,1.2082122E-3,0E0,0E0,0E0,0E0,0E0,0E0,0E0,0E0,0E0,0E0,0E0,0E0,0E0,0E0,0E0,0E0,0E0,0E0,0E0,0E0,0E0,0E0,0E0,0E0,0E0,0E0],"parents":[2147483647,0,0,1,1,2,2,3,3,4,4,5,5,6,6,7,7,8,8,9,9,10,10,11,11,12,12,13,13,14,14,15,15,16,16,17,17,18,18,19,19,20,20,21,21,23,23,24,24,25,25,26,26,29,29,30,30],"right_children":[2,4,6,8,10,12,14,16,18,20,22,24,26,28,30,32,34,36,38,40,42,44,-1,46,48,50,52,-1,-1,54,56,-1,-1,-1,-1,-1,-1,-1,-1,-1,-1,-1,-1,-1,-1,-1,-1,-1,-1,-1,-1,-1,-1,-1,-1,-1,-1],"split_conditions":[-1.2E-3,5.84098E1,5.9575737E-1,4.3865752E-1,3.94799E1,-5.7E-3,6.0987103E-1,3.9441E-1,4.4865E-1,2.5888E1,4.5529E-1,7.83765E-3,4.4196153E-1,2.88182E5,2.43475E1,3.23973E1,1.41214E1,1.64315E1,5.722869E-1,4.5748445E-1,4.3236E-1,4.5194E-1,-6.318836E-4,5.243536E-1,5.441702E-1,4.5E-3,1.01E-2,-1.9045708E-3,-6.6808127E-3,-1E-3,6.245176E-1,1.2366433E-3,-1.3255794E-4,-6.9717783E-4,-2.5849054E-3,6.641472E-4,2.76102E-3,3.4498566E-4,-3.4127122E-4,9.125395E-4,1.7258733E-3,3.3892398E-3,1.3419583E-3,8.2636856E-5,5.240351E-4,-4.240644E-3,2.7155073E-4,9.3092956E-4,-4.9325696E-4,1.6441398E-4,3.3311767E-3,-9.877106E-6,-1.5526087E-3,3.792175E-4,-9.1556896E-4,-2.498528E-3,-5.197224E-4],"split_indices":[8,13,18,17,10,6,15,3,2,12,0,14,19,4,13,5,9,9,17,19,0,0,0,15,15,7,7,0,0,7,18,0,0,0,0,0,0,0,0,0,0,0,0,0,0,0,0,0,0,0,0,0,0,0,0,0,0],"split_type":[0,0,0,0,0,0,0,0,0,0,0,0,0,0,0,0,0,0,0,0,0,0,0,0,0,0,0,0,0,0,0,0,0,0,0,0,0,0,0,0,0,0,0,0,0,0,0,0,0,0,0,0,0,0,0,0,0],"sum_hessian":[5.226E3,5.01E2,4.725E3,4.75E2,2.6E1,4.664E3,6.1E1,2.8E1,4.47E2,2.3E1,3E0,1.69E2,4.495E3,5E0,5.6E1,7E0,2.1E1,1.5E1,4.32E2,1.4E1,9E0,2E0,1E0,5.2E1,1.17E2,2.2E2,4.275E3,2E0,3E0,4E1,1.6E1,6E0,1E0,1E1,1.1E1,5E0,1E1,3.64E2,6.8E1,7E0,7E0,7E0,2E0,1E0,1E0,3.1E1,2.1E1,4.6E1,7.1E1,1.95E2,2.5E1,4.251E3,2.4E1,2E1,2E1,1.1E1,5E0],"tree_param":{"num_deleted":"0","num_feature":"20","num_nodes":"57","size_leaf_vector":"1"}},{"base_weights":[-3.8023222E-6,1.0741823E-2,-9.082748E-5,1.2924004E-2,2.466446E-3,-2.80503E-5,-2.7155919E-2,1.1092074E-3,1.4515383E-2,4.7249874E-4,1.7325404E-4,2.8823013E-4,-2.7831383E-3,-4.648901E-3,-1.55461095E-2,4.2814426E-3,-2.4327639E-4,1.577767E-2,8.294244E-4,1.0269573E-4,-1.0227682E-3,1.7503939E-4,1.1849918E-2,-2.9563295E-2,-2.3705445E-3,-1.8877207E-3,-2.5915129E-3,1.1119799E-4,5.310184E-4,1.6284476E-3,2.3139645E-4,-2.0940123E-4,5.5985987E-5,2.3729951E-6,8.721834E-4,1.6132366E-3,-3.6078251E-3,7.66574E-6,-3.3808525E-3,-4.1519824E-4,8.543379E-5,-3.4038585E-5,-3.5468835E-4],"categories":[],"categories_nodes":[],"categories_segments":[],"categories_sizes":[],"default_left":[0,0,0,0,0,0,0,0,0,0,0,0,0,0,0,0,0,0,0,0,0,0,0,0,0,0,0,0,0,0,0,0,0,0,0,0,0,0,0,0,0,0,0],"id":11,"left_children":[1,3,5,7,9,11,13,15,17,-1,19,21,23,-1,25,27,-1,29,-1,-1,31,33,35,37,39,-1,41,-1,-1,-1,-1,-1,-1,-1,-1,-1,-1,-1,-1,-1,-1,-1,-1],"loss_changes":[4.888952E-3,7.2657503E-4,8.810617E-3,6.043599E-4,5.0974064E-5,4.5101955E-3,1.9707186E-3,6.659557E-5,9.686872E-5,0E0,7.176628E-6,6.0741086E-3,5.8192117E-3,0E0,3.394566E-4,3.8768594E-6,0E0,1.19258184E-4,0E0,0E0,6.258496E-6,5.947269E-3,9.818273E-3,1.0092189E-3,3.0253788E-3,0E0,5.244672E-6,0E0,0E0,0E0,0E0,0E0,0E0,0E0,0E0,0E0,0E0,0E0,0E0,0E0,0E0,0E0,0E0],"parents":[2147483647,0,0,1,1,2,2,3,3,4,4,5,5,6,6,7,7,8,8,10,10,11,11,12,12,14,14,15,15,17,17,20,20,21,21,22,22,23,23,24,24,26,26],"right_children":[2,4,6,8,10,12,14,16,18,-1,20,22,24,-1,26,28,-1,30,-1,-1,32,34,36,38,40,-1,42,-1,-1,-1,-1,-1,-1,-1,-1,-1,-1,-1,-1,-1,-1,-1,-1],"split_conditions":[3.9656E-1,7.99065E1,6.82355E1,3.76981E-3,9.78642E1,5.7595E-1,4.38794E-3,2.9655E1,3.9568326E-1,4.7249874E-4,5.05991E1,8.7E-3,5.418809E-1,-4.648901E-3,4.747165E-1,3.9263E-1,-2.4327639E-4,9.7066E1,8.294244E-4,1.0269573E-4,3.9441E-1,1.189821E-2,5.772607E-1,5.6442E-1,7.13485E1,-1.8877207E-3,4.9005E-1,1.1119799E-4,5.310184E-4,1.6284476E-3,2.3139645E-4,-2.0940123E-4,5.5985987E-5,2.3729951E-6,8.721834E-4,1.6132366E-3,-3.6078251E-3,7.66574E-6,-3.3808525E-3,-4.1519824E-4,8.543379E-5,-3.4038585E-5,-3.5468835E-4],"split_indices":[1,9,13,14,12,1,14,5,18,0,5,7,19,0,16,1,0,12,0,0,3,14,15,3,10,0,0,0,0,0,0,0,0,0,0,0,0,0,0,0,0,0,0],"split_type":[0,0,0,0,0,0,0,0,0,0,0,0,0,0,0,0,0,0,0,0,0,0,0,0,0,0,0,0,0,0,0,0,0,0,0,0,0,0,0,0,0,0,0],"sum_hessian":[5.226E3,4.1E1,5.185E3,3.2E1,9E0,5.174E3,1.1E1,4E0,2.8E1,4E0,5E0,4.642E3,5.32E2,3E0,8E0,2E0,2E0,2.2E1,6E0,3E0,2E0,4.598E3,4.4E1,7E0,5.25E2,6E0,2E0,1E0,1E0,2.1E1,1E0,1E0,1E0,4.519E3,7.9E1,4.1E1,3E0,1E0,6E0,3.38E2,1.87E2,1E0,1E0],"tree_param":{"num_deleted":"0","num_feature":"20","num_nodes":"43","size_leaf_vector":"1"}},{"base_weights":[-4.9982027E-6,2.798736E-3,-3.0281235E-4,1.9999938E-3,1.677661E-2,-1.5971254E-4,-1.1065034E-2,-9.803761E-3,2.7596117E-3,1.9048182E-2,-1.0469735E-3,-6.7800996E-3,7.540101E-5,-4.9740344E-2,-6.799826E-3,8.727834E-3,-1.6096897E-2,1.7282162E-2,2.040609E-3,2.033518E-2,3.2608E-3,3.1437105E-4,-6.809513E-4,-2.2939641E-2,-5.835777E-5,2.306714E-4,-6.910952E-3,-1.7499197E-3,-6.1486117E-3,-2.1659334E-3,-1.7575694E-2,1.0299714E-3,-1.13766226E-4,-6.340138E-4,-2.3699186E-3,1.9348303E-3,-1.5641178E-4,-2.0360255E-3,2.3535277E-4,1.3269469E-3,2.7487087E-3,3.489582E-5,4.5422418E-4,-3.605253E-4,-5.3889197E-3,7.917054E-4,-5.569916E-4,-1.9776087E-5,2.3972332E-4,8.5173454E-4,-1.3842809E-3,3.826442E-4,-8.055169E-4,-2.2564682E-3,-4.6684392E-4],"categories":[],"categories_nodes":[],"categories_segments":[],"categories_sizes":[],"default_left":[0,0,0,0,0,0,0,0,0,0,0,0,0,0,0,0,0,0,0,0,0,0,0,0,0,0,0,0,0,0,0,0,0,0,0,0,0,0,0,0,0,0,0,0,0,0,0,0,0,0,0,0,0,0,0],"id":12,"left_children":[1,3,5,7,9,11,13,15,17,19,21,23,25,27,29,31,33,35,37,39,41,-1,-1,43,45,47,49,-1,-1,51,53,-1,-1,-1,-1,-1,-1,-1,-1,-1,-1,-1,-1,-1,-1,-1,-1,-1,-1,-1,-1,-1,-1,-1,-1],"loss_changes":[4.3653487E-3,5.5711367E-3,7.2766123E-3,4.295035E-3,1.1131065E-3,7.2617824E-3,9.889186E-3,3.5225244E-3,4.64264E-3,4.213322E-4,1.1800306E-4,1.7377904E-2,4.8895846E-3,1.1962252E-3,2.8081823E-3,1.3577659E-4,1.4815652E-3,8.4798364E-4,3.0480477E-3,7.4699335E-4,9.609015E-6,0E0,0E0,2.7930077E-2,5.0551896E-3,4.0930184E-3,1.0598685E-2,0E0,0E0,1.4777337E-3,9.893584E-4,0E0,0E0,0E0,0E0,0E0,0E0,0E0,0E0,0E0,0E0,0E0,0E0,0E0,0E0,0E0,0E0,0E0,0E0,0E0,0E0,0E0,0E0,0E0,0E0],"parents":[2147483647,0,0,1,1,2,2,3,3,4,4,5,5,6,6,7,7,8,8,9,9,10,10,11,11,12,12,13,13,14,14,15,15,16,16,17,17,18,18,19,19,20,20,23,23,24,24,25,25,26,26,29,29,30,30],"right_children":[2,4,6,8,10,12,14,16,18,20,22,24,26,28,30,32,34,36,38,40,42,-1,-1,44,46,48,50,-1,-1,52,54,-1,-1,-1,-1,-1,-1,-1,-1,-1,-1,-1,-1,-1,-1,-1,-1,-1,-1,-1,-1,-1,-1,-1,-1],"split_conditions":[-1.2E-3,5.84098E1,5.9575737E-1,4.3865752E-1,4.7808E-1,-6E-3,6.0987103E-1,3.9441E-1,4.5052E-1,3.94799E1,4.7674E-1,7.83765E-3,9.54788E-3,2.88182E5,2.43475E1,3.23973E1,1.41214E1,-1.4E-3,4.5349E-1,2.5888E1,4.5194E-1,3.1437105E-4,-6.809513E-4,3.73292E1,5.441702E-1,5.96124E-3,-3.3E-3,-1.7499197E-3,-6.1486117E-3,-1E-3,6.245176E-1,1.0299714E-3,-1.13766226E-4,-6.340138E-4,-2.3699186E-3,1.9348303E-3,-1.5641178E-4,-2.0360255E-3,2.3535277E-4,1.3269469E-3,2.7487087E-3,3.489582E-5,4.5422418E-4,-3.605253E-4,-5.3889197E-3,7.917054E-4,-5.569916E-4,-1.9776087E-5,2.3972332E-4,8.5173454E-4,-1.3842809E-3,3.826442E-4,-8.055169E-4,-2.2564682E-3,-4.6684392E-4],"split_indices":[8,13,18,17,0,6,15,3,2,10,2,14,14,4,13,5,9,8,2,12,0,0,0,10,15,14,6,0,0,7,18,0,0,0,0,0,0,0,0,0,0,0,0,0,0,0,0,0,0,0,0,0,0,0,0],"split_type":[0,0,0,0,0,0,0,0,0,0,0,0,0,0,0,0,0,0,0,0,0,0,0,0,0,0,0,0,0,0,0,0,0,0,0,0,0,0,0,0,0,0,0,0,0,0,0,0,0,0,0,0,0,0,0],"sum_hessian":[5.226E3,5.01E2,4.725E3,4.75E2,2.6E1,4.664E3,6.1E1,2.8E1,4.47E2,2.3E1,3E0,1.59E2,4.505E3,5E0,5.6E1,7E0,2.1E1,2E1,4.27E2,2.1E1,2E0,2E0,1E0,4.6E1,1.13E2,4.408E3,9.7E1,2E0,3E0,4E1,1.6E1,6E0,1E0,1E1,1.1E1,1.8E1,2E0,5E0,4.22E2,1.2E1,9E0,1E0,1E0,2.9E1,1.7E1,4.6E1,6.7E1,3.681E3,7.27E2,3E1,6.7E1,2E1,2E1,1.1E1,5E0],"tree_param":{"num_deleted":"0","num_feature":"20","num_nodes":"55","size_leaf_vector":"1"}},{"base_weights":[-7.3266974E-6,4.4644936E-3,-1.9075714E-4,1.9536314E-3,3.2264456E-2,1.6054709E-3,-7.5267407E-4,1.3305788E-3,2.474046E-3,1.3000935E-3,3.5463718E-3,1.1394712E-3,2.6442293E-2,-1.1510056E-2,-5.227986E-4,3.4541156E-4,1.05062835E-2,-4.7658267E-4,3.6559303E-3,6.328508E-3,3.5406828E-2,2.6366713E-2,-1.438673E-2,-3.0002492E-3,-1.0549445E-5,6.804221E-5,-1.8418645E-3,1.3720922E-3,-5.9595943E-5,9.4310305E-4,-1.0914394E-4,3.399308E-3,3.3152688E-4,1.1700623E-3,-1.563815E-3,4.3016407E-3,3.726372E-4,8.678541E-5,3.1292916E-3,-1.1134859E-3,-2.7760256E-3,4.750751E-4,-5.435124E-4,2.7206353E-5,-6.80913E-4],"categories":[],"categories_nodes":[],"categories_segments":[],"categories_sizes":[],"default_left":[0,0,0,0,0,0,0,0,0,0,0,0,0,0,0,0,0,0,0,0,0,0,0,0,0,0,0,0,0,0,0,0,0,0,0,0,0,0,0,0,0,0,0,0,0],"id":13,"left_children":[1,3,5,7,9,11,13,15,-1,-1,-1,17,19,21,23,25,27,29,31,33,35,37,39,41,43,-1,-1,-1,-1,-1,-1,-1,-1,-1,-1,-1,-1,-1,-1,-1,-1,-1,-1,-1,-1],"loss_changes":[4.288392E-3,1.4316155E-2,5.0700684E-3,2.6645856E-3,5.8663264E-4,1.3823887E-2,9.455137E-3,1.6777372E-3,0E0,0E0,0E0,4.784221E-3,3.7427628E-3,9.096061E-3,4.755181E-3,1.0748928E-3,6.5059145E-4,4.3780874E-3,4.641266E-3,1.1270356E-3,3.4558307E-3,7.265173E-4,2.9525692E-3,1.2142105E-2,5.969619E-3,0E0,0E0,0E0,0E0,0E0,0E0,0E0,0E0,0E0,0E0,0E0,0E0,0E0,0E0,0E0,0E0,0E0,0E0,0E0,0E0],"parents":[2147483647,0,0,1,1,2,2,3,3,4,4,5,5,6,6,7,7,11,11,12,12,13,13,14,14,15,15,16,16,17,17,18,18,19,19,20,20,21,21,22,22,23,23,24,24],"right_children":[2,4,6,8,10,12,14,16,-1,-1,-1,18,20,22,24,26,28,30,32,34,36,38,40,42,44,-1,-1,-1,-1,-1,-1,-1,-1,-1,-1,-1,-1,-1,-1,-1,-1,-1,-1,-1,-1],"split_conditions":[1.15981E1,6.04026E-3,4.7023E-1,5.864365E-1,1.0125859E5,4.5E-3,4.572588E-1,5.10777E-3,2.474046E-3,1.3000935E-3,3.5463718E-3,4.6347934E-1,3.56388E1,4.4150776E-1,-2.4E-3,5.8178E-1,8.97197E1,3.9656E-1,4.142E-1,4.3236E-1,2.1E-3,4.686E-1,4.8001E-1,2.68391E1,4.07845E1,6.804221E-5,-1.8418645E-3,1.3720922E-3,-5.9595943E-5,9.4310305E-4,-1.0914394E-4,3.399308E-3,3.3152688E-4,1.1700623E-3,-1.563815E-3,4.3016407E-3,3.726372E-4,8.678541E-5,3.1292916E-3,-1.1134859E-3,-2.7760256E-3,4.750751E-4,-5.435124E-4,2.7206353E-5,-6.80913E-4],"split_indices":[13,14,3,15,4,7,17,14,0,0,0,19,11,19,7,2,12,1,3,0,8,0,2,9,13,0,0,0,0,0,0,0,0,0,0,0,0,0,0,0,0,0,0,0,0],"split_type":[0,0,0,0,0,0,0,0,0,0,0,0,0,0,0,0,0,0,0,0,0,0,0,0,0,0,0,0,0,0,0,0,0,0,0,0,0,0,0,0,0,0,0,0,0],"sum_hessian":[5.226E3,2.05E2,5.021E3,1.89E2,1.6E1,1.196E3,3.825E3,1.85E2,4E0,3E0,1.3E1,1.175E3,2.1E1,7.9E1,3.746E3,1.68E2,1.7E1,7.16E2,4.59E2,7E0,1.4E1,5E0,7.4E1,6.41E2,3.105E3,1.66E2,2E0,1.3E1,4E0,4.1E1,6.75E2,4E0,4.55E2,6E0,1E0,1.1E1,3E0,1E0,4E0,6.1E1,1.3E1,1.53E2,4.88E2,2.982E3,1.23E2],"tree_param":{"num_deleted":"0","num_feature":"20","num_nodes":"45","size_leaf_vector":"1"}},{"base_weights":[-3.8565668E-6,3.5590577E-4,-2.0010285E-3,9.6997144E-5,9.345934E-3,9.610671E-3,-2.2660857E-3,3.823922E-4,-3.947111E-3,6.047708E-3,5.641425E-2,-1.8263006E-3,1.11544365E-2,-2.4700565E-3,1.5504526E-2,4.5262964E-4,-1.9767947E-2,-6.63601E-2,-2.3613626E-3,3.9924025E-3,6.3112E-2,2.7202559E-3,8.80866E-3,9.1638816E-5,-3.655839E-4,-1.5354926E-3,1.3076961E-2,-2.2355977E-3,-2.0135693E-2,3.312554E-3,5.7377312E-3,3.3894106E-5,1.7215457E-3,-2.9565578E-3,-5.7466654E-4,-1.3986191E-3,-8.451243E-3,8.587047E-4,-4.4567345E-4,7.759581E-4,-2.9042715E-4,-1.6052791E-4,8.521951E-3,-2.2247942E-4,5.1102036E-4,-1.9860399E-4,-3.1719916E-5,1.4391801E-3,-2.0079725E-4,-1.3124116E-3,-1.8799162E-4,1.5800349E-4,-2.272411E-3,1.5363498E-3,1.5728541E-4],"categories":[],"categories_nodes":[],"categories_segments":[],"categories_sizes":[],"default_left":[0,0,0,0,0,0,0,0,0,0,0,0,0,0,0,0,0,0,0,0,0,0,0,0,0,0,0,0,0,0,0,0,0,0,0,0,0,0,0,0,0,0,0,0,0,0,0,0,0,0,0,0,0,0,0],"id":14,"left_children":[1,3,5,7,9,11,13,15,17,19,21,23,25,27,29,31,33,35,37,39,41,43,-1,-1,-1,45,47,49,51,-1,53,-1,-1,-1,-1,-1,-1,-1,-1,-1,-1,-1,-1,-1,-1,-1,-1,-1,-1,-1,-1,-1,-1,-1,-1],"loss_changes":[3.7563494E-3,1.0310343E-2,2.4778335E-3,4.9725124E-3,1.8908825E-2,3.381794E-4,2.8691771E-3,5.704148E-3,2.795115E-2,1.3470324E-2,1.33652985E-2,1.840373E-5,4.1042687E-4,3.1566438E-3,1.3588418E-3,7.638096E-3,1.7533512E-3,5.4729525E-3,6.4158654E-3,2.9843706E-3,5.859757E-3,5.8642807E-5,0E0,0E0,0E0,1.016725E-6,3.065779E-4,2.9341811E-3,5.979985E-4,0E0,2.564664E-4,0E0,0E0,0E0,0E0,0E0,0E0,0E0,0E0,0E0,0E0,0E0,0E0,0E0,0E0,0E0,0E0,0E0,0E0,0E0,0E0,0E0,0E0,0E0,0E0],"parents":[2147483647,0,0,1,1,2,2,3,3,4,4,5,5,6,6,7,7,8,8,9,9,10,10,11,11,12,12,13,13,14,14,15,15,16,16,17,17,18,18,19,19,20,20,21,21,25,25,26,26,27,27,28,28,30,30],"right_children":[2,4,6,8,10,12,14,16,18,20,22,24,26,28,30,32,34,36,38,40,42,44,-1,-1,-1,46,48,50,52,-1,54,-1,-1,-1,-1,-1,-1,-1,-1,-1,-1,-1,-1,-1,-1,-1,-1,-1,-1,-1,-1,-1,-1,-1,-1],"split_conditions":[5.647709E-1,5.626024E-1,-8.5E-3,1.5E-3,5.6787E-1,-1.17E-2,2.358304E6,5.7274E-1,3.94738E1,1.6E-3,2.4360308E5,5.7376E-1,2.69517E1,3.3E-3,1.05423E-2,9.3E-3,3E-4,-9.9E-3,-3.1E-3,1E-3,5.6513E-1,5.6966E-1,8.80866E-3,9.1638816E-5,-3.655839E-4,5.6178E-1,5.7799E-1,3.27052E1,5.89182E1,3.312554E-3,4.88E-1,3.3894106E-5,1.7215457E-3,-2.9565578E-3,-5.7466654E-4,-1.3986191E-3,-8.451243E-3,8.587047E-4,-4.4567345E-4,7.759581E-4,-2.9042715E-4,-1.6052791E-4,8.521951E-3,-2.2247942E-4,5.1102036E-4,-1.9860399E-4,-3.1719916E-5,1.4391801E-3,-2.0079725E-4,-1.3124116E-3,-1.8799162E-4,1.5800349E-4,-2.272411E-3,1.5363498E-3,1.5728541E-4],"split_indices":[18,19,7,8,2,7,4,1,5,6,4,0,10,8,14,6,8,6,6,8,0,0,0,0,0,0,2,5,11,0,11,0,0,0,0,0,0,0,0,0,0,0,0,0,0,0,0,0,0,0,0,0,0,0,0],"split_type":[0,0,0,0,0,0,0,0,0,0,0,0,0,0,0,0,0,0,0,0,0,0,0,0,0,0,0,0,0,0,0,0,0,0,0,0,0,0,0,0,0,0,0,0,0,0,0,0,0,0,0,0,0,0,0],"sum_hessian":[5.226E3,4.429E3,7.97E2,4.306E3,1.23E2,1.7E1,7.8E2,4.023E3,2.83E2,1.16E2,7E0,2E0,1.5E1,7.72E2,8E0,4.01E3,1.3E1,6E0,2.77E2,1.13E2,3E0,3E0,4E0,1E0,1E0,2E0,1.3E1,7.63E2,9E0,2E0,6E0,3.984E3,2.6E1,7E0,6E0,2E0,4E0,4.4E1,2.33E2,7.3E1,4E1,1E0,2E0,1E0,2E0,1E0,1E0,1.2E1,1E0,2.3E1,7.4E2,1E0,8E0,1E0,5E0],"tree_param":{"num_deleted":"0","num_feature":"20","num_nodes":"55","size_leaf_vector":"1"}},{"base_weights":[-1.7764041E-6,4.0490218E-3,-1.6793782E-4,1.7666769E-3,2.9319406E-2,1.4099875E-3,-6.6156266E-4,1.1887662E-3,2.2911618E-3,3.466262E-3,1.6734438E-3,1.0972947E-3,3.219695E-2,-1.0348633E-2,-4.5456315E-4,2.9425242E-4,9.521214E-3,4.1508697E-6,4.1068867E-3,4.1248756E-3,3.7811492E-3,2.3915043E-2,-1.2951745E-2,-2.671134E-3,3.7411E-6,6.0434064E-5,-1.7065408E-3,1.1984755E-3,-2.0973632E-4,-2.097423E-3,2.968676E-5,7.261184E-4,-2.0352894E-4,-7.083698E-5,5.513779E-4,1.0472982E-4,2.8279133E-3,-7.3233043E-4,-1.9523591E-3,4.455755E-4,-5.046151E-4,2.5351952E-5,-6.0050713E-4],"categories":[],"categories_nodes":[],"categories_segments":[],"categories_sizes":[],"default_left":[0,0,0,0,0,0,0,0,0,0,0,0,0,0,0,0,0,0,0,0,0,0,0,0,0,0,0,0,0,0,0,0,0,0,0,0,0,0,0,0,0,0,0],"id":15,"left_children":[1,3,5,7,9,11,13,15,-1,-1,-1,17,19,21,23,25,27,29,31,-1,33,35,37,39,41,-1,-1,-1,-1,-1,-1,-1,-1,-1,-1,-1,-1,-1,-1,-1,-1,-1,-1],"loss_changes":[3.5189025E-3,1.1829402E-2,3.912584E-3,2.2945418E-3,5.6309067E-4,1.148802E-2,7.667263E-3,1.3835476E-3,0E0,0E0,0E0,3.9018244E-3,2.930604E-3,7.4451156E-3,3.806451E-3,9.200447E-4,5.403472E-4,5.354796E-3,6.1370404E-3,0E0,3.502048E-5,5.691645E-4,2.6312172E-3,1.0889284E-2,4.66323E-3,0E0,0E0,0E0,0E0,0E0,0E0,0E0,0E0,0E0,0E0,0E0,0E0,0E0,0E0,0E0,0E0,0E0,0E0],"parents":[2147483647,0,0,1,1,2,2,3,3,4,4,5,5,6,6,7,7,11,11,12,12,13,13,14,14,15,15,16,16,17,17,18,18,20,20,21,21,22,22,23,23,24,24],"right_children":[2,4,6,8,10,12,14,16,-1,-1,-1,18,20,22,24,26,28,30,32,-1,34,36,38,40,42,-1,-1,-1,-1,-1,-1,-1,-1,-1,-1,-1,-1,-1,-1,-1,-1,-1,-1],"split_conditions":[1.15981E1,6.04026E-3,4.7023E-1,5.864365E-1,7.14677E-3,4.6E-3,4.572588E-1,5.10777E-3,2.2911618E-3,3.466262E-3,1.6734438E-3,4.2965E-3,4.8526903E5,4.4150776E-1,-2.4E-3,5.8178E-1,8.83674E1,-4.6E-3,4.66567E-1,4.1248756E-3,5.792287E5,4.686E-1,4.822375E-1,3.53484E1,4.07845E1,6.0434064E-5,-1.7065408E-3,1.1984755E-3,-2.0973632E-4,-2.097423E-3,2.968676E-5,7.261184E-4,-2.0352894E-4,-7.083698E-5,5.513779E-4,1.0472982E-4,2.8279133E-3,-7.3233043E-4,-1.9523591E-3,4.455755E-4,-5.046151E-4,2.5351952E-5,-6.0050713E-4],"split_indices":[13,14,3,15,14,7,17,14,0,0,0,14,4,19,7,2,9,7,16,0,4,0,15,5,13,0,0,0,0,0,0,0,0,0,0,0,0,0,0,0,0,0,0],"split_type":[0,0,0,0,0,0,0,0,0,0,0,0,0,0,0,0,0,0,0,0,0,0,0,0,0,0,0,0,0,0,0,0,0,0,0,0,0,0,0,0,0,0,0],"sum_hessian":[5.226E3,2.05E2,5.021E3,1.89E2,1.6E1,1.196E3,3.825E3,1.85E2,4E0,1E1,6E0,1.185E3,1.1E1,7.9E1,3.746E3,1.68E2,1.7E1,8.7E2,3.15E2,8E0,3E0,5E0,7.4E1,6.41E2,3.105E3,1.66E2,2E0,1.4E1,3E0,1.1E1,8.59E2,2.08E2,1.07E2,1E0,2E0,1E0,4E0,4.1E1,3.3E1,1.6E2,4.81E2,2.982E3,1.23E2],"tree_param":{"num_deleted":"0","num_feature":"20","num_nodes":"43","size_leaf_vector":"1"}},{"base_weights":[2.0863996E-7,1.8080085E-4,-3.3420958E-3,1.3090903E-4,1.4679882E-2,-1.2709234E-3,-8.108001E-3,-4.158085E-3,3.391467E-4,3.172757E-3,8.76055E-3,8.166888E-3,-3.1864585E-3,-4.0035523E-3,-7.208463E-3,-1.4436638E-2,-5.0590176E-4,-1.8826863E-4,2.4439842E-3,1.2553229E-2,1.611441E-3,1.7803408E-2,2.9774052E-3,-6.4365887E-3,2.4721532E-3,9.586063E-4,-8.2185175E-3,-7.0613714E-5,-4.643524E-3,1.4734742E-3,-3.360009E-4,-2.1952104E-5,2.9306372E-3,1.8699333E-3,1.53415E-4,-6.816024E-6,1.4139422E-3,-2.1523562E-4,6.092691E-4,1.8554337E-4,1.9212662E-3,-1.5795474E-4,1.2967953E-3,-4.3507E-4,-2.477452E-3,-6.012089E-4,5.84739E-4,-3.83949E-4,-1.1672028E-3],"categories":[],"categories_nodes":[],"categories_segments":[],"categories_sizes":[],"default_left":[0,0,0,0,0,0,0,0,0,0,0,0,0,0,0,0,0,0,0,0,0,0,0,0,0,0,0,0,0,0,0,0,0,0,0,0,0,0,0,0,0,0,0,0,0,0,0,0,0],"id":16,"left_children":[1,3,5,7,9,11,13,15,17,-1,19,21,23,-1,25,27,29,31,33,35,37,39,41,43,45,-1,47,-1,-1,-1,-1,-1,-1,-1,-1,-1,-1,-1,-1,-1,-1,-1,-1,-1,-1,-1,-1,-1,-1],"loss_changes":[3.155591E-3,3.5860708E-3,2.6351262E-3,4.417046E-3,1.4375348E-3,3.4247737E-3,2.0377273E-3,8.589164E-3,5.2358024E-3,0E0,3.5937107E-4,1.5472656E-3,2.9033343E-3,0E0,1.4358545E-3,2.6328623E-2,7.444242E-3,3.4833811E-3,1.3947551E-2,1.811434E-4,1.1431272E-4,2.1157437E-4,1.0220655E-3,3.7173019E-3,1.6960617E-3,0E0,1.1045346E-3,0E0,0E0,0E0,0E0,0E0,0E0,0E0,0E0,0E0,0E0,0E0,0E0,0E0,0E0,0E0,0E0,0E0,0E0,0E0,0E0,0E0,0E0],"parents":[2147483647,0,0,1,1,2,2,3,3,4,4,5,5,6,6,7,7,8,8,10,10,11,11,12,12,14,14,15,15,16,16,17,17,18,18,19,19,20,20,21,21,22,22,23,23,24,24,26,26],"right_children":[2,4,6,8,10,12,14,16,18,-1,20,22,24,-1,26,28,30,32,34,36,38,40,42,44,46,-1,48,-1,-1,-1,-1,-1,-1,-1,-1,-1,-1,-1,-1,-1,-1,-1,-1,-1,-1,-1,-1,-1,-1],"split_conditions":[5.815395E-1,1.488232E-2,5.04581E1,-6E-3,3.13992E1,1.73412E1,5.08773E1,7.83765E-3,5.96124E-3,3.172757E-3,3.65869E1,4.33602E1,6.238369E-1,-4.0035523E-3,5.7948E-1,3.73292E1,4.59657E-1,1.01E-2,1.3213E1,3.37363E1,4.5443E-1,5.7971E-1,9.73855E-3,5.9039235E-1,-2.7E-3,9.586063E-4,7.29226E-3,-7.0613714E-5,-4.643524E-3,1.4734742E-3,-3.360009E-4,-2.1952104E-5,2.9306372E-3,1.8699333E-3,1.53415E-4,-6.816024E-6,1.4139422E-3,-2.1523562E-4,6.092691E-4,1.8554337E-4,1.9212662E-3,-1.5795474E-4,1.2967953E-3,-4.3507E-4,-2.477452E-3,-6.012089E-4,5.84739E-4,-3.83949E-4,-1.1672028E-3],"split_indices":[16,14,11,6,5,13,11,14,14,0,5,10,15,0,3,10,16,7,13,5,0,1,14,19,7,0,14,0,0,0,0,0,0,0,0,0,0,0,0,0,0,0,0,0,0,0,0,0,0],"split_type":[0,0,0,0,0,0,0,0,0,0,0,0,0,0,0,0,0,0,0,0,0,0,0,0,0,0,0,0,0,0,0,0,0,0,0,0,0,0,0,0,0,0,0,0,0,0,0,0,0],"sum_hessian":[5.226E3,4.959E3,2.67E2,4.943E3,1.6E1,1.87E2,8E1,2.28E2,4.715E3,3E0,1.3E1,3.1E1,1.56E2,1E0,7.9E1,5.9E1,1.69E2,3.771E3,9.44E2,8E0,5E0,1E1,2.1E1,9.9E1,5.7E1,4E0,7.5E1,4.2E1,1.7E1,2.6E1,1.43E2,3.768E3,3E0,4.9E1,8.95E2,1E0,7E0,3E0,2E0,1E0,9E0,1.5E1,6E0,9E1,9E0,1.6E1,4.1E1,3.4E1,4.1E1],"tree_param":{"num_deleted":"0","num_feature":"20","num_nodes":"49","size_leaf_vector":"1"}},{"base_weights":[5.7990957E-7,2.3184933E-3,-2.456311E-4,-6.583348E-3,3.2741579E-3,-1.225219E-4,-8.552833E-3,-2.9680615E-3,-4.4317734E-3,1.7395804E-2,2.269632E-3,-6.616031E-5,-1.75639E-2,-2.530573E-2,-4.581948E-3,-2.3202947E-3,-1.5864255E-2,1.17543675E-2,2.487843E-3,-1.795435E-2,2.6512642E-3,3.0235425E-3,-3.3591522E-4,-4.1852714E-3,-8.003971E-3,-5.4861032E-3,-1.0953036E-2,-6.4114085E-4,-1.381672E-2,-3.2492742E-4,4.8324149E-4,-1.8143529E-3,-1.0943054E-4,5.3120684E-4,1.4319116E-3,1.3558959E-3,-2.4393245E-3,2.0154445E-4,1.2159952E-3,1.6178311E-4,1.9041582E-3,-1.2819887E-3,-2.2679274E-5,4.976127E-4,-1.2883573E-3,-2.94052E-4,-1.25886E-3,7.950168E-4,-4.056293E-4,-1.9996853E-3,-4.3644654E-4],"categories":[],"categories_nodes":[],"categories_segments":[],"categories_sizes":[],"default_left":[0,0,0,0,0,0,0,0,0,0,0,0,0,0,0,0,0,0,0,0,0,0,0,0,0,0,0,0,0,0,0,0,0,0,0,0,0,0,0,0,0,0,0,0,0,0,0,0,0,0,0],"id":17,"left_children":[1,3,5,7,9,11,13,-1,15,17,19,21,23,25,27,29,31,33,-1,35,37,39,41,-1,43,-1,45,47,49,-1,-1,-1,-1,-1,-1,-1,-1,-1,-1,-1,-1,-1,-1,-1,-1,-1,-1,-1,-1,-1,-1],"loss_changes":[2.9835962E-3,4.2921565E-3,4.832199E-3,2.3035414E-3,6.4007617E-3,4.577762E-3,4.4741957E-3,0E0,1.0736047E-3,9.7395293E-4,3.3278032E-3,3.8716155E-3,3.1480016E-3,4.9136803E-3,2.0655112E-3,2.8149062E-4,2.157985E-4,2.3787073E-4,0E0,1.9540344E-3,2.502641E-3,8.367938E-3,5.8167614E-3,0E0,8.241628E-4,0E0,9.403285E-5,1.235214E-3,9.057999E-4,0E0,0E0,0E0,0E0,0E0,0E0,0E0,0E0,0E0,0E0,0E0,0E0,0E0,0E0,0E0,0E0,0E0,0E0,0E0,0E0,0E0,0E0],"parents":[2147483647,0,0,1,1,2,2,3,3,4,4,5,5,6,6,8,8,9,9,10,10,11,11,12,12,13,13,14,14,15,15,16,16,17,17,19,19,20,20,21,21,22,22,24,24,26,26,27,27,28,28],"right_children":[2,4,6,8,10,12,14,-1,16,18,20,22,24,26,28,30,32,34,-1,36,38,40,42,-1,44,-1,46,48,50,-1,-1,-1,-1,-1,-1,-1,-1,-1,-1,-1,-1,-1,-1,-1,-1,-1,-1,-1,-1,-1,-1],"split_conditions":[-1.2E-3,3.94551E-3,5.94434E-1,2.22605E1,4.658105E-1,6.82355E1,6.0987103E-1,-2.9680615E-3,4.21507E1,4.6232143E-1,4.4074E-1,4.3963307E-1,4.38794E-3,1.3E-3,2.42235E1,1.50607E1,4.0866E-1,2.34475E1,2.487843E-3,4.1168E-1,5.136E1,4.5E-3,-9.6E-3,-4.1852714E-3,3.89E-1,-5.4861032E-3,5.9362E-1,4.76142E1,6.245176E-1,-3.2492742E-4,4.8324149E-4,-1.8143529E-3,-1.0943054E-4,5.3120684E-4,1.4319116E-3,1.3558959E-3,-2.4393245E-3,2.0154445E-4,1.2159952E-3,1.6178311E-4,1.9041582E-3,-1.2819887E-3,-2.2679274E-5,4.976127E-4,-1.2883573E-3,-2.94052E-4,-1.25886E-3,7.950168E-4,-4.056293E-4,-1.9996853E-3,-4.3644654E-4],"split_indices":[8,14,16,13,16,13,15,0,5,19,1,17,14,7,13,12,0,5,0,0,13,7,7,0,0,0,3,5,18,0,0,0,0,0,0,0,0,0,0,0,0,0,0,0,0,0,0,0,0,0,0],"split_type":[0,0,0,0,0,0,0,0,0,0,0,0,0,0,0,0,0,0,0,0,0,0,0,0,0,0,0,0,0,0,0,0,0,0,0,0,0,0,0,0,0,0,0,0,0,0,0,0,0,0,0],"sum_hessian":[5.226E3,5.01E2,4.725E3,4.8E1,4.53E2,4.657E3,6.8E1,3E0,4.5E1,2.9E1,4.24E2,4.643E3,1.4E1,1.2E1,5.6E1,3.9E1,6E0,1.8E1,1.1E1,7E0,4.17E2,3.72E2,4.271E3,3E0,1.1E1,3E0,9E0,4E1,1.6E1,3.5E1,4E0,5E0,1E0,6E0,1.2E1,1E0,6E0,3.92E2,2.5E1,3.43E2,2.9E1,3.6E1,4.235E3,3E0,8E0,2E0,7E0,1.1E1,2.9E1,9E0,7E0],"tree_param":{"num_deleted":"0","num_feature":"20","num_nodes":"51","size_leaf_vector":"1"}},{"base_weights":[-2.0128016E-6,3.4939325E-3,-1.4541438E-4,1.5556818E-3,2.4951208E-2,1.1411E-3,-6.322305E-4,1.0633358E-3,1.9559818E-3,2.983215E-3,1.3716698E-3,-9.5252035E-4,2.5439141E-3,-3.263988E-3,-9.3667964E-5,2.8085784E-4,8.35086E-3,-8.680064E-3,-3.3426777E-4,5.734042E-3,1.0929531E-3,-9.60526E-3,-1.9943267E-3,4.760786E-3,-3.6991877E-4,1.4085653E-4,-3.9245212E-4,1.1105364E-3,-1.03192324E-4,-2.0067808E-3,-6.154514E-4,3.9718332E-4,-1.270029E-4,4.547492E-4,5.481121E-3,-1.3110789E-3,1.4748689E-4,3.497105E-4,-1.2055086E-3,-4.0820238E-4,5.767261E-4,1.325195E-4,2.2812737E-3,1.8456494E-4,-1.1610928E-4],"categories":[],"categories_nodes":[],"categories_segments":[],"categories_sizes":[],"default_left":[0,0,0,0,0,0,0,0,0,0,0,0,0,0,0,0,0,0,0,0,0,0,0,0,0,0,0,0,0,0,0,0,0,0,0,0,0,0,0,0,0,0,0,0,0],"id":18,"left_children":[1,3,5,7,9,11,13,15,-1,-1,-1,17,19,21,23,25,27,29,31,33,35,37,39,41,43,-1,-1,-1,-1,-1,-1,-1,-1,-1,-1,-1,-1,-1,-1,-1,-1,-1,-1,-1,-1],"loss_changes":[2.620929E-3,8.528637E-3,3.1459795E-3,1.6634115E-3,5.229963E-4,4.0524914E-3,5.1645758E-3,1.0582876E-3,0E0,0E0,0E0,2.6438748E-3,3.817081E-3,4.9645784E-3,4.0597683E-3,8.069998E-4,4.7666836E-4,1.0556651E-3,2.076198E-3,1.47747295E-2,3.1059517E-3,3.3483058E-3,8.400928E-3,1.0078885E-2,5.0224485E-3,0E0,0E0,0E0,0E0,0E0,0E0,0E0,0E0,0E0,0E0,0E0,0E0,0E0,0E0,0E0,0E0,0E0,0E0,0E0,0E0],"parents":[2147483647,0,0,1,1,2,2,3,3,4,4,5,5,6,6,7,7,11,11,12,12,13,13,14,14,15,15,16,16,17,17,18,18,19,19,20,20,21,21,22,22,23,23,24,24],"right_children":[2,4,6,8,10,12,14,16,-1,-1,-1,18,20,22,24,26,28,30,32,34,36,38,40,42,44,-1,-1,-1,-1,-1,-1,-1,-1,-1,-1,-1,-1,-1,-1,-1,-1,-1,-1,-1,-1],"split_conditions":[1.15981E1,6.04026E-3,3.48981E1,5.864365E-1,7.14677E-3,3.29454E-3,-2.2E-3,5.10777E-3,1.9559818E-3,2.983215E-3,1.3716698E-3,-1.1E-3,4.9385503E-1,3.32699E1,4.4196153E-1,5.2527875E-1,8.97197E1,2.39485E1,-1.1E-3,4.9615273E-1,4.7981E-1,3.9257E-3,8.74614E-3,4.5E-3,-5E-4,1.4085653E-4,-3.9245212E-4,1.1105364E-3,-1.03192324E-4,-2.0067808E-3,-6.154514E-4,3.9718332E-4,-1.270029E-4,4.547492E-4,5.481121E-3,-1.3110789E-3,1.4748689E-4,3.497105E-4,-1.2055086E-3,-4.0820238E-4,5.767261E-4,1.325195E-4,2.2812737E-3,1.8456494E-4,-1.1610928E-4],"split_indices":[13,14,9,15,14,14,7,14,0,0,0,8,19,13,19,15,12,13,7,18,2,14,14,7,7,0,0,0,0,0,0,0,0,0,0,0,0,0,0,0,0,0,0,0,0],"split_type":[0,0,0,0,0,0,0,0,0,0,0,0,0,0,0,0,0,0,0,0,0,0,0,0,0,0,0,0,0,0,0,0,0,0,0,0,0,0,0,0,0,0,0,0,0],"sum_hessian":[5.226E3,2.05E2,5.021E3,1.89E2,1.6E1,1.378E3,3.643E3,1.85E2,4E0,1E1,6E0,5.53E2,8.25E2,6.18E2,3.025E3,1.68E2,1.7E1,4E1,5.13E2,2.57E2,5.68E2,1.02E2,5.16E2,1.62E2,2.863E3,1.33E2,3.5E1,1.3E1,4E0,6E0,3.4E1,9.1E1,4.22E2,2.52E2,5E0,1.4E1,5.54E2,1.6E1,8.6E1,4.07E2,1.09E2,1.37E2,2.5E1,7.53E2,2.11E3],"tree_param":{"num_deleted":"0","num_feature":"20","num_nodes":"45","size_leaf_vector":"1"}},{"base_weights":[3.4688318E-7,3.066011E-4,-1.5994672E-3,-7.1586845E-5,5.5924417E-3,-3.7927695E-3,-1.2926363E-3,3.5160378E-4,-2.9196045E-3,4.240128E-3,4.7794323E-2,2.3609588E-2,-1.5016012E-3,2.2456981E-4,9.660102E-3,1.095666E-4,-6.6649914E-3,1.8881582E-2,1.911153E-3,8.08857E-3,5.144082E-3,5.7291933E-3,2.9615907E-3,-1.8767711E-3,7.052298E-3,1.3265136E-5,1.2111182E-3,1.5687713E-3,-9.730041E-4,2.0784263E-4,-2.9730797E-4,-2.4110142E-3,-5.95027E-4,2.528873E-3,2.735034E-5,5.9560745E-4,-3.4369316E-4,7.166148E-5,7.8568555E-4,1.0474669E-4,7.5463235E-4,-8.067867E-4,-1.4050821E-4,1.1267117E-3,-6.375749E-4],"categories":[],"categories_nodes":[],"categories_segments":[],"categories_sizes":[],"default_left":[0,0,0,0,0,0,0,0,0,0,0,0,0,0,0,0,0,0,0,0,0,0,0,0,0,0,0,0,0,0,0,0,0,0,0,0,0,0,0,0,0,0,0,0,0],"id":19,"left_children":[1,3,5,7,9,-1,11,13,15,17,19,21,23,25,27,29,31,33,35,-1,37,39,-1,41,43,-1,-1,-1,-1,-1,-1,-1,-1,-1,-1,-1,-1,-1,-1,-1,-1,-1,-1,-1,-1],"loss_changes":[2.5614582E-3,8.772194E-3,9.31414E-3,4.9377484E-3,1.651891E-2,0E0,4.37533E-3,4.2157923E-3,6.013802E-3,9.682296E-3,1.2286114E-2,5.820922E-4,2.6704245E-3,3.844342E-3,5.7627023E-3,1.790553E-3,2.8115567E-3,4.642848E-3,5.363718E-3,0E0,5.442323E-5,1.7617385E-5,0E0,2.3073596E-3,2.052724E-3,0E0,0E0,0E0,0E0,0E0,0E0,0E0,0E0,0E0,0E0,0E0,0E0,0E0,0E0,0E0,0E0,0E0,0E0,0E0,0E0],"parents":[2147483647,0,0,1,1,2,2,3,3,4,4,6,6,7,7,8,8,9,9,10,10,11,11,12,12,13,13,14,14,15,15,16,16,17,17,18,18,20,20,21,21,23,23,24,24],"right_children":[2,4,6,8,10,-1,12,14,16,18,20,22,24,26,28,30,32,34,36,-1,38,40,-1,42,44,-1,-1,-1,-1,-1,-1,-1,-1,-1,-1,-1,-1,-1,-1,-1,-1,-1,-1,-1,-1],"split_conditions":[5.628755E-1,5.399798E-1,5.4433477E-1,9.2278E1,2.4E-3,-3.7927695E-3,5.6178343E-1,8.7E-3,3.9257E-3,1.40625E1,5.7526E-1,5.583648E-1,4.18619E1,1.252919E-2,6.21149E1,4.783566E-1,3.94738E1,5.506202E-1,4E-4,8.08857E-3,5.7838E-1,5.1797E-1,2.9615907E-3,5.756481E-1,-3.9E-3,1.3265136E-5,1.2111182E-3,1.5687713E-3,-9.730041E-4,2.0784263E-4,-2.9730797E-4,-2.4110142E-3,-5.95027E-4,2.528873E-3,2.735034E-5,5.9560745E-4,-3.4369316E-4,7.166148E-5,7.8568555E-4,1.0474669E-4,7.5463235E-4,-8.067867E-4,-1.4050821E-4,1.1267117E-3,-6.375749E-4],"split_indices":[16,17,19,11,8,0,18,7,14,13,0,18,13,14,13,18,5,17,7,0,0,0,0,15,6,0,0,0,0,0,0,0,0,0,0,0,0,0,0,0,0,0,0,0,0],"split_type":[0,0,0,0,0,0,0,0,0,0,0,0,0,0,0,0,0,0,0,0,0,0,0,0,0,0,0,0,0,0,0,0,0,0,0,0,0,0,0,0,0,0,0,0,0],"sum_hessian":[5.226E3,4.387E3,8.39E2,4.095E3,2.92E2,6E0,8.33E2,3.566E3,5.29E2,2.84E2,8E0,6E0,8.27E2,3.519E3,4.7E1,2.93E2,2.36E2,3.8E1,2.46E2,4E0,4E0,2E0,4E0,7.93E2,3.4E1,3.493E3,2.6E1,3.6E1,1.1E1,1.79E2,1.14E2,8E0,2.28E2,2.8E1,1E1,1.4E2,1.06E2,2E0,2E0,1E0,1E0,5.5E1,7.38E2,2.6E1,8E0],"tree_param":{"num_deleted":"0","num_feature":"20","num_nodes":"45","size_leaf_vector":"1"}},{"base_weights":[2.2346337E-6,1.0383835E-2,-4.163733E-5,1.3669856E-2,5.8550998E-3,7.4077757E-6,-1.963384E-2,2.1680156E-4,1.4518385E-3,7.046168E-3,3.3019453E-5,1.0865419E-3,-3.8758622E-4,-5.481289E-3,-3.0981557E-2,8.2413416E-4,1.908707E-4,-8.506158E-4,2.4469076E-3,-3.048568E-3,1.1974573E-4,1.1915765E-4,-8.38875E-3,-3.5868983E-3,-1.2508661E-3,-7.888957E-4,-3.09639E-5,5.817963E-4,1.04535306E-4,-7.4507366E-4,-1.4499077E-4,3.3924265E-5,-4.708469E-4,-1.0048961E-3,-8.7395216E-5],"categories":[],"categories_nodes":[],"categories_segments":[],"categories_sizes":[],"default_left":[0,0,0,0,0,0,0,0,0,0,0,0,0,0,0,0,0,0,0,0,0,0,0,0,0,0,0,0,0,0,0,0,0,0,0],"id":20,"left_children":[1,3,5,7,9,11,13,-1,-1,15,-1,17,19,21,23,-1,-1,25,27,29,31,-1,33,-1,-1,-1,-1,-1,-1,-1,-1,-1,-1,-1,-1],"loss_changes":[2.381128E-3,2.4735485E-4,5.002599E-3,8.563977E-5,7.0059294E-5,2.2143715E-3,1.9179699E-3,0E0,0E0,3.953115E-5,0E0,3.670339E-3,5.134419E-3,1.4580351E-4,1.8332154E-4,0E0,0E0,2.1869151E-3,3.8587376E-3,4.275079E-3,3.387589E-3,0E0,5.3598458E-5,0E0,0E0,0E0,0E0,0E0,0E0,0E0,0E0,0E0,0E0,0E0,0E0],"parents":[2147483647,0,0,1,1,2,2,3,3,4,4,5,5,6,6,9,9,11,11,12,12,13,13,14,14,17,17,18,18,19,19,20,20,22,22],"right_children":[2,4,6,8,10,12,14,-1,-1,16,-1,18,20,22,24,-1,-1,26,28,30,32,-1,34,-1,-1,-1,-1,-1,-1,-1,-1,-1,-1,-1,-1],"split_conditions":[3.89E-1,4.9501712E5,6.82355E1,2.34475E1,3.88593E1,3.48981E1,4.57575E1,2.1680156E-4,1.4518385E-3,8.3368406E5,3.3019453E-5,3.29454E-3,-2.2E-3,9.2995E0,3.24527E1,8.2413416E-4,1.908707E-4,-1.1E-3,4.9385503E-1,3.63524E1,7.978942E5,1.1915765E-4,4.747165E-1,-3.5868983E-3,-1.2508661E-3,-7.888957E-4,-3.09639E-5,5.817963E-4,1.04535306E-4,-7.4507366E-4,-1.4499077E-4,3.3924265E-5,-4.708469E-4,-1.0048961E-3,-8.7395216E-5],"split_indices":[0,4,13,5,5,9,11,0,0,4,0,14,7,11,10,0,0,8,19,13,4,0,16,0,0,0,0,0,0,0,0,0,0,0,0],"split_type":[0,0,0,0,0,0,0,0,0,0,0,0,0,0,0,0,0,0,0,0,0,0,0,0,0,0,0,0,0,0,0,0,0,0,0],"sum_hessian":[5.226E3,2.1E1,5.205E3,1.1E1,1E1,5.193E3,1.2E1,1E0,1E1,8E0,2E0,1.391E3,3.802E3,6E0,6E0,6E0,2E0,5.74E2,8.17E2,6.08E2,3.194E3,2E0,4E0,4E0,2E0,4E1,5.34E2,2.39E2,5.78E2,1.61E2,4.47E2,3.056E3,1.38E2,3E0,1E0],"tree_param":{"num_deleted":"0","num_feature":"20","num_nodes":"35","size_leaf_vector":"1"}},{"base_weights":[1.1397955E-6,1.4396929E-4,-2.8791633E-3,2.5983374E-3,-9.027426E-5,1.2043332E-3,-7.00565E-3,-4.4357395E-3,3.9173346E-3,-4.8766723E-3,8.423336E-5,3.2223517E-3,-5.9017437E-3,-1.6095465E-2,-1.7392286E-3,-2.9439297E-2,-2.0223474E-3,1.5062881E-2,2.94947E-3,-1.7839598E-2,1.1777446E-3,2.2595019E-4,-5.699965E-3,-6.2842956E-3,4.374065E-3,4.0368864E-4,-1.223601E-2,-3.2647755E-2,-9.780085E-3,2.2025558E-3,-1.20521495E-2,-1.1924827E-3,-4.2978823E-3,-8.1389066E-4,1.6168642E-6,9.919594E-4,2.1522574E-3,-1.6390848E-3,3.407999E-4,-5.1670845E-6,-7.564605E-3,1.3480504E-3,-4.042368E-4,-1.8758901E-5,2.3226137E-4,8.178763E-4,-1.1360507E-3,3.0830302E-4,-8.7084825E-4,9.117246E-4,3.0241438E-4,5.5092754E-4,-6.218307E-4,-1.5561298E-3,-6.6876813E-4,-1.5797605E-3,-4.6864967E-3,-1.2201112E-3,1.1427886E-3,8.05359E-4,-4.3540378E-4,-1.7739338E-3,-1.866285E-4],"categories":[],"categories_nodes":[],"categories_segments":[],"categories_sizes":[],"default_left":[0,0,0,0,0,0,0,0,0,0,0,0,0,0,0,0,0,0,0,0,0,0,0,0,0,0,0,0,0,0,0,0,0,0,0,0,0,0,0,0,0,0,0,0,0,0,0,0,0,0,0,0,0,0,0,0,0,0,0,0,0,0,0],"id":21,"left_children":[1,3,5,7,9,11,13,15,17,19,21,23,25,27,29,31,33,35,37,39,41,43,45,47,49,51,53,55,57,59,61,-1,-1,-1,-1,-1,-1,-1,-1,-1,-1,-1,-1,-1,-1,-1,-1,-1,-1,-1,-1,-1,-1,-1,-1,-1,-1,-1,-1,-1,-1,-1,-1],"loss_changes":[2.150762E-3,2.8639105E-3,4.1705095E-3,4.0439963E-3,3.7991866E-3,1.8115417E-3,5.860113E-3,4.1041565E-3,3.9037531E-3,1.2578283E-2,3.5990314E-3,1.1004831E-3,1.1232678E-3,4.3847337E-3,3.2379993E-3,9.1031054E-4,7.981287E-4,7.50002E-4,3.0532759E-3,5.2437194E-2,7.11889E-3,3.7157561E-3,8.341833E-3,2.7663822E-4,5.358852E-4,5.4139586E-4,1.5422795E-4,2.134391E-3,1.8851641E-3,2.2601113E-3,1.24133E-3,0E0,0E0,0E0,0E0,0E0,0E0,0E0,0E0,0E0,0E0,0E0,0E0,0E0,0E0,0E0,0E0,0E0,0E0,0E0,0E0,0E0,0E0,0E0,0E0,0E0,0E0,0E0,0E0,0E0,0E0,0E0,0E0],"parents":[2147483647,0,0,1,1,2,2,3,3,4,4,5,5,6,6,7,7,8,8,9,9,10,10,11,11,12,12,13,13,14,14,15,15,16,16,17,17,18,18,19,19,20,20,21,21,22,22,23,23,24,24,25,25,26,26,27,27,28,28,29,29,30,30],"right_children":[2,4,6,8,10,12,14,16,18,20,22,24,26,28,30,32,34,36,38,40,42,44,46,48,50,52,54,56,58,60,62,-1,-1,-1,-1,-1,-1,-1,-1,-1,-1,-1,-1,-1,-1,-1,-1,-1,-1,-1,-1,-1,-1,-1,-1,-1,-1,-1,-1,-1,-1,-1,-1],"split_conditions":[5.722869E-1,-1.2E-3,6.72797E-3,4.32293E-3,-6E-3,5.55499E1,6.122094E-1,2.2497E1,4.658105E-1,5.243536E-1,9.54788E-3,-1.8E-3,5.55347E1,1.4E-3,2.33308E1,4.8841E-1,4.436095E-1,4.6232143E-1,4.4074E-1,4.7117E-1,5.441702E-1,5.96124E-3,-3.3E-3,5.7252E-1,1.25785E1,5.796562E-1,9E-4,4.125649E5,9.94954E-3,4.97281E1,2.6179E1,-1.1924827E-3,-4.2978823E-3,-8.1389066E-4,1.6168642E-6,9.919594E-4,2.1522574E-3,-1.6390848E-3,3.407999E-4,-5.1670845E-6,-7.564605E-3,1.3480504E-3,-4.042368E-4,-1.8758901E-5,2.3226137E-4,8.178763E-4,-1.1360507E-3,3.0830302E-4,-8.7084825E-4,9.117246E-4,3.0241438E-4,5.5092754E-4,-6.218307E-4,-1.5561298E-3,-6.6876813E-4,-1.5797605E-3,-4.6864967E-3,-1.2201112E-3,1.1427886E-3,8.05359E-4,-4.3540378E-4,-1.7739338E-3,-1.866285E-4],"split_indices":[17,8,14,14,6,5,15,13,16,15,14,7,12,7,13,0,16,19,1,0,15,14,6,3,13,17,7,4,14,5,13,0,0,0,0,0,0,0,0,0,0,0,0,0,0,0,0,0,0,0,0,0,0,0,0,0,0,0,0,0,0,0,0],"split_type":[0,0,0,0,0,0,0,0,0,0,0,0,0,0,0,0,0,0,0,0,0,0,0,0,0,0,0,0,0,0,0,0,0,0,0,0,0,0,0,0,0,0,0,0,0,0,0,0,0,0,0,0,0,0,0,0,0,0,0,0,0,0,0],"sum_hessian":[5.226E3,4.98E3,2.46E2,4.33E2,4.547E3,1.24E2,1.22E2,6.8E1,3.65E2,1.59E2,4.388E3,9.7E1,2.7E1,4.4E1,7.8E1,5E0,6.3E1,2.8E1,3.37E2,5E1,1.09E2,4.284E3,1.04E2,1E1,8.7E1,1.4E1,1.3E1,1.1E1,3.3E1,5.7E1,2.1E1,3E0,2E0,1.5E1,4.8E1,1.7E1,1.1E1,7E0,3.3E2,3.9E1,1.1E1,3.2E1,7.7E1,3.579E3,7.05E2,3E1,7.4E1,2E0,8E0,1.8E1,6.9E1,8E0,6E0,7E0,6E0,6E0,5E0,3E1,3E0,3E1,2.7E1,1.3E1,8E0],"tree_param":{"num_deleted":"0","num_feature":"20","num_nodes":"63","size_leaf_vector":"1"}},{"base_weights":[-2.9469486E-6,1.0358163E-3,-3.9367867E-4,7.6320197E-4,1.843605E-2,-2.5077103E-4,-7.4861743E-3,1.6705778E-4,6.035617E-3,3.7685966E-3,1.05574895E-2,1.977407E-2,-3.1540415E-4,-1.8805014E-2,-5.2469205E-3,-2.548311E-2,3.2991264E-4,1.3394658E-2,1.5531301E-3,1.3721441E-2,2.1971743E-4,2.3532882E-2,6.5334263E-4,-1.3470791E-2,-1.467513E-4,-2.6857087E-3,-2.3879703E-2,-1.444726E-2,-3.0648264E-3,-1.2336567E-3,-3.5545516E-3,5.03377E-5,-1.1657454E-3,1.0960082E-3,2.8175379E-3,-2.191837E-5,1.0429312E-3,6.4532075E-4,1.9029471E-3,2.3723627E-4,-2.0061669E-4,2.667066E-3,7.3211815E-4,2.2396204E-4,-1.2596064E-4,-5.555664E-4,-2.387843E-3,-2.2452293E-4,2.1938738E-5,2.4324279E-4,-5.2025635E-4,-7.9836574E-4,-2.7280909E-3,-7.4682024E-4,-2.6538325E-3,2.5011034E-4,-7.095522E-4],"categories":[],"categories_nodes":[],"categories_segments":[],"categories_sizes":[],"default_left":[0,0,0,0,0,0,0,0,0,0,0,0,0,0,0,0,0,0,0,0,0,0,0,0,0,0,0,0,0,0,0,0,0,0,0,0,0,0,0,0,0,0,0,0,0,0,0,0,0,0,0,0,0,0,0,0,0],"id":22,"left_children":[1,3,5,7,9,11,13,15,17,-1,19,21,23,25,27,29,31,33,35,37,39,41,43,45,47,49,51,53,55,-1,-1,-1,-1,-1,-1,-1,-1,-1,-1,-1,-1,-1,-1,-1,-1,-1,-1,-1,-1,-1,-1,-1,-1,-1,-1,-1,-1],"loss_changes":[2.1219307E-3,6.764467E-3,3.848681E-3,4.424505E-3,2.938686E-3,4.8273834E-3,1.8022633E-3,5.2968124E-3,4.6963086E-3,0E0,5.5302505E-4,8.470793E-4,8.23825E-3,9.174715E-4,1.2405862E-3,6.19777E-4,2.623808E-3,1.6343752E-3,1.41811E-3,3.7873886E-4,2.8717051E-5,3.1342637E-4,1.1924445E-5,3.7390962E-3,2.8187414E-3,6.418128E-5,2.6878994E-4,8.144174E-4,1.2067787E-3,0E0,0E0,0E0,0E0,0E0,0E0,0E0,0E0,0E0,0E0,0E0,0E0,0E0,0E0,0E0,0E0,0E0,0E0,0E0,0E0,0E0,0E0,0E0,0E0,0E0,0E0,0E0,0E0],"parents":[2147483647,0,0,1,1,2,2,3,3,4,4,5,5,6,6,7,7,8,8,10,10,11,11,12,12,13,13,14,14,15,15,16,16,17,17,18,18,19,19,20,20,21,21,22,22,23,23,24,24,25,25,26,26,27,27,28,28],"right_children":[2,4,6,8,10,12,14,16,18,-1,20,22,24,26,28,30,32,34,36,38,40,42,44,46,48,50,52,54,56,-1,-1,-1,-1,-1,-1,-1,-1,-1,-1,-1,-1,-1,-1,-1,-1,-1,-1,-1,-1,-1,-1,-1,-1,-1,-1,-1,-1],"split_conditions":[4.8117405E-1,4.5E-3,2.8E-3,5.42336E-3,4.38794E-3,4.5858276E-1,4.868681E-1,-6.5E-3,4.7976E1,3.7685966E-3,9.45947E1,1.182547E6,4.5088026E-1,5.67393E1,6.7486E1,4.0888E-1,3.1E-3,8.74614E-3,4.566703E-1,6.51641E1,9.91432E1,4.5674542E-1,4.0261E-1,-1.7E-3,2.66629E-3,4.4594E-1,4.6756E-1,5.769159E-1,8.41224E1,-1.2336567E-3,-3.5545516E-3,5.03377E-5,-1.1657454E-3,1.0960082E-3,2.8175379E-3,-2.191837E-5,1.0429312E-3,6.4532075E-4,1.9029471E-3,2.3723627E-4,-2.0061669E-4,2.667066E-3,7.3211815E-4,2.2396204E-4,-1.2596064E-4,-5.555664E-4,-2.387843E-3,-2.2452293E-4,2.1938738E-5,2.4324279E-4,-5.2025635E-4,-7.9836574E-4,-2.7280909E-3,-7.4682024E-4,-2.6538325E-3,2.5011034E-4,-7.095522E-4],"split_indices":[15,7,8,14,14,18,19,7,5,0,12,4,17,5,10,3,7,14,17,5,12,18,0,6,14,3,0,15,9,0,0,0,0,0,0,0,0,0,0,0,0,0,0,0,0,0,0,0,0,0,0,0,0,0,0,0,0],"split_type":[0,0,0,0,0,0,0,0,0,0,0,0,0,0,0,0,0,0,0,0,0,0,0,0,0,0,0,0,0,0,0,0,0,0,0,0,0,0,0,0,0,0,0,0,0,0,0,0,0,0,0,0,0,0,0,0,0],"sum_hessian":[5.226E3,1.428E3,3.798E3,1.407E3,2.1E1,3.724E3,7.4E1,1.265E3,1.42E2,5E0,1.6E1,1.1E1,3.713E3,1.1E1,6.3E1,7E0,1.258E3,5.3E1,8.9E1,1.2E1,4E0,9E0,2E0,4.6E1,3.667E3,3E0,8E0,1.1E1,5.2E1,4E0,3E0,1.241E3,1.7E1,4.7E1,6E0,7.5E1,1.4E1,6E0,6E0,2E0,2E0,7E0,2E0,1E0,1E0,2.7E1,1.9E1,5.44E2,3.123E3,1E0,2E0,2E0,6E0,8E0,3E0,2.2E1,3E1],"tree_param":{"num_deleted":"0","num_feature":"20","num_nodes":"57","size_leaf_vector":"1"}},{"base_weights":[-3.0211281E-6,2.4914317E-4,-1.4900545E-3,8.624492E-6,1.0446584E-2,-2.0988963E-3,8.203347E-3,2.1686284E-4,-3.4078462E-3,7.1201767E-3,7.4220127E-3,-4.4578225E-3,-5.756821E-4,1.2169602E-2,-2.4958642E-3,3.1300107E-4,-1.2467977E-2,-6.074852E-2,-2.2333069E-3,-1.3485891E-4,1.395109E-2,-2.5798505E-2,-3.3221394E-3,2.3050816E-3,-2.9921222E-3,3.5832939E-3,1.5746985E-2,3.8798602E-4,-6.9656745E-3,2.2502985E-5,1.3060794E-3,2.7507797E-4,-1.7021395E-3,-1.3149006E-3,-6.936115E-3,7.0828403E-4,-4.1765315E-4,4.0466143E-4,-1.3364953E-3,-1.9147029E-3,1.7964952E-3,-5.597533E-3,-2.8141213E-4,-8.439856E-5,-1.1857704E-3,1.1207846E-3,1.0779715E-4,-5.0404854E-4,1.1684082E-4,-8.044636E-4,8.949347E-4,1.6697685E-3,-2.584219E-4,-1.1058635E-3,-2.2981712E-4],"categories":[],"categories_nodes":[],"categories_segments":[],"categories_sizes":[],"default_left":[0,0,0,0,0,0,0,0,0,0,0,0,0,0,0,0,0,0,0,0,0,0,0,0,0,0,0,0,0,0,0,0,0,0,0,0,0,0,0,0,0,0,0,0,0,0,0,0,0,0,0,0,0,0,0],"id":23,"left_children":[1,3,5,7,9,11,13,15,17,19,-1,21,23,25,27,29,31,33,35,37,39,41,43,45,47,49,51,-1,53,-1,-1,-1,-1,-1,-1,-1,-1,-1,-1,-1,-1,-1,-1,-1,-1,-1,-1,-1,-1,-1,-1,-1,-1,-1,-1],"loss_changes":[1.9603746E-3,1.0963367E-2,4.490743E-3,3.1083098E-3,2.1321628E-2,2.5629424E-3,1.9399843E-3,5.0257957E-3,1.6768899E-2,4.9081743E-3,0E0,6.7004454E-3,3.0350161E-3,9.57218E-4,3.9750343E-4,4.581504E-3,2.1950412E-3,1.137754E-3,4.5011127E-3,2.7648255E-3,7.119391E-3,9.55282E-3,5.6376937E-3,2.161928E-3,2.0256692E-3,7.583513E-4,4.439829E-4,0E0,1.2741657E-4,0E0,0E0,0E0,0E0,0E0,0E0,0E0,0E0,0E0,0E0,0E0,0E0,0E0,0E0,0E0,0E0,0E0,0E0,0E0,0E0,0E0,0E0,0E0,0E0,0E0,0E0],"parents":[2147483647,0,0,1,1,2,2,3,3,4,4,5,5,6,6,7,7,8,8,9,9,11,11,12,12,13,13,14,14,15,15,16,16,17,17,18,18,19,19,20,20,21,21,22,22,23,23,24,24,25,25,26,26,28,28],"right_children":[2,4,6,8,10,12,14,16,18,20,-1,22,24,26,28,30,32,34,36,38,40,42,44,46,48,50,52,-1,54,-1,-1,-1,-1,-1,-1,-1,-1,-1,-1,-1,-1,-1,-1,-1,-1,-1,-1,-1,-1,-1,-1,-1,-1,-1,-1],"split_conditions":[5.662804E-1,5.632555E-1,4.18619E1,1.7E-3,2.3E-3,5.724504E-1,4.70245E1,5.6959E-1,3.94738E1,2.52991E1,7.4220127E-3,3.37363E1,5.9180427E-1,3.89005E1,7.89696E1,9.3E-3,6.87813E-3,1.0551265E5,-3.1E-3,5.7316E-1,-8.2E-3,2.62691E1,5.759E-1,2.44667E1,3E-3,2.1147586E5,5.890795E-1,3.8798602E-4,8.5124E1,2.2502985E-5,1.3060794E-3,2.7507797E-4,-1.7021395E-3,-1.3149006E-3,-6.936115E-3,7.0828403E-4,-4.1765315E-4,4.0466143E-4,-1.3364953E-3,-1.9147029E-3,1.7964952E-3,-5.597533E-3,-2.8141213E-4,-8.439856E-5,-1.1857704E-3,1.1207846E-3,1.0779715E-4,-5.0404854E-4,1.1684082E-4,-8.044636E-4,8.949347E-4,1.6697685E-3,-2.584219E-4,-1.1058635E-3,-2.2981712E-4],"split_indices":[19,19,13,8,8,19,5,3,5,13,0,5,15,12,12,6,14,4,6,3,7,13,0,9,7,4,16,0,11,0,0,0,0,0,0,0,0,0,0,0,0,0,0,0,0,0,0,0,0,0,0,0,0,0,0],"split_type":[0,0,0,0,0,0,0,0,0,0,0,0,0,0,0,0,0,0,0,0,0,0,0,0,0,0,0,0,0,0,0,0,0,0,0,0,0,0,0,0,0,0,0,0,0,0,0,0,0,0,0,0,0,0,0],"sum_hessian":[5.226E3,4.469E3,7.57E2,4.367E3,1.02E2,7.13E2,4.4E1,4.117E3,2.5E2,9.8E1,4E0,2.79E2,4.34E2,3.2E1,1.2E1,4.087E3,3E1,4E0,2.46E2,4.8E1,5E1,1.3E1,2.66E2,1.98E2,2.36E2,1E1,2.2E1,5E0,7E0,4.06E3,2.7E1,7E0,2.3E1,1E0,3E0,4.2E1,2.04E2,3.7E1,1.1E1,5E0,4.5E1,5E0,8E0,2.07E2,5.9E1,2.3E1,1.75E2,1.58E2,7.8E1,3E0,7E0,2.1E1,1E0,3E0,4E0],"tree_param":{"num_deleted":"0","num_feature":"20","num_nodes":"55","size_leaf_vector":"1"}},{"base_weights":[-4.142502E-6,2.9853042E-3,-1.2676732E-4,1.3071643E-3,2.156538E-2,1.2295281E-5,-3.0374196E-3,8.891202E-4,1.6596973E-3,8.40289E-4,2.3785705E-2,2.2202237E-3,-2.0743717E-4,4.666727E-4,-6.0610003E-3,-2.407019E-3,2.2913697E-3,1.5490152E-3,2.8071103E-3,-3.948617E-3,3.3771356E-3,-4.411694E-3,-4.7301866E-5,-1.5752122E-3,1.249462E-3,-1.4205137E-2,-1.3452139E-3,-6.8168354E-4,-1.3001714E-4,4.413195E-4,-2.6461124E-4,-2.5574116E-3,-1.8595291E-4,1.2546045E-3,2.5804626E-4,-1.6028127E-3,1.01421276E-4,7.871356E-6,-4.9650535E-4,6.6312227E-6,6.832874E-4,-2.9463235E-3,-8.4021286E-4,2.1948514E-4,-1.0616967E-3],"categories":[],"categories_nodes":[],"categories_segments":[],"categories_sizes":[],"default_left":[0,0,0,0,0,0,0,0,0,0,0,0,0,0,0,0,0,0,0,0,0,0,0,0,0,0,0,0,0,0,0,0,0,0,0,0,0,0,0,0,0,0,0,0,0],"id":24,"left_children":[1,3,5,7,9,11,13,15,-1,-1,17,19,21,23,25,27,29,-1,-1,31,33,35,37,-1,39,41,43,-1,-1,-1,-1,-1,-1,-1,-1,-1,-1,-1,-1,-1,-1,-1,-1,-1,-1],"loss_changes":[1.916494E-3,6.394883E-3,2.0327566E-3,1.199688E-3,2.9695593E-4,2.3262866E-3,2.429062E-3,8.652092E-4,0E0,0E0,6.287079E-5,3.1107084E-3,2.9358347E-3,1.3781427E-3,4.70483E-3,2.6447262E-4,1.3840955E-3,0E0,0E0,3.0696965E-3,2.6411181E-3,1.0101005E-2,2.6044226E-3,0E0,6.799662E-4,3.736875E-3,2.616289E-3,0E0,0E0,0E0,0E0,0E0,0E0,0E0,0E0,0E0,0E0,0E0,0E0,0E0,0E0,0E0,0E0,0E0,0E0],"parents":[2147483647,0,0,1,1,2,2,3,3,4,4,5,5,6,6,7,7,10,10,11,11,12,12,13,13,14,14,15,15,16,16,19,19,20,20,21,21,22,22,24,24,25,25,26,26],"right_children":[2,4,6,8,10,12,14,16,-1,-1,18,20,22,24,26,28,30,-1,-1,32,34,36,38,-1,40,42,44,-1,-1,-1,-1,-1,-1,-1,-1,-1,-1,-1,-1,-1,-1,-1,-1,-1,-1],"split_conditions":[1.15981E1,6.04026E-3,5.722869E-1,5.864365E-1,1.0125859E5,-1.2E-3,6.72797E-3,2.25418E-3,1.6596973E-3,8.40289E-4,7.09333E1,4.32293E-3,-6E-3,2.66629E-3,6.122094E-1,4.5584825E-1,5.2527875E-1,1.5490152E-3,2.8071103E-3,2.2497E1,4.658105E-1,5.243536E-1,9.54788E-3,-1.5752122E-3,6.0555327E-1,1.4E-3,2.33308E1,-6.8168354E-4,-1.3001714E-4,4.413195E-4,-2.6461124E-4,-2.5574116E-3,-1.8595291E-4,1.2546045E-3,2.5804626E-4,-1.6028127E-3,1.01421276E-4,7.871356E-6,-4.9650535E-4,6.6312227E-6,6.832874E-4,-2.9463235E-3,-8.4021286E-4,2.1948514E-4,-1.0616967E-3],"split_indices":[13,14,17,15,4,8,14,14,0,0,9,14,6,14,15,19,15,0,0,13,16,15,14,0,15,7,13,0,0,0,0,0,0,0,0,0,0,0,0,0,0,0,0,0,0],"split_type":[0,0,0,0,0,0,0,0,0,0,0,0,0,0,0,0,0,0,0,0,0,0,0,0,0,0,0,0,0,0,0,0,0,0,0,0,0,0,0,0,0,0,0,0,0],"sum_hessian":[5.226E3,2.05E2,5.021E3,1.89E2,1.6E1,4.793E3,2.28E2,1.85E2,4E0,3E0,1.3E1,4.33E2,4.36E3,1.06E2,1.22E2,5.5E1,1.3E2,6E0,7E0,6.8E1,3.65E2,1.59E2,4.201E3,4E0,1.02E2,4.4E1,7.8E1,1E1,4.5E1,9.1E1,3.9E1,5E0,6.3E1,2.8E1,3.37E2,5E1,1.09E2,4.097E3,1.04E2,8.5E1,1.7E1,1.1E1,3.3E1,5.7E1,2.1E1],"tree_param":{"num_deleted":"0","num_feature":"20","num_nodes":"45","size_leaf_vector":"1"}},{"base_weights":[-4.209118E-6,5.4407245E-3,-7.062279E-5,7.5120367E-3,-9.7385505E-3,-1.1878027E-2,-2.7022383E-5,8.966875E-3,-3.9528124E-3,-1.3878716E-2,9.621304E-4,-2.5756652E-3,-2.745698E-3,5.4503075E-6,-1.6708788E-2,7.51833E-3,1.8336483E-3,-1.4266908E-3,-9.5547707E-4,-2.3838082E-4,-1.5397234E-3,1.2920029E-3,-1.1600919E-2,-6.8305526E-5,4.7294893E-3,-3.2097038E-3,-5.528532E-3,8.1500225E-4,-4.042034E-4,-2.6027462E-4,6.169467E-5,1.2095348E-6,4.274422E-4,-3.3874586E-4,-1.3209586E-3,-1.6342947E-4,2.3802742E-5,8.289056E-4,-4.8698005E-4,8.618307E-5,-8.2570437E-4],"categories":[],"categories_nodes":[],"categories_segments":[],"categories_sizes":[],"default_left":[0,0,0,0,0,0,0,0,0,0,0,0,0,0,0,0,0,0,0,0,0,0,0,0,0,0,0,0,0,0,0,0,0,0,0,0,0,0,0,0,0],"id":25,"left_children":[1,3,5,7,9,11,13,15,17,19,-1,21,-1,23,25,27,-1,29,-1,-1,-1,31,33,35,37,-1,39,-1,-1,-1,-1,-1,-1,-1,-1,-1,-1,-1,-1,-1,-1],"loss_changes":[1.8905618E-3,2.0539407E-3,2.6586603E-3,9.694963E-4,7.747554E-4,2.6827806E-3,2.7882303E-3,5.407552E-4,8.5426895E-5,8.5482374E-5,0E0,4.6877534E-4,0E0,1.790533E-3,1.5429966E-3,3.6155945E-4,0E0,1.602634E-5,0E0,0E0,0E0,3.8120503E-5,8.103962E-6,2.4277424E-3,2.739742E-3,0E0,1.2916939E-4,0E0,0E0,0E0,0E0,0E0,0E0,0E0,0E0,0E0,0E0,0E0,0E0,0E0,0E0],"parents":[2147483647,0,0,1,1,2,2,3,3,4,4,5,5,6,6,7,7,8,8,9,9,11,11,13,13,14,14,15,15,17,17,21,21,22,22,23,23,24,24,26,26],"right_children":[2,4,6,8,10,12,14,16,18,20,-1,22,-1,24,26,28,-1,30,-1,-1,-1,32,34,36,38,-1,40,-1,-1,-1,-1,-1,-1,-1,-1,-1,-1,-1,-1,-1,-1],"split_conditions":[3.981195E-1,4.0403E-1,3.9869E-1,9.78642E1,1.7E-3,3.37363E1,6.82355E1,6.07449E1,3.9414E-1,3.9173E-1,9.621304E-4,-1.1E-3,-2.745698E-3,5.69281E1,4.38794E-3,4.0245E-1,1.8336483E-3,3.9173E-1,-9.5547707E-4,-2.3838082E-4,-1.5397234E-3,-2.3E-3,3.9414E-1,-2.4E-3,4.51878E1,-3.2097038E-3,2.87213E1,8.1500225E-4,-4.042034E-4,-2.6027462E-4,6.169467E-5,1.2095348E-6,4.274422E-4,-3.3874586E-4,-1.3209586E-3,-1.6342947E-4,2.3802742E-5,8.289056E-4,-4.8698005E-4,8.618307E-5,-8.2570437E-4],"split_indices":[16,1,3,12,6,5,13,5,0,2,0,8,0,13,14,1,0,2,0,0,0,6,0,7,10,0,11,0,0,0,0,0,0,0,0,0,0,0,0,0,0],"split_type":[0,0,0,0,0,0,0,0,0,0,0,0,0,0,0,0,0,0,0,0,0,0,0,0,0,0,0,0,0,0,0,0,0,0,0,0,0,0,0,0,0],"sum_hessian":[5.226E3,6.2E1,5.164E3,5.5E1,7E0,1.8E1,5.146E3,4.9E1,6E0,6E0,1E0,1.2E1,6E0,5.137E3,9E0,4.4E1,5E0,5E0,1E0,1E0,5E0,9E0,3E0,5.059E3,7.8E1,3E0,6E0,4.2E1,2E0,3E0,2E0,7E0,2E0,1E0,2E0,8.27E2,4.232E3,5.7E1,2.1E1,2E0,4E0],"tree_param":{"num_deleted":"0","num_feature":"20","num_nodes":"41","size_leaf_vector":"1"}},{"base_weights":[-5.2133696E-6,-4.3064043E-5,8.560785E-3,-2.9410576E-3,1.0190277E-4,2.3056205E-2,3.2533791E-3,-1.0100784E-2,2.2125621E-4,4.0473178E-4,-1.4334945E-3,2.7517658E-3,3.744741E-5,6.235049E-3,-8.741228E-3,2.3887265E-3,-5.7085745E-2,7.179124E-3,-3.1703652E-3,2.1940866E-4,1.9404132E-2,-2.779335E-2,-1.1054846E-3,9.726824E-3,8.5490325E-4,-1.2123245E-3,7.02411E-5,-1.6721279E-3,4.393571E-4,-6.613647E-3,4.1795755E-4,1.2066353E-5,1.9273596E-3,4.2250712E-4,-6.643568E-4,-9.490409E-6,2.614592E-4,6.475638E-3,4.1484335E-4,-1.0374304E-3,-3.377661E-3,1.4212707E-4,-2.1693086E-4,-2.8779124E-5,1.1014625E-3,-3.2076353E-4,4.7037154E-4],"categories":[],"categories_nodes":[],"categories_segments":[],"categories_sizes":[],"default_left":[0,0,0,0,0,0,0,0,0,0,0,0,0,0,0,0,0,0,0,0,0,0,0,0,0,0,0,0,0,0,0,0,0,0,0,0,0,0,0,0,0,0,0,0,0,0,0],"id":26,"left_children":[1,3,5,7,9,11,13,15,17,19,21,-1,-1,23,25,27,29,31,33,35,37,39,41,43,45,-1,-1,-1,-1,-1,-1,-1,-1,-1,-1,-1,-1,-1,-1,-1,-1,-1,-1,-1,-1,-1,-1],"loss_changes":[1.6951127E-3,2.1869873E-3,1.6944505E-3,5.617278E-3,2.305866E-3,5.9685577E-4,6.982532E-4,4.4734616E-2,4.105293E-3,1.4579839E-2,7.033298E-3,0E0,0E0,2.734784E-4,1.362697E-4,2.4105343E-3,9.148359E-3,4.86367E-3,3.0333144E-3,3.089137E-3,2.740657E-2,6.918181E-4,2.1750056E-3,1.1924136E-4,1.2453944E-4,0E0,0E0,0E0,0E0,0E0,0E0,0E0,0E0,0E0,0E0,0E0,0E0,0E0,0E0,0E0,0E0,0E0,0E0,0E0,0E0,0E0,0E0],"parents":[2147483647,0,0,1,1,2,2,3,3,4,4,5,5,6,6,7,7,8,8,9,9,10,10,13,13,14,14,15,15,16,16,17,17,18,18,19,19,20,20,21,21,22,22,23,23,24,24],"right_children":[2,4,6,8,10,12,14,16,18,20,22,-1,-1,24,26,28,30,32,34,36,38,40,42,44,46,-1,-1,-1,-1,-1,-1,-1,-1,-1,-1,-1,-1,-1,-1,-1,-1,-1,-1,-1,-1,-1,-1],"split_conditions":[1.488232E-2,-6E-3,3.13992E1,5.2527875E-1,5.61248E-1,5.7E-1,9.278911E5,4.7117E-1,5.1853E-1,5.632555E-1,5.4433477E-1,2.7517658E-3,3.744741E-5,6.22859E1,2.358304E6,4.38794E-3,-5.8E-3,-9.1E-3,3.5683E1,6.65559E-3,6.25369E-3,5.628755E-1,3.88762E1,3.37363E1,4.5443E-1,-1.2123245E-3,7.02411E-5,-1.6721279E-3,4.393571E-4,-6.613647E-3,4.1795755E-4,1.2066353E-5,1.9273596E-3,4.2250712E-4,-6.643568E-4,-9.490409E-6,2.614592E-4,6.475638E-3,4.1484335E-4,-1.0374304E-3,-3.377661E-3,1.4212707E-4,-2.1693086E-4,-2.8779124E-5,1.1014625E-3,-3.2076353E-4,4.7037154E-4],"split_indices":[14,6,5,15,16,1,4,0,3,19,19,0,0,11,4,14,7,6,5,14,14,16,10,5,0,0,0,0,0,0,0,0,0,0,0,0,0,0,0,0,0,0,0,0,0,0,0],"split_type":[0,0,0,0,0,0,0,0,0,0,0,0,0,0,0,0,0,0,0,0,0,0,0,0,0,0,0,0,0,0,0,0,0,0,0,0,0,0,0,0,0,0,0,0,0,0,0],"sum_hessian":[5.226E3,5.204E3,2.2E1,2.47E2,4.957E3,5E0,1.7E1,7.5E1,1.72E2,4.141E3,8.16E2,4E0,1E0,1.4E1,3E0,6E1,1.5E1,5.6E1,1.16E2,4.102E3,3.9E1,9E0,8.07E2,8E0,6E0,2E0,1E0,5E0,5.5E1,1.3E1,2E0,3.6E1,2E1,3.7E1,7.9E1,3.627E3,4.75E2,9E0,3E1,3E0,6E0,2.39E2,5.68E2,1E0,7E0,3E0,3E0],"tree_param":{"num_deleted":"0","num_feature":"20","num_nodes":"47","size_leaf_vector":"1"}},{"base_weights":[-4.7319886E-6,8.922768E-4,-3.4214204E-4,6.4029376E-4,1.6978635E-2,-2.2085012E-4,-6.3617453E-3,1.261739E-4,5.1873946E-3,3.4508228E-3,9.792975E-3,1.646924E-2,-2.792262E-4,-1.6905762E-2,-4.28534E-3,-2.068078E-2,2.5828625E-4,1.1505859E-2,1.3386783E-3,1.2605643E-2,5.214447E-4,2.1146517E-2,6.587388E-4,-1.2995536E-2,-1.19676166E-4,-8.617626E-3,-2.6785627E-3,7.3933327E-3,-5.62095E-3,-1.0008187E-3,-2.8851326E-3,4.1526953E-5,-1.0587908E-3,9.197925E-4,2.5688E-3,-2.432596E-5,9.2645845E-4,5.861772E-4,1.7548709E-3,2.477851E-4,-1.6087765E-4,2.2379116E-3,5.026567E-4,2.2836635E-4,-6.4412394E-5,-1.9784584E-3,-1.3356545E-4,-2.0587088E-4,2.1863769E-5,2.620107E-4,-1.0597318E-3,7.9455285E-6,2.56383E-3,4.962713E-4,-6.9375784E-4],"categories":[],"categories_nodes":[],"categories_segments":[],"categories_sizes":[],"default_left":[0,0,0,0,0,0,0,0,0,0,0,0,0,0,0,0,0,0,0,0,0,0,0,0,0,0,0,0,0,0,0,0,0,0,0,0,0,0,0,0,0,0,0,0,0,0,0,0,0,0,0,0,0,0,0],"id":27,"left_children":[1,3,5,7,9,11,13,15,17,-1,19,21,23,25,27,29,31,33,35,37,39,41,43,45,47,49,-1,51,53,-1,-1,-1,-1,-1,-1,-1,-1,-1,-1,-1,-1,-1,-1,-1,-1,-1,-1,-1,-1,-1,-1,-1,-1,-1,-1],"loss_changes":[1.582308E-3,5.781565E-3,2.7723562E-3,3.2909045E-3,2.433219E-3,3.6338724E-3,1.5695773E-3,3.4853928E-3,3.4620683E-3,0E0,4.3674826E-4,9.474214E-4,7.5317044E-3,7.517992E-4,1.0398393E-3,4.088576E-4,2.1480597E-3,1.5312219E-3,1.1307E-3,3.3049355E-4,2.48242E-5,8.620368E-5,9.939178E-6,3.6149109E-3,2.4066637E-3,2.0574406E-4,0E0,9.3205296E-4,8.4264483E-4,0E0,0E0,0E0,0E0,0E0,0E0,0E0,0E0,0E0,0E0,0E0,0E0,0E0,0E0,0E0,0E0,0E0,0E0,0E0,0E0,0E0,0E0,0E0,0E0,0E0,0E0],"parents":[2147483647,0,0,1,1,2,2,3,3,4,4,5,5,6,6,7,7,8,8,10,10,11,11,12,12,13,13,14,14,15,15,16,16,17,17,18,18,19,19,20,20,21,21,22,22,23,23,24,24,25,25,27,27,28,28],"right_children":[2,4,6,8,10,12,14,16,18,-1,20,22,24,26,28,30,32,34,36,38,40,42,44,46,48,50,-1,52,54,-1,-1,-1,-1,-1,-1,-1,-1,-1,-1,-1,-1,-1,-1,-1,-1,-1,-1,-1,-1,-1,-1,-1,-1,-1,-1],"split_conditions":[4.8117405E-1,4.5E-3,2.8E-3,5.42336E-3,4.38794E-3,4.59657E-1,4.868681E-1,-6.5E-3,4.7976E1,3.4508228E-3,9.45947E1,1.182547E6,4.5088026E-1,4.8336E-1,7.64374E1,4.0888E-1,3.1E-3,8.74614E-3,4.566703E-1,6.51641E1,9.91432E1,4.7349E-1,4.0261E-1,4.7226143E-1,2.66629E-3,4.4594E-1,-2.6785627E-3,5.934138E5,2.0265344E5,-1.0008187E-3,-2.8851326E-3,4.1526953E-5,-1.0587908E-3,9.197925E-4,2.5688E-3,-2.432596E-5,9.2645845E-4,5.861772E-4,1.7548709E-3,2.477851E-4,-1.6087765E-4,2.2379116E-3,5.026567E-4,2.2836635E-4,-6.4412394E-5,-1.9784584E-3,-1.3356545E-4,-2.0587088E-4,2.1863769E-5,2.620107E-4,-1.0597318E-3,7.9455285E-6,2.56383E-3,4.962713E-4,-6.9375784E-4],"split_indices":[15,7,8,14,14,16,19,7,5,0,12,4,17,3,11,3,7,14,17,5,12,0,0,18,14,3,0,4,4,0,0,0,0,0,0,0,0,0,0,0,0,0,0,0,0,0,0,0,0,0,0,0,0,0,0],"split_type":[0,0,0,0,0,0,0,0,0,0,0,0,0,0,0,0,0,0,0,0,0,0,0,0,0,0,0,0,0,0,0,0,0,0,0,0,0,0,0,0,0,0,0,0,0,0,0,0,0,0,0,0,0,0,0],"sum_hessian":[5.226E3,1.428E3,3.798E3,1.407E3,2.1E1,3.724E3,7.4E1,1.265E3,1.42E2,5E0,1.6E1,1.2E1,3.712E3,1.1E1,6.3E1,7E0,1.258E3,5.3E1,8.9E1,1.2E1,4E0,9E0,3E0,4.5E1,3.667E3,7E0,4E0,6E0,5.7E1,4E0,3E0,1.241E3,1.7E1,4.7E1,6E0,7.5E1,1.4E1,6E0,6E0,2E0,2E0,8E0,1E0,1E0,2E0,2.8E1,1.7E1,5.44E2,3.123E3,1E0,6E0,5E0,1E0,6E0,5.1E1],"tree_param":{"num_deleted":"0","num_feature":"20","num_nodes":"55","size_leaf_vector":"1"}},{"base_weights":[-3.3265849E-6,2.6703246E-3,-1.129978E-4,1.1542751E-3,1.9457329E-2,1.000649E-6,-3.0121636E-3,7.7267416E-4,1.511898E-3,2.3129169E-2,1.0907678E-2,-1.02136975E-4,4.233222E-3,5.061593E-4,-5.6313407E-3,8.81209E-5,6.45006E-3,6.635434E-4,2.4114999E-3,1.1686016E-3,3.1188267E-4,-2.742619E-7,-8.901939E-3,6.869522E-3,-3.4652795E-3,-1.4172752E-3,1.440626E-3,-2.0232622E-2,-1.7065039E-3,3.4167922E-5,-1.3886959E-3,1.3271774E-3,3.2913708E-4,-4.7773356E-4,1.4637146E-5,-1.9453677E-3,-2.1228667E-4,7.601216E-4,-6.5041607E-4,1.3292901E-3,-7.3486316E-4,-7.395493E-5,5.8294204E-4,-4.42386E-3,-1.4419795E-3,1.5490355E-4,-8.998407E-4],"categories":[],"categories_nodes":[],"categories_segments":[],"categories_sizes":[],"default_left":[0,0,0,0,0,0,0,0,0,0,0,0,0,0,0,0,0,0,0,0,0,0,0,0,0,0,0,0,0,0,0,0,0,0,0,0,0,0,0,0,0,0,0,0,0,0,0],"id":28,"left_children":[1,3,5,7,9,11,13,15,-1,17,19,21,23,25,27,29,31,-1,-1,-1,-1,33,35,37,39,-1,41,43,45,-1,-1,-1,-1,-1,-1,-1,-1,-1,-1,-1,-1,-1,-1,-1,-1,-1,-1],"loss_changes":[1.5329762E-3,5.220226E-3,1.6597761E-3,1.0008177E-3,2.8139492E-4,2.1100426E-3,1.7537214E-3,7.2231557E-4,0E0,1.884671E-5,5.989801E-6,4.2299754E-3,2.3577942E-3,1.1452077E-3,6.212007E-3,5.9650897E-4,3.8727117E-4,0E0,0E0,0E0,0E0,3.2693981E-3,3.8213753E-3,8.9098746E-4,2.050022E-3,0E0,7.506418E-4,2.571568E-3,2.0792386E-3,0E0,0E0,0E0,0E0,0E0,0E0,0E0,0E0,0E0,0E0,0E0,0E0,0E0,0E0,0E0,0E0,0E0,0E0],"parents":[2147483647,0,0,1,1,2,2,3,3,4,4,5,5,6,6,7,7,9,9,10,10,11,11,12,12,13,13,14,14,15,15,16,16,21,21,22,22,23,23,24,24,26,26,27,27,28,28],"right_children":[2,4,6,8,10,12,14,16,-1,18,20,22,24,26,28,30,32,-1,-1,-1,-1,34,36,38,40,-1,42,44,46,-1,-1,-1,-1,-1,-1,-1,-1,-1,-1,-1,-1,-1,-1,-1,-1,-1,-1],"split_conditions":[1.15981E1,6.04026E-3,5.7458377E-1,5.864365E-1,7.14677E-3,1.153484E-2,6.72797E-3,4.78602E-3,1.511898E-3,5.4867E-1,5.5643E-1,1.05423E-2,9.19935E1,2.66629E-3,6.0987103E-1,5.8178E-1,4.1461305E4,6.635434E-4,2.4114999E-3,1.1686016E-3,3.1188267E-4,-6.8E-3,2.82787E1,8.46576E1,4.719094E-1,-1.4172752E-3,5.07432E-3,1.3E-3,2.29117E1,3.4167922E-5,-1.3886959E-3,1.3271774E-3,3.2913708E-4,-4.7773356E-4,1.4637146E-5,-1.9453677E-3,-2.1228667E-4,7.601216E-4,-6.5041607E-4,1.3292901E-3,-7.3486316E-4,-7.395493E-5,5.8294204E-4,-4.42386E-3,-1.4419795E-3,1.5490355E-4,-8.998407E-4],"split_indices":[13,14,17,15,14,14,14,14,0,0,0,14,11,14,15,2,4,0,0,0,0,6,13,10,15,0,14,7,13,0,0,0,0,0,0,0,0,0,0,0,0,0,0,0,0,0,0],"split_type":[0,0,0,0,0,0,0,0,0,0,0,0,0,0,0,0,0,0,0,0,0,0,0,0,0,0,0,0,0,0,0,0,0,0,0,0,0,0,0,0,0,0,0,0,0,0,0],"sum_hessian":[5.226E3,2.05E2,5.021E3,1.89E2,1.6E1,4.832E3,1.89E2,1.85E2,4E0,1E1,6E0,4.718E3,1.14E2,8.1E1,1.08E2,1.66E2,1.9E1,1E0,9E0,5E0,1E0,4.665E3,5.3E1,8.5E1,2.9E1,4E0,7.7E1,2.2E1,8.6E1,1.64E2,2E0,5E0,1.4E1,1.38E2,4.527E3,2E1,3.3E1,8.1E1,4E0,5E0,2.4E1,5.2E1,2.5E1,3E0,1.9E1,6E1,2.6E1],"tree_param":{"num_deleted":"0","num_feature":"20","num_nodes":"47","size_leaf_vector":"1"}},{"base_weights":[-3.5805726E-6,4.7147563E-3,-6.1131715E-5,8.112938E-3,-2.9969802E-3,-1.1150196E-2,-2.0184882E-5,6.4757373E-3,1.7402584E-3,-1.1400931E-2,3.555731E-3,-3.5882427E-3,-2.693639E-3,7.2899206E-6,-1.413472E-2,8.458978E-3,2.738622E-3,4.4996498E-4,-1.3950959E-2,7.326919E-3,-1.4366106E-3,8.485029E-4,-9.6453205E-3,8.403503E-4,-3.7725625E-4,-2.6698455E-3,-4.9361973E-3,2.1613103E-4,8.912631E-4,6.756724E-4,-6.908599E-5,-5.810439E-4,-1.569606E-3,1.0692714E-3,-7.2504554E-5,-2.596368E-4,5.8860303E-5,-6.055011E-5,3.9583445E-4,-2.2188229E-4,-1.2803864E-3,6.0109156E-5,8.850366E-4,-2.803306E-4,-9.332777E-7,-3.5916946E-5,-8.2791754E-4],"categories":[],"categories_nodes":[],"categories_segments":[],"categories_sizes":[],"default_left":[0,0,0,0,0,0,0,0,0,0,0,0,0,0,0,0,0,0,0,0,0,0,0,0,0,0,0,0,0,0,0,0,0,0,0,0,0,0,0,0,0,0,0,0,0,0,0],"id":29,"left_children":[1,3,5,7,9,11,13,15,-1,17,19,21,-1,23,25,27,29,-1,31,33,35,37,39,41,43,-1,45,-1,-1,-1,-1,-1,-1,-1,-1,-1,-1,-1,-1,-1,-1,-1,-1,-1,-1,-1,-1],"loss_changes":[1.4196575E-3,1.6752849E-3,2.3450055E-3,5.56502E-4,1.1419118E-3,2.1714603E-3,1.9960792E-3,2.658862E-4,0E0,4.2769674E-4,2.3645062E-4,3.8441608E-4,0E0,1.6462762E-3,1.0238893E-3,5.216105E-5,2.1136808E-4,0E0,2.2447086E-5,1.9746154E-4,1.5620772E-5,4.309228E-5,1.12331996E-4,3.105105E-3,3.1383573E-3,0E0,1.0413269E-4,0E0,0E0,0E0,0E0,0E0,0E0,0E0,0E0,0E0,0E0,0E0,0E0,0E0,0E0,0E0,0E0,0E0,0E0,0E0,0E0],"parents":[2147483647,0,0,1,1,2,2,3,3,4,4,5,5,6,6,7,7,9,9,10,10,11,11,13,13,14,14,15,15,16,16,18,18,19,19,20,20,21,21,22,22,23,23,24,24,26,26],"right_children":[2,4,6,8,10,12,14,16,-1,18,20,22,-1,24,26,28,30,-1,32,34,36,38,40,42,44,-1,46,-1,-1,-1,-1,-1,-1,-1,-1,-1,-1,-1,-1,-1,-1,-1,-1,-1,-1,-1,-1],"split_conditions":[3.981195E-1,9.57986E1,3.9869E-1,4.0094E-1,3.9892733E-1,3.22913E1,6.82355E1,3.9568326E-1,1.7402584E-3,3.89E-1,9.78642E1,-1.8E-3,-2.693639E-3,3.91644E1,4.38794E-3,2.34475E1,5.00776E1,4.4996498E-4,1.4E-3,4.9501712E5,3.9173E-1,-2.3E-3,3.9656E-1,2.7E-3,-2.4E-3,-2.6698455E-3,3.56388E1,2.1613103E-4,8.912631E-4,6.756724E-4,-6.908599E-5,-5.810439E-4,-1.569606E-3,1.0692714E-3,-7.2504554E-5,-2.596368E-4,5.8860303E-5,-6.055011E-5,3.9583445E-4,-2.2188229E-4,-1.2803864E-3,6.0109156E-5,8.850366E-4,-2.803306E-4,-9.332777E-7,-3.5916946E-5,-8.2791754E-4],"split_indices":[16,11,3,3,19,9,13,18,0,0,12,8,0,10,14,5,5,0,8,4,2,6,1,6,7,0,11,0,0,0,0,0,0,0,0,0,0,0,0,0,0,0,0,0,0,0,0],"split_type":[0,0,0,0,0,0,0,0,0,0,0,0,0,0,0,0,0,0,0,0,0,0,0,0,0,0,0,0,0,0,0,0,0,0,0,0,0,0,0,0,0,0,0,0,0,0,0],"sum_hessian":[5.226E3,6.2E1,5.164E3,4.3E1,1.9E1,1.8E1,5.146E3,3.8E1,5E0,8E0,1.1E1,1.3E1,5E0,5.137E3,9E0,2.4E1,1.4E1,1E0,7E0,6E0,5E0,8E0,5E0,1.622E3,3.515E3,3E0,6E0,2E0,2.2E1,6E0,8E0,2E0,5E0,4E0,2E0,3E0,2E0,6E0,2E0,2E0,3E0,1.576E3,4.6E1,4.62E2,3.053E3,3E0,3E0],"tree_param":{"num_deleted":"0","num_feature":"20","num_nodes":"47","size_leaf_vector":"1"}},{"base_weights":[-4.022382E-6,-3.719284E-5,7.5027714E-3,1.9928174E-4,-1.2157176E-3,1.3564482E-2,-8.290351E-3,1.1573391E-4,3.6330502E-2,-2.549757E-2,-9.322865E-4,3.3318745E-3,2.039412E-2,-1.5822476E-2,1.3143612E-3,-1.261931E-4,3.963433E-3,7.969471E-3,6.36089E-3,-9.5399667E-4,-3.097369E-3,-1.3867582E-3,7.962929E-3,-2.207279E-3,5.5461394E-4,2.843745E-2,6.663301E-3,-2.1482883E-3,5.7937345E-5,3.1192065E-3,-2.0500874E-4,-7.4053816E-5,1.4129502E-4,3.0912712E-4,3.4545881E-3,1.3768808E-3,-2.6372506E-4,2.213104E-4,-2.1828784E-4,1.4791208E-3,3.1920194E-4,-1.222957E-5,-3.188623E-4,1.1450585E-3,3.4068238E-3,-1.7598014E-4,1.2865303E-3,7.038906E-5,3.9749194E-4],"categories":[],"categories_nodes":[],"categories_segments":[],"categories_sizes":[],"default_left":[0,0,0,0,0,0,0,0,0,0,0,0,0,0,0,0,0,0,0,0,0,0,0,0,0,0,0,0,0,0,0,0,0,0,0,0,0,0,0,0,0,0,0,0,0,0,0,0,0],"id":30,"left_children":[1,3,5,7,9,11,13,15,17,19,21,23,25,27,29,31,33,-1,35,-1,-1,37,39,41,-1,43,45,-1,-1,47,-1,-1,-1,-1,-1,-1,-1,-1,-1,-1,-1,-1,-1,-1,-1,-1,-1,-1,-1],"loss_changes":[1.301822E-3,1.4508298E-3,2.3143212E-3,1.3084814E-2,5.963773E-3,1.1200947E-3,5.2720367E-4,4.0283417E-3,1.2489153E-2,5.783695E-4,3.4917416E-3,1.10363086E-4,9.149276E-4,3.838113E-4,3.0683885E-5,3.8513874E-3,6.7214603E-3,0E0,5.029142E-4,0E0,0E0,2.3548873E-3,1.3210247E-3,5.748303E-6,0E0,1.8379558E-4,2.8384087E-4,0E0,0E0,3.4025397E-6,0E0,0E0,0E0,0E0,0E0,0E0,0E0,0E0,0E0,0E0,0E0,0E0,0E0,0E0,0E0,0E0,0E0,0E0,0E0],"parents":[2147483647,0,0,1,1,2,2,3,3,4,4,5,5,6,6,7,7,8,8,9,9,10,10,11,11,12,12,13,13,14,14,15,15,16,16,18,18,21,21,22,22,23,23,25,25,26,26,29,29],"right_children":[2,4,6,8,10,12,14,16,18,20,22,24,26,28,30,32,34,-1,36,-1,-1,38,40,42,-1,44,46,-1,-1,48,-1,-1,-1,-1,-1,-1,-1,-1,-1,-1,-1,-1,-1,-1,-1,-1,-1,-1,-1],"split_conditions":[2.358304E6,5.61248E-1,4.3E-3,5.6327724E-1,5.4433477E-1,5.4229796E-1,3.09385E1,5.399798E-1,6.25369E-3,5.628755E-1,4.18619E1,4.8977235E-1,6.0148215E-1,5.6109E-1,5.5479E-1,1.1E-3,2.1E-3,7.969471E-3,7.68017E1,-9.5399667E-4,-3.097369E-3,1.54643E1,5.7712966E-1,3.89E-1,5.5461394E-4,2.13582E1,5.6178E-1,-2.1482883E-3,5.7937345E-5,4.5641E-1,-2.0500874E-4,-7.4053816E-5,1.4129502E-4,3.0912712E-4,3.4545881E-3,1.3768808E-3,-2.6372506E-4,2.213104E-4,-2.1828784E-4,1.4791208E-3,3.1920194E-4,-1.222957E-5,-3.188623E-4,1.1450585E-3,3.4068238E-3,-1.7598014E-4,1.2865303E-3,7.038906E-5,3.9749194E-4],"split_indices":[4,16,7,18,19,15,13,17,14,16,13,15,15,0,0,7,8,0,9,0,0,12,19,0,0,11,0,0,0,0,0,0,0,0,0,0,0,0,0,0,0,0,0,0,0,0,0,0,0],"split_type":[0,0,0,0,0,0,0,0,0,0,0,0,0,0,0,0,0,0,0,0,0,0,0,0,0,0,0,0,0,0,0,0,0,0,0,0,0,0,0,0,0,0,0,0,0,0,0,0,0],"sum_hessian":[5.226E3,5.204E3,2.2E1,4.335E3,8.69E2,1.6E1,6E0,4.326E3,9E0,9E0,8.6E2,7E0,9E0,3E0,3E0,4.071E3,2.55E2,3E0,6E0,3E0,6E0,8.19E2,4.1E1,2E0,5E0,5E0,4E0,2E0,1E0,2E0,1E0,2.91E3,1.161E3,2.49E2,6E0,3E0,3E0,1.48E2,6.71E2,1.6E1,2.5E1,1E0,1E0,2E0,3E0,2E0,2E0,1E0,1E0],"tree_param":{"num_deleted":"0","num_feature":"20","num_nodes":"49","size_leaf_vector":"1"}},{"base_weights":[-8.0360917E-7,8.2420063E-4,-3.1113008E-4,5.9581746E-4,1.5403258E-2,-1.7604975E-4,-4.7563543E-3,4.2191503E-4,1.2061569E-2,3.150338E-3,8.814788E-3,2.3544168E-3,-2.0174983E-4,-1.5758969E-2,-2.6215813E-3,5.689068E-4,-1.0199171E-2,2.4562662E-3,2.4791518E-3,1.1382083E-2,3.7686378E-4,-7.130098E-3,-7.537616E-5,-3.7809766E-3,-3.908479E-3,-5.1724E-3,3.9942726E-3,1.1719363E-5,2.5627663E-4,-1.157136E-3,9.762934E-5,8.114846E-4,-5.448299E-4,5.226478E-4,1.5911678E-3,2.2329639E-4,-1.6048575E-4,-1.4509266E-3,2.2085464E-4,5.3096353E-4,-1.6455086E-5,-8.703824E-4,-6.259532E-5,-9.847152E-5,-8.767567E-4,8.092103E-4,-6.749587E-4],"categories":[],"categories_nodes":[],"categories_segments":[],"categories_sizes":[],"default_left":[0,0,0,0,0,0,0,0,0,0,0,0,0,0,0,0,0,0,0,0,0,0,0,0,0,0,0,0,0,0,0,0,0,0,0,0,0,0,0,0,0,0,0,0,0,0,0],"id":31,"left_children":[1,3,5,7,9,11,13,15,17,-1,19,-1,21,23,25,27,29,-1,31,33,35,37,39,41,-1,43,45,-1,-1,-1,-1,-1,-1,-1,-1,-1,-1,-1,-1,-1,-1,-1,-1,-1,-1,-1,-1],"loss_changes":[1.3384764E-3,4.7488366E-3,2.2803186E-3,2.8023534E-3,2.055957E-3,2.2529978E-3,2.5893522E-3,2.1727646E-3,2.4547102E-3,0E0,3.639754E-4,0E0,3.2259044E-3,4.8813582E-3,1.623865E-3,1.2335936E-3,3.0265911E-4,0E0,6.2500895E-4,2.7930888E-4,2.1974955E-5,4.5801983E-3,1.7392223E-3,1.9646391E-4,0E0,1.0301908E-3,1.243334E-3,0E0,0E0,0E0,0E0,0E0,0E0,0E0,0E0,0E0,0E0,0E0,0E0,0E0,0E0,0E0,0E0,0E0,0E0,0E0,0E0],"parents":[2147483647,0,0,1,1,2,2,3,3,4,4,5,5,6,6,7,7,8,8,10,10,12,12,13,13,14,14,15,15,16,16,18,18,19,19,20,20,21,21,22,22,23,23,25,25,26,26],"right_children":[2,4,6,8,10,12,14,16,18,-1,20,-1,22,24,26,28,30,-1,32,34,36,38,40,42,-1,44,46,-1,-1,-1,-1,-1,-1,-1,-1,-1,-1,-1,-1,-1,-1,-1,-1,-1,-1,-1,-1],"split_conditions":[4.8117405E-1,4.5E-3,9.95641E1,8.74614E-3,4.38794E-3,4.3953988E-1,4.7685486E-1,3.1E-3,4.97281E1,3.150338E-3,9.45947E1,2.3544168E-3,4.5088026E-1,4.813829E-1,9.11126E1,4.7626576E-1,5.4E-3,2.4562662E-3,4.7626576E-1,6.51641E1,9.91432E1,1.153484E-2,4.7E-1,4.7197E-1,-3.908479E-3,2.51885E1,4.3E-3,1.1719363E-5,2.5627663E-4,-1.157136E-3,9.762934E-5,8.114846E-4,-5.448299E-4,5.226478E-4,1.5911678E-3,2.2329639E-4,-1.6048575E-4,-1.4509266E-3,2.2085464E-4,5.3096353E-4,-1.6455086E-5,-8.703824E-4,-6.259532E-5,-9.847152E-5,-8.767567E-4,8.092103E-4,-6.749587E-4],"split_indices":[15,7,11,14,14,19,17,7,5,0,12,0,17,18,9,15,6,0,15,5,12,14,1,16,0,13,6,0,0,0,0,0,0,0,0,0,0,0,0,0,0,0,0,0,0,0,0],"split_type":[0,0,0,0,0,0,0,0,0,0,0,0,0,0,0,0,0,0,0,0,0,0,0,0,0,0,0,0,0,0,0,0,0,0,0,0,0,0,0,0,0,0,0,0,0,0,0],"sum_hessian":[5.226E3,1.428E3,3.798E3,1.407E3,2.1E1,3.687E3,1.11E2,1.387E3,2E1,5E0,1.6E1,3E0,3.684E3,1.7E1,9.4E1,1.369E3,1.8E1,8E0,1.2E1,1.2E1,4E0,6.5E1,3.619E3,1.2E1,5E0,6.8E1,2.6E1,1.117E3,2.52E2,1.6E1,2E0,7E0,5E0,6E0,6E0,2E0,2E0,3.6E1,2.9E1,5.8E1,3.561E3,4E0,8E0,3.2E1,3.6E1,1.9E1,7E0],"tree_param":{"num_deleted":"0","num_feature":"20","num_nodes":"47","size_leaf_vector":"1"}},{"base_weights":[-1.0819347E-7,2.3984746E-3,-9.849687E-5,1.0226836E-3,1.7633876E-2,9.578819E-4,-3.7196573E-4,6.6701096E-4,1.4049168E-3,2.089907E-2,9.983731E-3,7.793246E-4,2.7017947E-3,-8.036725E-5,-2.4595035E-3,-2.2922382E-3,1.9269418E-3,6.157793E-4,2.1757418E-3,1.0680709E-3,2.9009324E-4,-4.5491234E-4,3.6092424E-3,1.6696002E-2,-1.380115E-4,-3.8124884E-3,2.6479205E-3,-5.285558E-4,-9.62771E-5,3.7066932E-4,-2.070237E-4,-1.7712826E-5,-1.0112942E-3,1.1061964E-3,2.5352812E-4,2.2525429E-3,7.11234E-4,-1.051644E-3,-3.2896376E-6,-7.824146E-5,-6.4710365E-4,7.6956075E-4,-3.0718895E-4],"categories":[],"categories_nodes":[],"categories_segments":[],"categories_sizes":[],"default_left":[0,0,0,0,0,0,0,0,0,0,0,0,0,0,0,0,0,0,0,0,0,0,0,0,0,0,0,0,0,0,0,0,0,0,0,0,0,0,0,0,0,0,0],"id":32,"left_children":[1,3,5,7,9,11,13,15,-1,17,19,21,-1,23,25,27,29,-1,-1,-1,-1,31,33,35,37,39,41,-1,-1,-1,-1,-1,-1,-1,-1,-1,-1,-1,-1,-1,-1,-1,-1],"loss_changes":[1.2337735E-3,4.2998763E-3,1.4511454E-3,8.709301E-4,2.1599606E-4,4.7857156E-3,2.4286064E-3,6.979085E-4,0E0,5.206559E-6,3.571855E-6,3.5887363E-3,0E0,3.3889527E-3,3.389216E-3,2.177644E-4,9.396058E-4,0E0,0E0,0E0,0E0,1.9191271E-3,2.469182E-3,5.1019853E-4,3.8080902E-3,3.112453E-3,2.9974363E-3,0E0,0E0,0E0,0E0,0E0,0E0,0E0,0E0,0E0,0E0,0E0,0E0,0E0,0E0,0E0,0E0],"parents":[2147483647,0,0,1,1,2,2,3,3,4,4,5,5,6,6,7,7,9,9,10,10,11,11,13,13,14,14,15,15,16,16,21,21,22,22,23,23,24,24,25,25,26,26],"right_children":[2,4,6,8,10,12,14,16,-1,18,20,22,-1,24,26,28,30,-1,-1,-1,-1,32,34,36,38,40,42,-1,-1,-1,-1,-1,-1,-1,-1,-1,-1,-1,-1,-1,-1,-1,-1],"split_conditions":[1.15981E1,6.04026E-3,4.6942E-1,5.864365E-1,7.14677E-3,4.6E-3,9.19935E1,2.25418E-3,1.4049168E-3,5.4867E-1,5.5643E-1,4.6347934E-1,2.7017947E-3,4.6218532E-1,5.3928703E-1,1.44341E-3,5.202055E-1,6.157793E-4,2.1757418E-3,1.0680709E-3,2.9009324E-4,4.6218532E-1,4.6568742E-1,9.01229E1,4.645789E-1,3.72865E-3,5.756481E-1,-5.285558E-4,-9.62771E-5,3.7066932E-4,-2.070237E-4,-1.7712826E-5,-1.0112942E-3,1.1061964E-3,2.5352812E-4,2.2525429E-3,7.11234E-4,-1.051644E-3,-3.2896376E-6,-7.824146E-5,-6.4710365E-4,7.6956075E-4,-3.0718895E-4],"split_indices":[13,14,1,15,14,7,11,14,0,0,0,19,0,18,17,14,16,0,0,0,0,18,19,9,19,14,15,0,0,0,0,0,0,0,0,0,0,0,0,0,0,0,0],"split_type":[0,0,0,0,0,0,0,0,0,0,0,0,0,0,0,0,0,0,0,0,0,0,0,0,0,0,0,0,0,0,0,0,0,0,0,0,0,0,0,0,0,0,0],"sum_hessian":[5.226E3,2.05E2,5.021E3,1.89E2,1.6E1,1.032E3,3.989E3,1.85E2,4E0,1E1,6E0,1.026E3,6E0,3.501E3,4.88E2,5.5E1,1.3E2,1E0,9E0,5E0,1E0,7.15E2,3.11E2,1.1E1,3.49E3,3.86E2,1.02E2,1.6E1,3.9E1,9E1,4E1,6.96E2,1.9E1,3.8E1,2.73E2,6E0,5E0,3.4E1,3.456E3,1.81E2,2.05E2,5.4E1,4.8E1],"tree_param":{"num_deleted":"0","num_feature":"20","num_nodes":"43","size_leaf_vector":"1"}},{"base_weights":[1.7721E-6,4.3488536E-3,-5.1251696E-5,6.0649803E-3,-8.207641E-3,-1.0165786E-2,-1.3904229E-5,7.2749644E-3,-3.4441887E-3,-1.1717052E-2,8.179121E-4,-3.1992819E-3,-2.4726668E-3,9.602134E-6,-1.2090083E-2,6.031268E-3,1.5390194E-3,9.563175E-5,-6.122962E-3,-1.3875401E-3,-4.2141197E-4,8.651907E-4,-8.762777E-3,-5.280667E-5,4.006804E-3,-2.4636039E-3,-3.1938115E-3,6.558323E-4,-3.5336067E-4,-7.128279E-5,6.027276E-5,-7.246017E-5,-7.680882E-4,-4.9382048E-5,3.74782E-4,6.415276E-6,-1.0540993E-3,5.856635E-6,-3.0381704E-4,5.840321E-4,-9.228496E-4,2.3074837E-4,-5.8558263E-4],"categories":[],"categories_nodes":[],"categories_segments":[],"categories_sizes":[],"default_left":[0,0,0,0,0,0,0,0,0,0,0,0,0,0,0,0,0,0,0,0,0,0,0,0,0,0,0,0,0,0,0,0,0,0,0,0,0,0,0,0,0,0,0],"id":33,"left_children":[1,3,5,7,9,11,13,15,17,19,-1,21,-1,23,25,27,-1,29,31,-1,-1,33,35,37,39,-1,41,-1,-1,-1,-1,-1,-1,-1,-1,-1,-1,-1,-1,-1,-1,-1,-1],"loss_changes":[1.2050399E-3,1.4073368E-3,1.9509492E-3,6.6938926E-4,5.5589835E-4,1.8482227E-3,1.4611798E-3,4.1182153E-4,6.6962195E-5,5.4884993E-5,0E0,3.241589E-4,0E0,1.2819401E-3,1.0374394E-3,2.5002914E-4,0E0,2.0695072E-6,2.8075272E-5,0E0,0E0,3.710848E-5,9.485331E-5,1.6825722E-3,1.9710022E-3,0E0,1.16023926E-4,0E0,0E0,0E0,0E0,0E0,0E0,0E0,0E0,0E0,0E0,0E0,0E0,0E0,0E0,0E0,0E0],"parents":[2147483647,0,0,1,1,2,2,3,3,4,4,5,5,6,6,7,7,8,8,9,9,11,11,13,13,14,14,15,15,17,17,18,18,21,21,22,22,23,23,24,24,26,26],"right_children":[2,4,6,8,10,12,14,16,18,20,-1,22,-1,24,26,28,-1,30,32,-1,-1,34,36,38,40,-1,42,-1,-1,-1,-1,-1,-1,-1,-1,-1,-1,-1,-1,-1,-1,-1,-1],"split_conditions":[3.981195E-1,4.0403E-1,3.9869E-1,9.78642E1,1.7E-3,4.27053E1,6.82355E1,6.07449E1,5.05991E1,-9E-4,8.179121E-4,-1.8E-3,-2.4726668E-3,5.69281E1,4.38794E-3,4.0245E-1,1.5390194E-3,3.9173E-1,1.0863751E5,-1.3875401E-3,-4.2141197E-4,-2.3E-3,3.9263E-1,5.02908E1,8.89828E1,-2.4636039E-3,2.87213E1,6.558323E-4,-3.5336067E-4,-7.128279E-5,6.027276E-5,-7.246017E-5,-7.680882E-4,-4.9382048E-5,3.74782E-4,6.415276E-6,-1.0540993E-3,5.856635E-6,-3.0381704E-4,5.840321E-4,-9.228496E-4,2.3074837E-4,-5.8558263E-4],"split_indices":[16,1,3,12,6,11,13,5,5,7,0,8,0,13,14,1,0,2,4,0,0,6,1,13,11,0,11,0,0,0,0,0,0,0,0,0,0,0,0,0,0,0,0],"split_type":[0,0,0,0,0,0,0,0,0,0,0,0,0,0,0,0,0,0,0,0,0,0,0,0,0,0,0,0,0,0,0,0,0,0,0,0,0,0,0,0,0,0,0],"sum_hessian":[5.226E3,6.2E1,5.164E3,5.5E1,7E0,1.8E1,5.146E3,4.9E1,6E0,6E0,1E0,1.3E1,5E0,5.137E3,9E0,4.4E1,5E0,3E0,3E0,4E0,2E0,8E0,5E0,5.059E3,7.8E1,3E0,6E0,4.2E1,2E0,1E0,2E0,1E0,2E0,6E0,2E0,1E0,4E0,4.878E3,1.81E2,6.9E1,9E0,2E0,4E0],"tree_param":{"num_deleted":"0","num_feature":"20","num_nodes":"43","size_leaf_vector":"1"}},{"base_weights":[3.224005E-7,-3.09297E-5,7.0727947E-3,8.859935E-5,-2.079475E-3,1.2567861E-2,-7.282765E-3,7.987801E-7,4.2769397E-3,-3.9648588E-4,-6.211201E-3,3.1017107E-3,1.8883996E-2,-1.4430492E-2,1.6856537E-3,1.4052406E-4,-3.844545E-3,1.2411638E-2,4.971211E-4,-1.3352646E-3,1.0776293E-2,-2.6729248E-2,-4.833968E-3,-2.0738267E-3,5.172528E-4,2.6281498E-2,6.230191E-3,-1.9612224E-3,5.5734883E-5,3.1071922E-3,-1.2894809E-4,-2.9522056E-5,1.0158684E-4,-2.9698724E-4,-2.3662702E-3,5.3686387E-4,3.2869559E-3,9.787612E-4,-1.5938013E-4,2.6080452E-5,-6.9657183E-4,1.7398002E-3,1.9798345E-4,-1.2051406E-3,-4.272031E-3,4.9402483E-4,-7.5936766E-4,-8.849241E-6,-3.0222477E-4,1.0696471E-3,3.1399895E-3,-1.6332229E-4,1.2016875E-3,8.776712E-5,3.783117E-4],"categories":[],"categories_nodes":[],"categories_segments":[],"categories_sizes":[],"default_left":[0,0,0,0,0,0,0,0,0,0,0,0,0,0,0,0,0,0,0,0,0,0,0,0,0,0,0,0,0,0,0,0,0,0,0,0,0,0,0,0,0,0,0,0,0,0,0,0,0,0,0,0,0,0,0],"id":34,"left_children":[1,3,5,7,9,11,13,15,17,19,21,23,25,27,29,31,33,35,37,39,41,43,45,47,-1,49,51,-1,-1,53,-1,-1,-1,-1,-1,-1,-1,-1,-1,-1,-1,-1,-1,-1,-1,-1,-1,-1,-1,-1,-1,-1,-1,-1,-1],"loss_changes":[1.1555406E-3,1.274684E-3,1.9058777E-3,1.808903E-3,1.9932352E-3,9.5784874E-4,4.730515E-4,2.5897492E-3,3.0993456E-3,2.1645864E-3,2.216217E-3,9.646764E-5,7.723267E-4,3.2158272E-4,2.0923735E-5,1.7743147E-3,2.8592383E-3,4.4342596E-3,1.375398E-3,1.7092695E-3,8.9751626E-4,6.5873214E-4,2.1684596E-3,5.38135E-6,0E0,1.4275452E-4,2.4714164E-4,0E0,0E0,1.200633E-6,0E0,0E0,0E0,0E0,0E0,0E0,0E0,0E0,0E0,0E0,0E0,0E0,0E0,0E0,0E0,0E0,0E0,0E0,0E0,0E0,0E0,0E0,0E0,0E0,0E0],"parents":[2147483647,0,0,1,1,2,2,3,3,4,4,5,5,6,6,7,7,8,8,9,9,10,10,11,11,12,12,13,13,14,14,15,15,16,16,17,17,18,18,19,19,20,20,21,21,22,22,23,23,25,25,26,26,29,29],"right_children":[2,4,6,8,10,12,14,16,18,20,22,24,26,28,30,32,34,36,38,40,42,44,46,48,-1,50,52,-1,-1,54,-1,-1,-1,-1,-1,-1,-1,-1,-1,-1,-1,-1,-1,-1,-1,-1,-1,-1,-1,-1,-1,-1,-1,-1,-1],"split_conditions":[2.358304E6,7.017396E5,4.3E-3,7.3E-3,5.5416E-1,5.4229796E-1,3.09385E1,5E-3,5.44E-1,5.5549E-1,5.6818E-1,4.8977235E-1,6.0148215E-1,5.6109E-1,5.5479E-1,4.72205E-3,1.016134E-2,5.5122364E-1,5.40541E1,5.1967E-1,1E-4,